1727 64
29 -0.091963656 -0.09940852 0.120079786 0.053770516 0.031295676 0.29497722 -0.018843204 0.036032673 -0.04109163 -0.025135605 -0.058875397 0.21292858 0.17654775 -0.064106576 0.26978552 0.004441332 0.10475427 -0.1459063 -0.0018939353 -0.046728343 0.009588453 -0.029264797 -0.06575808 -0.17664243 -0.07553813 0.23156518 -0.0057608415 0.21651939 -0.21914184 0.070380814 0.22611418 -0.03229295 -0.021914542 0.0059047076 0.04559575 -0.079679556 0.100436814 -0.0308073 0.20965843 -0.0045986394 -0.12898096 0.22783124 0.07883629 -0.08443657 0.030866059 -0.12554994 0.12672973 0.07459232 0.009285117 -0.11576978 -0.04182561 -0.011556298 -0.049843654 0.11573532 -0.019472351 -0.02031562 -0.14872056 0.14080398 -0.0012666427 -0.05660682 -0.13613373 0.13389422 0.13094968 -0.13055407
351 -0.026601022 -0.21516599 0.11703636 -0.0059059653 0.017333321 0.0032901845 0.0047971816 0.04273625 0.0029328724 0.048752684 -0.12061329 0.21490714 0.11845184 -0.13580956 0.25249815 0.022909092 0.15251936 -0.017550226 0.032481857 0.08432301 -0.019771697 0.02738675 -0.134147 -0.025014494 -0.02816437 0.17841114 -0.11926624 0.27482197 -0.14485273 0.09869834 0.14972219 -0.04691733 -0.09515775 -0.031152714 -0.14750627 0.072552115 0.15264614 -0.0667839 0.29745275 -0.051911425 0.09427206 0.2102938 -0.08087225 -0.03920809 0.043291554 -0.19628221 0.118148044 0.012856179 0.008645507 -0.0777792 -0.01833496 -0.009403348 0.022301098 0.05513665 0.06677977 -0.014933572 -0.09741205 0.09081865 0.14166974 -0.024280729 0.094869666 0.07293988 -0.009509947 -0.06565518
60 -0.16419207 -0.083785154 -0.017392332 0.0666035 0.1130441 0.09223934 -0.097598076 0.16069277 -0.021618921 -0.017832411 -0.1650342 0.18402955 0.16790669 -0.15627053 0.23110177 0.09877167 -0.007285504 -0.016201843 0.12934215 -0.0599263 0.08703947 0.08725259 -0.013353839 -0.068497196 -0.10940741 0.1368331 0.01811632 0.23880978 0.037903205 0.105515525 0.118708275 0.009857886 -0.01408916 -0.11447637 -0.03545452 -0.015462595 0.13880892 -0.008913365 0.23515408 -0.122280374 -0.013373683 0.21970591 -0.035823695 -0.0010905581 0.055036575 -0.09955567 -0.10545258 0.12547427 0.071888745 -0.076458156 -0.1355906 -0.013344057 -0.04913432 0.122076936 -0.17091988 -0.019440299 -0.08273978 0.11411667 0.01850767 -0.046562184 -0.19654584 0.07694051 -0.026117548 0.018232571
154 -0.0019355902 -0.17791307 -0.13821432 0.021763703 0.0009082082 0.10053398 0.024592107 0.081336126 0.045635775 0.035585247 -0.035661925 0.073773 0.23061143 -0.105322115 0.2519804 0.016719822 0.114685595 -0.044524428 -0.025526326 -0.06561663 -0.01696694 0.11056389 -0.0290841 -0.07260208 0.00036067996 0.13745819 -0.009567151 0.24740075 -0.06671595 -0.04628861 0.07256128 -0.05269878 -0.15529808 -0.18456294 -0.045099515 0.0018029629 0.15297647 -0.0037829806 0.26443774 -0.03230025 -0.12809432 0.34066492 -0.00062634755 -0.0997968 0.0054154587 -0.10257045 0.061204202 0.11372869 -0.09101549 -0.00075813784 -0.08566602 0.011865741 -0.18238126 0.08452794 -0.07411588 0.1392093 -0.020820146 0.014202916 0.16703174 -0.13770075 0.088058665 -0.15268493 0.11322128 0.06607341
1204 -0.05096622 -0.12710883 0.037529696 -0.055115946 0.23821805 0.038626634 0.16707969 0.058406066 0.070297316 -0.054754965 -0.04851245 0.1365279 0.069991186 -0.21196835 0.23250669 -0.061102968 -0.088191025 -0.04291378 -0.04533133 -0.09032066 0.060894188 0.18895274 -0.119881004 -0.108609624 -0.040220693 0.019239187 -0.113974415 0.17136994 -0.20059241 0.16925338 0.13103627 0.0452057 0.14521211 -0.060356747 -0.034226965 -0.12895666 0.15929443 -0.034816325 0.14733323 -0.054230794 0.07236474 0.3191606 0.02687591 0.0049553127 0.038199924 -0.115686186 0.08286661 0.031082356 0.074242316 -0.12924527 -0.0971479 0.027313715 -0.00048262856 0.08868702 -0.07444468 0.11989128 0.0071440986 -0.06298896 0.07491705 -0.078427024 -0.12960921 0.020834267 -0.07195438 0.12929477
327 -0.06575071 -0.09468849 0.049734145 0.11021898 0.08664585 0.117134705 0.013260732 0.16066809 0.11776712 -0.006763781 -0.096714504 0.115672685 0.11149889 -0.14565973 0.23171638 0.01909041 0.08899171 -0.05218047 -0.17821595 0.03586925 -0.10714012 0.09632032 0.067385755 0.023803215 0.026155714 0.2528464 -0.033407785 0.048508767 -0.16273573 -0.0021866476 0.024033042 -0.017547624 0.024846343 -0.064170286 -0.17878465 0.025004547 0.05725888 -0.09968808 0.26826966 0.010078962 -0.10238522 0.1799679 -0.009986247 0.012432427 0.07769975 -0.026052082 0.07064969 -0.08169315 -0.006392726 0.058407247 -0.17694382 0.06634281 -0.07185315 0.020109385 -0.14890301 0.026747799 -0.0023596715 -0.017257368 0.032235745 -0.069268 -0.024492541 0.14101717 -0.010356392 0.026713489
465 -0.055593684 -0.01544398 0.07563642 0.030286325 0.039427888 0.0014648885 0.10844245 -0.017869677 0.021256521 -0.0464004 0.045795463 0.06399826 0.19054548 -0.13178587 0.17807299 -0.095136695 -0.019808821 -0.06310845 -0.17731367 0.0312219 -0.002679608 0.13540456 -0.014048475 -0.03510446 -0.02288616 0.14016032 0.072187565 0.18719923 -0.102873005 -0.00798939 0.059631854 0.15231101 -0.08128987 0.053966604 -0.074504994 0.101453125 0.09533312 -0.065965205 0.34734976 -0.14562732 -0.022609264 0.22526875 -0.0024072898 -0.10399015 -0.017601414 -0.0036822404 0.059129372 -0.016098175 0.106866546 -0.2260403 -0.09020341 -0.08776474 -0.01621559 0.11737325 -0.01037669 0.07741417 0.04616417 0.124414735 -0.13241668 -0.21018 -0.036146685 -0.03545129 -0.13862285 -0.03732248
197 -0.092943676 -0.015573961 -0.10470824 -0.027686905 0.104636885 0.064970896 0.020321019 0.12155196 0.008827842 -0.06648654 0.0007008875 0.24802607 0.21258861 0.016722906 0.11131337 -0.09621303 0.05824811 -0.00075119734 -0.009869578 0.08335226 -0.027145615 0.2244064 -0.11987094 -0.0428418 0.08933101 0.05490057 0.0065745465 0.23539783 0.00095585507 0.053726513 0.31450948 -0.050820768 0.10680166 -0.16310382 0.108883366 0.20484148 0.026207581 0.01898106 0.22928533 -0.11752718 -0.16594362 0.2791521 -0.014466185 -0.07835543 -0.08071489 -0.024246145 0.0567891 -0.06438286 -0.096588016 -0.02566863 0.063795604 0.0420955 -0.103022665 0.057737365 0.024567965 -0.04954763 0.020987958 0.17267542 0.105170906 -0.20606354 -0.04383884 0.16856557 0.052433427 -0.06381105
1668 0.044686507 -0.26738483 -0.008042287 -0.0121038845 0.036098987 -0.06308863 0.09671353 0.12682328 0.0692587 0.061758544 0.010070996 0.15070917 0.05164674 -0.046098072 0.34632352 0.008036461 0.17860623 0.095811725 0.083707266 -0.083354406 -0.08474766 0.15545022 -0.044347588 -0.28179702 -0.100705355 0.15534769 0.04497932 0.23088005 -0.002758769 0.14043647 0.09557957 -0.017248962 0.050935965 -0.08510361 -0.060290698 0.11422286 -0.035280816 -0.0995351 0.17838474 -0.0673394 -0.0993624 0.15134598 -0.13063115 -0.004572538 0.044235747 0.044753693 0.27780825 0.17553355 -0.046114244 -0.043562863 0.055506628 -0.0030564037 -0.11933385 0.037731335 -0.07022358 0.12029046 -0.10287917 0.06985444 0.011954146 -0.16280769 0.057052635 0.15811323 0.053860866 -0.020642415
975 -0.12521203 -0.109756835 -0.022002414 0.10663604 0.14828764 0.024333587 0.06986182 0.14418222 0.081223756 -0.00320607 -0.0896388 0.0467595 -0.050307594 -0.18286918 0.09874085 -0.06498193 -0.07239827 -0.075399935 0.010421431 -0.1320823 -0.071109705 0.0061262473 -0.08912676 -0.082438305 -0.033023275 0.17477523 0.040006228 0.24192128 -0.05304976 0.049608193 0.2772504 0.06497672 0.10542568 -0.03715302 -0.13476735 0.25848582 0.047242288 0.1146382 0.08959319 -0.054135196 -0.14574602 0.23756303 0.015761083 -0.17025255 -0.029873755 -0.17574167 0.068978205 0.021165058 0.1130305 0.019078217 -0.0042892066 -0.09272631 -0.19829494 -0.065074645 0.09253366 0.046010047 -0.19307384 -0.07880786 0.0483421 -0.03580463 -0.073282056 0.2223416 -0.11782877 0.00029398024
700 0.05484923 -0.092911266 0.0773946 0.04177178 0.13119917 -0.061773676 0.075810224 -0.07629104 0.01553051 0.024941793 -0.0072980784 0.109886155 0.29754275 0.018005528 0.26714367 -0.1540778 0.040209975 -0.11772546 -0.19776842 0.03706121 -0.06973822 0.042877324 0.021238785 -0.029647416 -0.16244732 0.17541099 0.11817946 0.27756852 -0.27259526 0.036810536 0.07432991 -0.14352906 -0.12712549 0.1252713 0.0015071627 0.0061915233 0.0048116106 0.072619736 0.18776855 -0.048181906 -0.003221397 0.23914701 -0.10103822 0.073577255 0.090733595 -0.08118393 0.06136674 -0.04690744 0.06832477 -0.076389305 -0.0774719 -0.085248165 -0.1339546 -0.0049126577 -0.037606668 0.11364949 0.00339434 0.08846661 0.011510761 0.08344662 -0.025849123 0.054890882 -0.008871749 -0.021814315
1129 0.03379111 -0.0754062 -0.06281046 0.13995272 -0.025749395 0.10907748 0.04650468 0.16980158 0.008241883 0.02010496 -0.063256726 0.16569306 0.20581077 -0.0956732 0.1775218 0.019396294 -0.016934069 0.0026060264 0.06342369 0.20035574 -0.01383592 0.118688196 0.012431923 -0.08008294 -0.019052882 0.23717484 -0.07215939 0.15692872 -0.1368287 0.05491293 0.14855984 -0.03704861 0.025185112 -0.053291317 -0.059789706 0.2127624 0.17253718 0.1733833 0.091897175 -0.1717069 0.0008712401 0.270401 -0.012294188 -0.17588216 0.15546247 -0.095758416 0.09363349 0.14323781 -0.09918129 0.022860952 0.08890579 -0.02840841 -0.09000037 0.12051308 -0.011188608 0.06295645 0.06214266 0.059341893 0.026574682 -0.062721126 0.037683584 -0.11836062 -0.0073814397 0.09610954
947 -0.013291658 -0.28931522 -0.017678564 0.06506335 0.10000959 0.04532793 0.1180229 -0.016575139 0.014966182 0.12443123 -0.032557294 0.04757127 0.13057312 -0.057931952 0.20570236 -0.12872759 0.063954614 -0.16946793 -0.031444754 0.042716265 -0.097118504 0.10476604 0.11277418 0.028115781 -0.0076891594 0.117117174 -0.0285633 0.36542073 -0.23188081 0.061790895 0.16673492 -0.0741986 0.005632175 -0.060942408 -0.12554364 -0.0066881115 0.22721496 -0.034292076 0.090511076 -0.061722193 0.02654883 0.10355404 -0.14210494 -0.047229268 -0.1938773 0.022441605 0.11908065 -0.095457956 0.07621171 -0.15885048 -0.15827616 -0.16520812 -0.09733657 0.13082302 0.042934995 -0.06893333 -0.059097 0.14723076 -0.14543474 -0.20450173 0.10528706 0.12576346 0.07645133 0.04121696
244 0.09237989 -0.03935606 0.08492329 0.23700276 0.06982733 0.09136878 0.10158946 0.094780095 0.10197551 -0.13528186 -0.12685545 0.17443748 0.13281539 -0.070852146 0.21926455 -0.053638104 -0.10171228 0.07645548 0.049053412 0.03188319 -0.15119588 0.093326926 -0.007964243 -0.0387575 -0.09987472 0.24228618 -0.072998226 0.17571957 -0.09023121 0.20498303 0.12822515 0.032833494 -0.05275706 0.025870273 -0.044090465 0.14537552 0.12348468 0.10014207 0.09098464 -0.08923308 -0.15845591 0.024240628 -0.06772632 0.09852847 0.033090767 -0.14120443 0.12362098 0.06729894 -0.018573955 -0.08841912 -0.13746162 -0.023224777 0.087393835 0.17263131 -0.21949773 0.16920066 -0.036728293 0.028004345 0.04382568 0.00598219 -0.025357503 0.1491965 0.02846237 -0.008477291
1600 -0.04318305 -0.0012877377 -0.0010147505 0.022607299 0.061179403 -0.010689671 0.038274094 0.18110992 0.12720278 0.056550175 -0.13729574 -0.005830857 0.1309044 0.02416162 0.24297857 0.01675512 -0.0742697 0.00024298308 -0.14403053 -0.038752135 -0.15269104 0.13312078 -0.15140224 -0.14276518 -0.008290897 0.16204481 0.081899144 0.20786923 -0.07881499 0.09447808 0.2717204 0.018223174 0.121089324 -0.0020707825 -0.16149998 0.116973616 0.15242743 -0.013998331 0.12713663 -0.10797926 -0.063524075 0.1179116 0.02496467 -0.12521175 0.09119743 -0.028930115 -0.011982388 0.00020487348 0.03229229 -0.07240325 -0.08251313 0.17345333 -0.0052555534 0.08616105 -0.0028439572 0.050998442 0.0485714 -0.0004572843 0.061106957 -0.019469047 -0.05171377 0.03389821 0.009200652 -0.058721922
694 -0.12747498 -0.2256638 -0.098153725 0.0034770824 0.19306925 -0.032985657 0.051194604 0.19063483 0.015820453 0.07810531 -0.21643044 0.11208353 0.1333224 -0.093663305 0.19855283 0.1437696 0.044335037 -0.03547303 -0.0342369 0.09335848 -0.03383454 0.11055169 -0.13981158 -0.105409026 0.016617784 0.097642824 -0.077929474 0.071904644 -0.06114453 0.09349084 0.15853603 -0.12555653 -0.0003815315 0.031812545 0.082820505 0.097947456 -0.018202672 0.057235055 0.17770539 -0.2734885 0.0086626755 0.18973477 -0.14800179 0.06558969 0.034859788 -0.023328546 0.025317958 -0.047084946 0.015650632 -0.09257278 -0.11206605 0.06351342 -0.24403632 0.13107732 -0.10696712 -0.09707825 -0.13761277 0.06386617 -0.08513827 -0.15050521 0.12871471 0.004256473 -0.024693744 -0.10835888
1407 0.08353903 -0.11577552 -0.054664943 -0.012900978 0.083234675 0.019010667 -3.172052e-05 0.14776649 0.13587636 -0.015180564 -0.06470519 0.040447135 0.091853656 -0.10767376 0.16623129 -0.03188038 -0.110446334 -0.14290984 -0.01773983 -0.096102834 -0.014736446 -0.014353986 -0.10814626 0.105329156 -0.12568477 0.20917505 0.014871807 0.112655 -0.045641053 0.06413561 0.08409379 0.09367849 -0.12843893 -0.101324834 -0.034201432 0.16282052 0.03226121 -0.1928104 0.23244482 -0.078130454 0.11741994 0.33853334 -0.051982068 0.06643582 0.027474442 -0.08429968 0.17801012 0.116160184 0.116465285 0.0046066437 -0.020944329 -0.11255887 -0.0013091312 0.15574309 0.012129367 -0.035811976 0.011257591 0.07240881 0.040147547 -0.049198546 0.020383125 0.040814873 -0.07760949 0.06821116
71 -0.02684957 -0.12948087 -0.1497917 -0.062715195 0.11267368 0.05519924 -0.17142583 0.066772364 -0.0048923222 -0.014701098 -0.027438207 0.22752815 0.037565924 0.06497206 0.20458338 -0.10364167 -0.11316171 -0.13435757 -0.07349341 0.0066652247 -0.09729919 -0.09132643 -0.017162452 -0.08637622 -0.09988252 0.21960856 0.06617449 0.25244728 -0.031355754 -0.10353615 0.2474781 0.114216596 0.13988096 -0.04874934 0.00055373856 0.035001867 0.10092674 0.076910585 0.1590651 -0.14203364 0.02185872 0.20312874 -0.12557556 -0.07099064 0.19135809 -0.164361 -0.02191564 0.056997605 -0.048874944 0.04378979 -0.026805634 -0.10107442 -0.22909161 0.034343705 -0.066040106 0.05905653 0.030106746 0.061457362 -0.023350855 -0.056010354 0.07138999 0.15463321 -0.070637725 0.21453369
974 -0.042284194 -0.10989662 0.038901865 -0.0071112127 0.1632627 -0.012440365 0.19104776 0.106204264 0.118050374 -0.10029786 -0.00859237 0.20206295 0.2598406 -0.032734256 0.31386948 -0.031675488 -0.06732143 0.02542589 -0.16028166 0.0974408 -0.08388227 0.0449572 -0.08816316 -0.08427811 -0.101194754 0.26997316 0.08641819 0.08884266 -0.03043859 -0.056834336 0.013383886 -0.15817149 -0.04130238 0.056170646 -0.081652425 0.14122519 0.106834635 0.00822972 0.123520695 0.010059018 -0.037901707 0.1614986 0.07422264 0.0021835337 0.13007997 -0.17021696 0.18204458 -0.07147663 0.036184292 -0.11809621 -0.018791117 -0.080937535 -0.17184491 0.11195632 0.06582892 0.055764 0.05837985 -0.005776038 0.026246523 -0.16928436 -0.1570021 -0.010512762 0.07170622 -0.004530533
940 -0.13439792 -0.06537355 0.12884854 0.075681105 0.10063153 0.25199658 0.115076534 0.17653915 0.13892236 -0.07071357 0.047740273 0.033163827 0.14687344 -0.067843184 0.18351334 -0.055293575 0.05249083 -0.108113624 0.034895018 -0.052564524 -0.038489312 0.027655864 0.13750291 0.059300084 -0.2566541 0.093544684 -0.13747048 0.19157226 -0.104035884 -0.016516123 0.07174122 0.02711118 -0.11604745 -0.23851493 -0.1259563 0.064788714 0.099470586 0.02428769 0.14697306 -0.14058334 0.105622776 0.40914628 -0.16613151 0.029090151 0.056422032 -0.1314473 -0.01658255 -0.01884056 0.05767951 -0.054352086 -0.033620615 0.032763403 -0.10979155 0.025969999 -0.027890116 0.048770707 -0.056469493 -0.020667953 0.03422566 -0.052336488 0.04846223 0.100318156 -0.09411173 -0.12672076
397 -0.029994259 -0.08569162 0.07770892 -0.05471653 0.10722661 0.29107362 -0.10441769 0.024793535 0.013607541 -0.032457415 -0.0051976424 0.056877594 0.044773616 -0.06588159 0.109214894 -0.011622567 0.014435346 0.017405238 -0.17181072 -0.02322182 0.0031977838 0.15944871 -0.100997426 -0.18686874 -0.055719048 0.33332008 0.0631818 0.23132187 0.017163383 0.15073238 0.13225782 -0.046735983 0.09035988 -0.06407807 -0.065266244 -0.04100168 0.058156893 -0.10782723 0.18234454 -0.14967185 0.011325392 0.16463731 -0.09855293 0.036498874 0.05512065 -0.10366788 0.15731238 0.13527784 0.115574054 -0.018803958 -0.004338025 0.03210215 -0.020257069 0.053390138 -0.07019748 0.13726643 0.008115536 0.081666075 -0.021246184 -0.031624094 -0.043135423 0.16850507 -0.035948828 0.22538887
176 0.04938638 -0.121849194 -0.02902245 0.09922495 0.084090725 -0.005452136 0.07839642 0.11537984 -0.03542406 -0.018021736 -0.14140637 0.24646044 0.25525483 -0.0423324 0.26471943 -0.025897346 0.12675591 -0.029673785 -0.14540178 0.07654511 -0.07058529 0.06625005 0.099077046 -0.07069104 -0.037416562 0.106546536 -0.13240324 0.14674103 -0.011361611 0.019577613 0.091522254 -0.03849344 0.16155884 -0.025645114 -0.07503872 0.02914705 0.041625496 0.091425754 0.15666096 0.0039810655 -0.18934149 0.20995747 -0.06677951 -0.042943906 -0.008015635 -0.23602176 0.17413554 0.0864508 -0.09928645 -0.10180463 -0.037434284 -0.05727766 0.11314697 0.044032276 0.076266885 0.15926455 0.029921291 0.18297409 -0.17091621 -0.14522195 -0.13390175 0.2220725 0.054927383 0.0957228
215 -0.08182609 -0.024154983 -0.0034059898 0.06339296 -0.030873267 -0.040217128 0.060236707 0.17411262 0.17642996 0.08435783 -0.10231172 -0.049653154 0.11152948 -0.16110326 0.31289992 -0.0633241 0.084172934 -0.14530297 -0.068624094 0.14425327 -0.05189862 0.14102337 0.028917179 -0.057486642 -0.084569305 0.16490863 0.002040467 0.18264003 -0.0413048 0.1755724 0.13242824 0.14727114 -0.08786604 -0.035953697 -0.10071963 0.04598 0.010529179 0.048780687 0.21732847 -0.10904035 -0.020002628 0.21587947 -0.06524468 0.028205853 0.04602908 -0.14553504 0.050186917 -0.07182341 0.13009955 -0.040263038 0.12627968 -0.05022667 -0.102377266 0.1391424 -0.04568605 -0.12307197 -0.087127365 0.06801771 0.1515122 0.20482177 0.06701707 -0.019599646 0.018155234 -0.0048648766
376 -0.15361992 -0.15774974 -0.12170942 0.09227774 0.24516582 0.085040994 -0.095480666 -0.08286298 0.05837673 0.037277065 -0.12407785 0.1599758 0.08111517 -0.21790928 0.20203857 0.17813672 -0.11048242 -0.27295995 -0.11524271 0.025551327 -0.107830405 0.15403284 -0.14952508 0.2642031 -0.12639935 0.22328483 0.020212485 0.14486358 -0.09074074 0.06480727 0.17266622 -0.041202866 0.022308089 0.014216689 -0.07042132 0.075515926 0.11566606 -0.01875594 0.07374208 -0.2177894 -0.08801525 0.13295911 -0.16792177 -0.050470386 0.032597035 -0.00588552 0.090348676 0.034109145 -0.05744637 -0.11646992 -0.023354266 -0.017961036 -0.0052909255 0.051677153 -0.06631814 0.10506446 0.022457555 0.021554112 0.10307146 -0.07895431 -0.033753615 0.13031779 0.10372447 0.06938473
1502 -0.08216215 -0.08806971 -0.09136495 -0.010434998 0.12748474 0.06452314 0.08151907 0.28494176 0.05429439 -0.07973924 -0.01675014 0.2174044 0.04856727 -0.17276934 0.06799171 0.07284432 0.032594997 -0.2772995 -0.103762306 0.015612374 0.025431424 0.03014369 0.060918245 -0.08191025 -0.03904621 0.11329203 -0.0016357198 0.07564821 -0.12579793 0.103616156 0.008845269 0.042650495 -0.0025110473 0.016844371 0.14297293 0.13541345 0.09769508 0.013524557 0.2527429 -0.22978759 -0.19197573 0.22719274 -0.093675405 -0.06861537 0.026587011 -0.13377447 0.015310758 0.0979554 0.3055622 -0.14979653 -0.079215765 -0.103669785 -0.049129255 0.011939464 -0.11328813 0.047606926 -0.14285256 0.058285322 0.06370655 -0.1384993 0.023028594 0.06385811 0.03607406 -0.11732301
570 -0.240204 -0.05386709 -0.112155564 0.15195829 0.20398185 0.06192396 0.004099164 0.05452352 -0.044523884 0.027532898 -0.08281699 0.020715848 0.1723701 -0.22541377 0.15283401 0.013687438 0.21560448 -0.14774881 0.053889867 0.22324999 -0.04863013 0.1757939 -0.03780862 -0.086083665 -0.012390922 0.12679854 0.101651415 0.06741636 -0.07644806 0.118109554 0.1376379 0.14610325 0.14866692 -0.047452368 -0.07797429 0.13632591 0.12206307 -0.25155628 0.118451245 -0.18780316 -0.04393181 0.1794338 -0.1052758 0.16865897 -0.013224575 0.07638351 0.14868905 0.013989131 -0.1259151 -0.22647925 -0.09516808 -0.09442868 -0.028720926 0.12058289 -0.0878932 0.13992856 -0.022933569 0.08835294 -0.03128389 -0.07050484 -0.02484469 0.11785362 -0.11860455 0.025183545
1710 0.06889731 0.010203824 0.15124665 0.01506031 0.28511134 0.17652765 0.15307254 0.18314764 0.07164953 0.037455644 -0.086452104 0.038946044 0.078526065 -0.035567187 0.1253345 0.046129175 0.059057087 -0.14842151 -0.02866119 0.030201752 -0.022582658 -0.035736877 0.06866766 -0.12444328 0.02456347 0.13585524 0.1256876 0.2559052 -0.11638635 -0.013637764 0.28210235 0.05392337 -0.006604189 -0.104798175 -0.05078523 0.22314705 0.011201047 0.11463663 0.044890214 -0.12803179 0.11214172 0.22613125 -0.14583714 -0.14377949 -0.046506792 -0.18362111 0.09335317 0.027881388 0.040074307 -0.034390718 0.068109214 -0.08622057 -0.12940045 -0.09824378 -0.013577462 0.07629919 0.013132925 0.10986632 0.0078100073 -0.10893958 -0.14734471 0.018622763 -0.08631793 -0.020992294
1434 -0.095636845 -0.23385441 0.054589543 0.14812315 -0.046475228 0.07343454 0.13007146 0.09763171 0.05317284 0.09651373 -0.07441923 0.13252981 0.21320711 -0.007146608 0.15823081 -0.010985252 0.12057395 -0.12681668 -0.01573407 0.1261772 -0.14788215 0.2197231 -0.09288305 -0.17835005 0.00056601164 0.035881292 0.03736222 0.16080609 -0.22685993 0.027277572 0.23103051 0.013252738 0.056718953 0.08312541 -0.028482828 -0.00947288 0.062569685 -0.0653984 0.13043725 -0.036527902 -0.026892785 0.21264797 -0.11394126 -0.022708757 -0.016509933 -0.11423989 -0.023567356 0.08439171 0.12259704 -0.04922607 0.038075577 0.08589275 -0.15989001 -0.0139007345 0.11575499 -0.005512931 0.03704813 0.12811577 -0.001115733 -0.021332338 -0.0865191 0.09541665 -0.0888592 0.028567044
83 -0.0761805 0.048536528 0.020586094 0.11771617 0.13075162 0.023127826 -0.007268197 0.119929 0.062294263 0.04417345 -0.05122845 0.08907207 0.17814872 -0.011244989 0.25688434 0.08430565 0.081826895 -0.21339718 -0.017035414 -0.021465411 -0.11391886 0.17647077 -0.16816097 -0.10825115 -0.010478703 0.11017011 0.014924726 0.25063083 -0.094476126 0.20828259 0.032218084 0.041589994 0.008805369 -0.07509339 0.034174785 0.13191774 -0.050347988 -0.07321207 0.07133775 0.08512202 0.06084447 0.12474309 -0.089934334 0.1047106 -0.0438891 -0.115434 0.06266249 0.017956836 0.07856208 -0.08660951 0.006192844 -0.055313632 0.020886296 0.31530967 -0.008352255 0.06354704 0.020348227 0.032425307 -0.05725854 -0.152486 -0.1436549 0.06151853 -0.038389254 0.08305179
93 -0.17003664 -0.26799387 0.020253776 0.15799887 -0.02191527 0.07867473 -0.0071717063 -0.088632464 0.018244615 0.06884122 -0.180376 0.26841488 0.1614379 -0.12154346 0.26381397 -0.06866391 0.06953557 -0.12551056 -0.046759572 -0.017683871 0.097788416 0.25000235 -0.02981816 0.006081405 0.03518023 0.165929 0.042455427 0.006870947 -0.1335292 0.031401854 0.046501152 0.022176173 -0.007803732 -0.15114439 0.0025984372 0.2975502 0.16424307 0.22577102 0.1202037 -0.1800777 -0.15689474 0.13400367 -0.081333816 -0.083226085 0.103751674 -0.110478975 0.07320962 0.0040999674 0.10845871 0.028443376 0.22109504 0.01401089 -0.04210156 0.1195764 -0.02315504 0.08240536 0.0942773 -0.056976717 -0.04761408 -0.04062627 0.052836273 0.060064778 0.00793079 0.10534471
54 -0.07087854 0.0039086053 -0.20023501 -0.0066403877 0.09022335 0.14672722 0.14890558 0.05163696 0.0515336 -0.10448704 -0.05186647 0.15905508 0.19025055 -0.11044552 0.16812685 -0.10684355 0.06829333 -0.040749066 0.016180772 0.037025515 -0.047209024 0.103659056 -0.051625274 -0.07605087 -0.21469675 0.13880163 0.034547884 0.23537739 -0.12122914 0.13452834 -0.030061092 -0.04193144 0.028974323 -0.08859747 -0.079162024 0.14974879 0.06742643 -0.056601673 0.09937226 -0.104463905 -0.08344953 0.23071103 0.117970124 0.2399105 -0.038303066 -0.10743542 0.19203188 0.017855288 0.027987275 -0.10686262 0.043155897 -0.1409609 -0.08594096 0.021727039 -0.1359004 0.14005776 -0.04775567 -0.10732925 0.06472416 -0.053136986 0.009790398 0.06497647 -0.12642178 0.060300097
1124 -0.06588214 -0.1480063 -0.06868297 0.033822037 0.1649505 0.072816566 0.018937442 0.04012937 -0.023164582 -0.039399568 0.03443188 0.1640064 0.1309949 0.03834046 0.09875105 0.0043985 0.01205877 -0.11041738 -0.08905403 0.013816692 -0.19389245 0.33128294 -0.04620644 -0.15143034 0.02976253 0.064980015 -0.057628453 0.2513871 -0.14642236 0.124347955 0.21281575 0.08574357 -0.03899753 -0.31156737 -0.018300157 0.11421068 0.038860954 -0.027567448 0.22328858 -0.15462968 0.031573188 0.19716083 -0.17912683 -0.07278612 0.1326588 -0.042266436 0.07412249 0.037943717 0.022277841 -0.05365214 0.052092396 -0.04557883 0.1386076 -0.010359511 0.0034068485 0.14261411 0.17055203 0.051190857 0.082040966 -0.09351285 0.015473878 -0.049521286 0.05112478 0.011880164
1062 0.02695839 -0.117115155 -0.06646066 -0.16597605 0.21134724 -0.07780984 0.041697323 0.057448324 0.0074183675 0.007524023 -0.0074607073 0.053951398 0.20653115 0.04626739 0.15932812 -0.09348958 0.099042945 -0.10089189 -0.18901747 0.05993725 -0.14953569 -0.041318968 0.08239508 -0.11849959 -0.17875393 0.19318052 -0.19633499 0.23497535 0.084683605 0.011956253 0.068052724 0.08715758 0.10665126 -0.026645176 0.030063389 -0.032917876 0.21944161 -0.016874613 0.29734915 -0.012765078 -0.24952821 0.2753427 -0.00016036569 -0.08487909 0.074154146 -0.04697637 0.08414666 0.17538735 0.10151665 -0.103372164 -0.16498522 -0.03280857 -0.041893136 0.12856959 0.016668115 0.090282485 0.0060879355 0.0005322622 -0.022947526 -0.06730596 0.037651367 0.09168477 -0.015886389 -0.05850232
1448 -0.049281176 -0.10257829 0.015899127 -0.030716073 0.005686879 0.10642116 0.09722961 0.10900375 0.035528217 -0.023791742 0.0014949595 0.09057703 0.23381701 -0.14776173 0.06377952 -0.0682528 -0.043482482 -0.10338602 -0.16431339 -0.03409742 -0.13643256 0.018313438 0.09066012 -0.25864902 -0.0028156848 0.055204663 0.0648894 0.16950431 -0.009376419 -0.08783274 0.17872559 0.1461894 0.0879614 0.06051883 0.03986456 0.08415956 0.28306633 0.047386635 0.31866154 -0.109122075 0.25037336 0.2674884 -0.09699298 -0.13190159 0.015073952 0.02413039 0.17695141 0.034976326 0.10836826 -0.1632224 -0.18758695 0.0062714326 -0.08883302 0.12120362 -0.026030717 0.31428495 0.0008650243 0.015644027 0.018183839 -0.018676672 -0.12759523 -0.01895641 0.0600597 0.09820864
217 -0.07059498 0.06783347 -0.0819844 0.07914915 0.20048636 0.017775226 0.020388363 -0.053547747 0.05770482 0.11589913 -0.0851915 -0.018383129 0.07932893 -0.07246008 0.25803548 -0.012670679 0.073482186 -0.18373603 -0.06732481 0.03949759 -0.08813631 0.15941152 -0.14925253 0.0041472167 0.09484909 0.1311596 0.16007462 0.0478417 -0.021236753 0.08593483 0.06902698 0.01743854 0.045276765 -0.011151528 -0.028367998 0.1293792 0.050729122 0.04716348 0.43112648 0.007556316 0.06792068 0.25790897 -0.018798744 0.016745394 0.16302216 -4.8841404e-05 0.00020329581 -0.016237846 0.08913613 0.053610012 -0.06666723 -0.073614396 -0.03570415 0.06553613 -0.051275402 0.019974716 -0.107556164 -0.09059487 -0.25716087 0.07838056 -0.017474968 0.119322404 0.047888637 0.19091468
1661 -0.16090408 0.015980415 0.120261714 -0.013465267 0.010132394 0.18477349 0.12999508 0.05728439 0.2282462 0.06740504 -0.09145418 0.31890365 0.056030538 -0.18533818 0.2518285 -0.04155247 0.06819938 0.028538855 -0.0726234 0.13490042 -0.04430424 -0.017648837 -0.01598187 -0.05914871 -0.03742814 0.22055879 -0.054428134 0.15566817 -0.008019537 0.027363393 0.28890282 0.020921096 -0.06833915 0.008558372 -0.158876 0.039630935 -0.015650498 -0.039647076 0.1619328 -0.19443567 0.039704252 0.28154975 -0.07746337 0.032332912 0.038728084 -0.09957061 0.046685107 0.034092523 0.104900874 0.06809751 0.040612284 0.07526241 -0.10810332 0.04354707 -0.11979216 0.023150133 0.09478353 0.035384692 -0.018722178 -0.07162459 -0.09095526 0.045753375 0.079770684 0.023095971
1624 0.06643248 -0.13655348 0.03837855 -0.03494036 0.16390863 0.01071884 0.0379324 0.041757148 0.051414818 -0.044643983 -0.27066454 -0.047233675 0.07495882 -0.2751574 0.2094394 -0.08146041 0.10306526 0.08232167 0.009438885 -0.056124896 -0.08189941 -0.018839119 0.121274196 -0.05749211 -0.087582655 0.22822678 0.06503131 0.2676335 -0.11215497 -0.099033654 0.0069452776 0.11069697 0.051169973 0.0371258 -0.07518263 -0.012866288 0.056316234 -0.1024397 0.18822938 -0.10716802 0.11737019 0.2159003 -0.26883692 -0.0035105385 -0.04824223 0.027742703 0.12584774 0.13948926 -0.0039516035 -0.17451485 0.059220675 0.014003553 -0.11335532 0.042756904 0.0018190735 0.27658176 -0.07647578 -0.106998056 0.12664159 -0.058266424 -0.07637997 -0.09492963 0.070062764 0.047014
1602 0.07755889 -0.070127994 -0.05565538 0.06919033 -0.09637335 0.114105985 0.06424431 0.1800091 0.06944022 0.033336863 -0.083102815 0.22154883 0.1133833 -0.082008965 0.14666341 -0.01432077 0.115166344 -0.09484945 0.012044689 0.058400046 -0.15642765 0.11750114 -0.073050424 -0.13930656 -0.15233587 0.1073272 -0.07525878 0.20530668 -0.1961797 0.0790827 0.08512305 -0.06872864 0.034119684 0.014103756 -0.2251466 0.17359601 0.20347984 -0.12734377 0.17260827 -0.088703185 -0.0855746 0.13059394 0.0060749305 -0.08594545 0.11484498 0.030768845 0.11160178 0.014356341 0.07680355 -0.16430356 -0.20806305 0.020995868 -0.11588317 0.011786474 0.0009750298 0.024471307 0.06834109 0.14567512 0.050308798 0.04354996 -0.08020521 0.059538633 -0.039365705 0.068224825
1107 -0.046610035 -0.16065942 0.07416502 0.083435066 0.13617781 0.017017687 0.07864513 0.045792043 0.03704138 -0.04412343 0.10951523 0.20476024 0.16347109 -0.09427524 0.21503478 0.07220168 -0.06807204 -0.034519423 -0.1574672 -0.04128748 -0.18449926 0.16880174 0.038693853 -0.065996 0.15560222 0.23427379 0.041771553 0.2396362 -0.03353399 0.030529866 -0.015585301 0.033012513 0.13838972 0.012677814 -0.10150836 0.090490356 0.014297086 -0.0040709157 0.17519146 -0.014967077 0.0467185 0.24169162 -0.18794498 0.06703436 -0.043302145 -0.109906524 -0.06510287 0.0148966145 0.07727535 -0.085883915 -0.18554586 0.08431196 0.047264226 0.13558507 -0.016552899 -0.0124374665 0.08011947 0.08620658 -0.084710225 -0.108896464 -0.048994593 0.026250044 -0.058819205 -0.14787455
973 -0.08983012 -0.13959345 0.14108658 0.045304522 0.112765536 0.18075137 0.096985675 0.20234974 0.0018600693 -0.14751191 -0.2049303 0.26750705 0.003215479 0.07011026 0.19284858 0.05680052 -0.016056431 0.021637876 0.07079716 -0.11140562 0.021981215 -0.009275778 -0.019651644 -0.066377155 0.01306726 0.09419225 0.0017917218 0.22275047 -0.19548094 -0.11543726 0.14481427 0.05138833 -0.036156554 -0.033119395 0.087902285 0.16057545 -0.011578372 -0.09916868 0.19964212 -0.05553925 -0.076742366 0.2460679 -0.11300939 -0.03726257 0.044213954 -0.04105183 0.0696457 0.023906203 0.04248805 0.0021544555 -0.14247897 -0.13691936 -0.12928118 0.2797733 -0.0048159305 0.07191036 0.05727894 0.008211778 0.07546463 -0.043300062 -0.10060177 0.0017410388 0.007397447 -0.009110126
1115 0.14914516 -0.09897631 -0.0025384342 0.037236083 0.20509093 0.23394069 0.092844866 0.12502068 0.16433206 -0.05590115 -0.080980636 -0.096359774 0.08894299 -0.057809554 0.28445503 -0.05842487 0.067037806 0.09003903 -0.19351768 0.19203748 -0.06425627 -0.017419377 0.040112533 -0.15585878 0.018640604 0.14245732 0.113786526 0.10450589 -0.016891675 0.08638736 0.07679941 -0.1059481 0.08322599 -0.19362055 -0.036040585 0.21677127 -0.010442355 0.17347546 0.032071017 -0.008128043 0.023480946 0.39823088 0.019415485 0.103872724 0.14922535 -0.09970595 0.048966218 -0.099103406 -0.048860002 0.09531126 0.038798675 0.14536054 -0.16718887 0.02561252 -0.21902162 -0.0027050881 -0.0024647086 -0.111564055 0.06716208 0.03040781 -0.13744605 0.07926559 -0.05062617 0.0044293185
815 -0.121768914 -0.18496045 -0.10472685 0.09886061 0.22148944 -0.053244393 0.022165874 0.12583792 0.028903404 -0.17204696 0.037081223 0.114468694 -0.07318211 -0.20546843 0.258642 -0.06736482 -0.03178133 -0.1384115 -0.08763847 0.09266005 0.005124416 -0.0065884576 0.054370917 -0.07780689 0.11089878 0.058443308 0.051722925 0.25598004 -0.0757529 0.14678493 0.14857575 0.014699392 0.17587593 -0.18237203 -0.027420646 0.12568547 0.027279261 0.0240263 0.19596736 -0.10529222 0.08446636 0.27118078 -0.27726114 -0.07783026 -0.11817869 0.0058049127 0.1429299 0.120256506 -0.100101784 -0.19344527 -0.047831163 -0.043198187 -0.09052839 -0.003427091 0.0032660083 0.09676328 -0.016634047 -0.076292455 0.096268736 0.008965799 -0.13195515 -0.008305939 0.035284437 0.024790712
1160 -0.15402237 -0.24330814 -0.1870249 0.0053818407 0.12750524 0.08107112 -0.046517856 0.020593027 0.1262686 -0.02705642 -0.15963756 0.077106476 -0.008688546 -0.08006422 0.09764491 -0.00472369 -0.10447326 0.039628673 -0.12534274 -0.013346707 0.12821168 0.13416354 -0.1157917 0.1433375 -0.23374529 0.21488781 0.092099614 0.0726179 -0.062288135 0.03460939 0.2675992 -0.050783157 0.099615276 -0.10101972 -0.054355767 0.07672361 0.017493848 -0.027254267 0.10470416 0.015214648 -0.04859716 0.21210764 0.09524377 -0.08404002 -0.004091416 -0.101547286 0.027638337 0.109815106 0.03576055 -0.2476327 0.21403325 0.03436056 -0.23326471 0.11161331 -0.060181346 0.11983621 0.08262996 0.1703381 -0.062638886 0.0022650522 0.0064166686 0.2112247 -0.15040356 0.05467913
11 0.023905069 -0.14697012 0.01763439 -0.009502292 0.22215518 0.21486396 0.14127682 0.11905121 -0.013746065 -0.12583914 -0.035306215 0.15772577 0.13539505 -0.0429166 0.100444674 0.069327936 -0.009252639 -0.17183742 0.036452375 0.061312713 -0.10191785 0.16239642 -0.067408845 0.019437876 0.091378644 0.15769853 0.014523741 0.23580375 -0.13503124 0.12844416 -0.035715006 0.025173703 -0.09652048 -0.0017264232 -0.113219075 0.06090804 0.093558155 -0.056601156 0.1298193 -0.1454877 -0.08267261 0.30127713 -0.07226897 0.05810581 -1.726571e-05 -0.1833243 0.024598723 0.11135611 -0.07153279 0.012692777 -0.065811776 -0.023670675 0.03496142 0.0010876402 -0.10023564 0.07334065 0.10934567 0.22921239 -0.0079049105 0.028713474 0.0025944288 0.10132549 0.059721924 -0.06966499
67 0.19652285 -0.08026654 -0.10208501 -0.02336758 -0.019526169 -0.08897878 -0.16983253 0.117768675 0.069324166 -0.0598121 -0.10740491 0.043270916 0.03405164 -0.04134733 0.10199006 0.01206637 0.05776307 -0.05872967 -0.03966292 0.049621392 0.013543599 0.018759973 -0.081120096 -0.101172835 -0.0818117 0.16257344 0.16165498 0.298912 -0.04169564 0.061802752 0.10219743 0.057599653 -0.07495433 -0.043549463 0.0116037205 0.15259914 0.13084202 -0.11620651 0.3518567 -0.082045995 -0.003604809 0.08544584 -0.11246523 -0.053916577 -0.009067241 -0.20883468 0.07234191 -0.025800819 0.17504658 0.016850606 -0.016530098 -0.08174124 -0.08130434 0.051873922 -0.11166076 0.022800494 -0.094258554 0.018488552 0.035054497 -0.18222852 -0.05553542 0.08634688 -0.10081225 0.13750397
911 -0.0151261315 0.0019760868 0.029767862 -0.019952573 0.10441822 0.19593088 0.09934559 0.022153499 0.058266044 -0.12599398 -0.09661784 0.09803655 0.13572143 -0.040687837 0.11588404 0.06950261 0.1272735 0.013462022 -0.024371214 -0.08728652 -0.12890013 0.2115299 -0.041356094 -0.06104991 -0.0008547035 0.22198421 0.09430494 0.22147472 -0.009998259 0.063765995 0.07733168 0.16666983 -0.029609676 -0.1273597 -0.083733894 -0.103044 0.06496228 -0.0050018905 0.17955269 0.10956352 0.027784262 0.26389524 -0.036124866 -0.052569516 0.09199417 0.0990199 0.019601816 -0.005036759 0.021648921 -0.0026166702 -0.085363805 -0.14197767 -0.11984064 0.08911678 -0.25718182 0.11758003 -0.14585127 0.084504895 -0.037825137 -0.14694941 -0.051699776 0.046711687 -0.10621011 0.09910543
1343 0.09207685 -0.20722012 -0.11499586 0.018437473 -0.09578464 0.06914806 -0.14084935 0.14337951 0.12173602 0.04226628 -0.15757406 0.06748531 0.1689193 -0.05623577 0.09249659 0.029759679 0.0745915 -0.090135306 -0.12936233 0.030879494 -0.03809921 0.07362816 0.016261851 -0.10390355 0.11030563 0.16956204 0.15071744 0.07553122 -0.1907021 -0.011938258 0.2660328 0.19382165 -0.024036108 -0.12185185 0.034570858 0.13151178 0.056848176 -0.02661301 0.20211758 0.030439602 -0.17387003 0.25390404 -0.15237202 0.07358782 -0.04960684 -0.06871639 0.037793554 -0.09907977 0.1006172 0.0047690882 -0.08685554 0.09930652 -0.017085241 0.0160232 -0.0025759907 0.02387399 -0.020586034 0.10932958 -0.16718501 0.19857427 0.04222211 0.10635855 0.015401081 0.048922133
130 -0.048735376 -0.12464091 -0.061360538 -0.17499168 0.14851995 0.09107718 0.119517714 0.079771906 0.08699581 0.12211487 -0.27550194 0.04598349 0.22359268 -0.19799848 0.036167458 -0.05134331 -0.0070122443 0.08601569 -0.066817656 0.06393387 0.15163396 0.0483341 -0.089693755 -0.099107705 0.07950139 0.1412928 0.13983835 0.16412786 -0.13112247 0.040128075 0.124477364 0.04703242 0.12237624 -0.044102915 0.17068626 0.12898132 0.17260624 0.09104714 0.03294555 -0.16013497 -0.16192381 0.33135584 -0.087296665 0.016039554 -0.07007808 -0.121223256 0.18559253 -0.08980451 -0.05228267 -0.08014882 -0.12289876 -0.03657158 -0.19545212 0.028732756 -0.18419307 0.09769643 0.10413771 0.021204995 -0.08832484 0.15204224 -0.07585109 0.041584484 -0.07159133 -0.10513551
538 0.016921705 -0.3360915 0.08074425 -0.03086766 0.027492274 0.06455315 0.14505264 -0.039522875 0.06688251 0.015342653 0.056751497 0.12541053 0.27374318 -0.015031927 0.07820071 -0.107558414 -0.07308145 -0.039998047 -0.0823875 -0.01990657 -0.18288118 0.12458779 -0.17989306 -0.06321183 0.019923786 -0.05021313 0.064939596 0.24591292 -0.004648448 0.08607099 0.06719191 0.113858655 0.16589792 -0.16069892 -0.15621905 0.12870976 0.1725356 0.04115397 0.20586908 -0.15105882 0.047705352 0.21790983 -0.01844471 -0.11975714 0.08388112 -0.057848107 0.028875995 0.02955057 -0.015291011 -0.008184769 0.0049840845 -0.067547075 -0.13007489 0.101214625 -0.06936497 0.044991124 0.03448859 0.13580225 0.03827821 -0.0994554 0.025705855 0.036140375 -0.14389825 0.01861383
1531 0.009505325 -0.13876234 -0.036390945 0.011267316 0.013021651 -0.030012483 0.04773794 -0.018879667 -0.08814468 0.045865014 -0.03244482 -0.044766344 0.05512567 -0.11427143 0.2002568 -0.079176545 0.027312981 -0.11616084 -0.015623058 -0.10222981 -0.2041447 0.17320867 -0.064441875 -0.19671248 -0.09652199 0.2878755 0.030590648 0.24548703 -0.15238176 0.12747224 0.16285081 -0.04929531 0.108853646 -0.114715144 -0.044539426 0.09674421 0.012314754 -0.010600811 0.18106085 0.058675494 0.053672113 0.27119213 0.0694468 0.17268527 0.116360016 -0.055474773 0.06511277 0.029123314 0.063783325 -0.04780779 -0.15763386 0.01145716 -0.04591332 0.08177177 -0.007929884 0.021835245 0.079466395 -0.008329222 0.06646995 -0.042587314 -0.01470357 0.02052874 0.06265071 -0.07078875
343 -0.0861115 -0.37224343 0.059313685 -0.023400282 0.037095968 0.12032272 -0.0070721274 -0.09735778 0.065883085 -0.13106297 -0.1525382 0.13103229 0.21271732 -0.06693702 0.15758114 -0.26100335 -0.003920697 -0.22089984 -0.20591947 -0.026965976 0.0055306125 0.12309942 -0.014239089 0.06316771 -0.1418032 0.22570483 -0.06503069 0.053502742 -0.13308437 0.030675033 0.05619387 0.039606728 0.17352076 -0.1630326 0.074304275 -0.019563276 0.12596707 -0.09959842 0.13847937 0.062301725 0.024535004 0.15748155 -0.11326125 0.017789505 0.0070139575 0.06325758 0.15891176 0.23516226 0.03299327 -0.12732741 0.05005399 -0.09243734 -0.07651015 -0.012502298 -0.14360961 0.07719962 0.039757993 0.2689363 -0.0074329255 -0.047690056 0.07178936 0.031083493 0.058579244 -0.06590413
179 -0.13453196 -0.08948491 0.09608874 0.0005231119 0.10638242 -0.050023 0.095592484 0.03973785 0.0688241 -0.009985127 -0.073544614 0.04890711 0.21713115 -0.013051085 0.21350275 -0.12042601 0.14184976 -0.0652705 -0.009987697 0.084042855 -0.06168516 0.09711584 -0.014217121 -0.17166881 0.04526024 0.044719506 -0.02794469 0.05846754 -0.10489809 0.009966262 0.2795758 0.07716676 0.13871512 -0.12265653 0.016327847 0.13650426 -0.011464282 -0.07909882 0.23291254 0.015886826 0.047709197 0.22856836 -0.15719725 -0.048714496 0.051149774 0.041698057 0.0892014 -0.026012482 0.18172495 -0.16874865 0.023433652 -0.041717112 -0.07086288 0.10048375 0.078168444 0.07947483 -0.15606457 -0.023802388 0.016119853 0.05972149 -0.15650445 0.119802 -0.07679061 0.032364603
1240 -0.002639899 -0.082504116 0.1256867 0.0416254 0.18746246 -0.0932776 0.015309859 0.10394009 0.17908062 0.10705946 -0.113780834 0.13679717 0.07818489 -0.08177167 0.052473877 -0.085806295 -0.009536239 -0.14859267 -0.12771463 0.082841896 -0.24980108 0.13020074 -0.17809673 0.04672378 0.027290363 0.2712229 -0.036993433 0.08388527 -0.113516435 0.11680374 0.07605234 -0.0041621947 -0.00059830706 -0.03442788 -0.1004266 0.055493664 0.21744284 -0.036834933 0.06846756 -0.07875589 -0.12105891 0.18645655 0.02017278 -0.04318191 0.07065832 -0.16254084 0.07860915 0.027941182 0.15309587 -0.13531248 -0.10028583 -0.004329501 0.08978504 0.09191008 -0.024849478 0.10810629 0.10785415 0.12139133 0.08356778 -0.09346217 0.029213788 -0.04267711 -0.06284074 0.02110988
1333 -0.11877297 -0.12965381 -0.10550143 0.10885331 0.06323383 -0.029454893 0.09341836 0.09504092 0.026206335 0.023208285 -0.20473497 -0.01728555 0.10809762 0.01750703 0.21152051 0.12887312 0.21129708 -0.16157128 -0.15505046 -0.06354758 -0.045336194 0.21233614 0.057561982 0.06546135 0.07143648 0.02061299 0.062331647 0.2157244 -0.14335346 0.08552789 0.18085809 0.06934016 0.09920763 -0.035186935 0.09331394 0.014605531 0.13509986 -0.124297395 0.14711037 -0.10157704 0.010692318 0.21128662 -0.13966244 -0.0027838699 -0.046336416 0.03951298 0.17950323 0.2014771 0.04579205 -0.032099593 0.06558894 0.08246339 0.023685947 0.16067585 -0.1351177 0.06936589 -0.008796259 0.078369424 -0.02829413 0.03878212 -0.06635326 -0.048490062 -0.19470723 -0.16427462
404 -0.027911874 0.07893206 -0.029018108 0.0669218 0.011110982 -0.0043925755 0.07237669 0.023163706 -0.11913143 -0.059305888 -0.12535758 0.16522269 -0.01488929 -0.13753891 0.21286307 -0.18832378 0.06997809 -0.12852387 -0.12057023 -0.0070044356 0.03792621 0.22389394 -0.1539365 -0.16150388 -0.103036016 0.08258605 -0.11538313 0.092745446 -0.08874835 0.045103177 0.107976146 0.13932757 0.070597574 -0.12431219 0.003466847 0.18015313 0.26150796 -0.0665219 0.31441674 0.007580485 -0.07585026 0.3317577 -0.06057464 0.032251548 0.020408189 -0.18394908 0.16035162 -0.058271468 -0.00129689 -0.023064403 -0.08351167 -0.011499051 -0.045767378 0.07596255 0.018449184 0.022152167 -0.08257086 0.08985836 0.028426956 -0.15461782 0.15768379 0.0899242 0.026479179 0.04392448
1514 -0.009784793 -0.30639744 0.026931936 -0.28789136 0.11680749 -0.026483824 -0.012449223 -0.035096567 0.113025114 -0.05701953 0.021434003 0.202534 0.19206889 -0.25655925 0.20166992 0.05323387 0.046598062 -0.058558516 -0.050711498 -0.076718435 -0.056112695 0.09091275 -0.087299936 0.1341012 -0.029686717 0.07705338 -0.0065813307 0.18388842 -0.11171443 0.09024296 0.13996276 -0.12191864 0.13586931 -0.116808 -0.01829075 -0.019729013 -0.056425247 -0.15506935 0.24178433 -0.16702925 0.0039496836 0.26619822 -0.15100259 -0.023774 0.060004216 -0.101068735 0.17035286 0.017299958 0.10452216 0.08200549 0.026735203 0.0151066305 0.13951144 -0.037959073 0.07553105 0.052618034 0.020374065 -0.140834 -0.1166817 -0.25334173 -0.18170339 0.1046441 -0.1632972 0.11831749
497 0.045913495 -0.03099424 0.046092425 0.08999185 0.17816445 -0.037930902 -0.04415969 0.14285937 -0.012808933 -0.13069598 -0.14807935 0.06358819 0.17225045 -0.08517432 0.121386595 -0.1463331 0.07938636 -0.1428189 -0.0025174078 -0.029242005 -0.18083265 0.10609435 -0.028436167 0.031132003 -0.17467555 0.04891908 -0.005573845 0.28522477 -0.016069284 0.09133184 0.095040284 -0.07754985 -0.119320475 -0.048750006 -0.05410388 0.11813057 0.12762634 0.016867897 0.21912818 0.005962649 -0.104271755 0.17541417 0.11115597 0.008732369 0.03773851 0.08064095 -0.041717917 0.15084909 0.083654135 -0.0940655 0.087619856 0.1538484 -0.1032657 0.09321618 -0.058400217 0.15879755 -0.026988495 -0.024519391 0.10229342 -0.17464237 -0.07389207 0.084616676 -0.021981414 -0.1596503
704 -0.058379173 0.16870975 -0.04439189 -0.0031297803 0.20612632 -0.049587082 -0.13662706 0.06431369 -0.074766204 -0.12036765 -0.10174154 0.31163666 0.18564567 -0.17958462 0.04259111 -0.04599328 -0.11412461 0.03680992 -0.079722814 -0.022027742 -0.008940521 0.2115509 -0.043255243 -0.010899835 -0.013958462 0.10066058 -0.06988736 0.19705616 -0.08449301 -0.014831899 0.26052284 -0.07171618 0.0416805 -0.08821872 -0.107995525 0.19851771 0.16440661 -0.042658098 0.27924854 -0.0313478 -0.12762469 0.25432616 -0.07024649 -0.1588106 0.037395827 -0.13856438 0.18687594 0.04662187 0.09395479 -0.09965863 -0.10572917 0.08550286 -0.0392071 -0.0039348477 -0.077179395 0.1703125 0.05414039 0.12386264 0.27615178 -0.09402714 -0.002548667 -0.028868455 -0.034547124 0.11419372
439 0.021303577 0.073566794 -0.08319846 -0.039024293 0.07173254 0.031312846 0.024602886 0.091999926 -0.081460945 -0.16503471 -0.028426109 0.13723947 0.05920812 0.13277149 0.36819398 0.011470231 0.06439294 0.09660417 0.19335806 0.04062219 -0.15974613 0.16261715 -0.07454069 0.0187715 0.11421888 0.29291278 0.0032188597 0.18021278 -0.23507169 -0.06289163 0.14616367 0.04030787 -0.046087492 -0.14815919 -0.0704451 0.082011655 0.0138850445 -0.15228325 0.21782462 0.051012885 -0.049206246 0.21183877 -0.04743533 -0.002914134 -0.11604539 -0.17846428 0.057778936 0.028236706 -0.00826454 -0.16479693 -0.08543887 0.16280122 0.049266018 0.05141935 -0.053583786 -0.058952663 -0.16234733 0.13702184 -0.14217553 -0.20799151 -0.0024240206 -0.11894996 -0.0850842 0.03157485
164 -0.112306416 -0.058245976 -0.052086785 0.17221764 -0.090534754 0.13357265 0.06559591 0.16355455 0.04560545 0.03176688 -0.118234016 -0.077036716 0.11712423 -0.038557623 0.092530735 0.10684406 0.02076663 -0.17697799 -0.04925982 0.09775017 -0.19839475 -0.16614565 -0.0936139 -0.18475066 -0.03034192 0.33466285 -0.02150142 0.27659595 -0.19846307 -0.013460504 0.25782454 -0.015989138 -0.025384333 -0.059931386 -0.024168747 0.08610917 0.12550215 -0.04089268 0.21656145 0.11549227 -0.09648057 0.259937 -0.019725371 0.07090017 -0.049194124 -0.030122396 0.108998574 -0.07234289 -0.18331268 -0.05658781 0.14025518 -0.057271395 0.04462098 0.04027208 -0.11364467 0.106200926 -0.26942265 0.119760804 0.047330912 -0.06329953 0.05763465 0.2056886 0.02669485 0.016504256
1501 0.0030697717 -0.016731957 0.1917576 -0.026811872 0.092720725 0.07387877 -0.066405825 -0.020283023 0.09987326 0.057064958 -0.14302179 -0.022904716 0.09229838 0.033643376 0.20880659 0.04096267 0.14339449 -0.2252186 0.07890422 0.11372539 -0.2248986 0.026702542 0.006083301 -0.040062465 -0.006241527 0.15213813 -0.02136485 0.16252606 -0.050636083 -0.0052619013 0.21125616 0.009366458 -0.05991229 -0.019456986 0.09371238 -0.052233104 -0.046612542 -0.02525361 0.21813993 -0.108151965 -0.001636166 0.426898 -0.032632105 -0.1455451 0.102515146 -0.01729978 0.0838355 0.07710094 0.08283452 -0.16749527 -0.08633393 0.02974583 0.093819305 0.12864107 -0.04684107 0.24387586 -0.12613805 0.03598971 0.030975807 -0.010608976 -0.18073042 0.07648394 0.00046105433 -0.04450913
163 -0.114371315 -0.10423506 0.051539652 0.2614952 0.044386126 0.10078919 0.13975134 0.065757446 0.08389139 -0.08240451 0.07543326 0.075302504 0.19428091 -0.18785112 0.19772598 0.12845302 -0.083101854 -0.025828123 -0.04167805 0.079730175 0.09163075 0.17392007 0.029040888 -0.15998526 0.005777612 0.17997335 -0.042999703 0.21503018 -0.012390197 0.15277629 0.040924773 -0.07790587 0.0668381 -0.011129614 0.004817449 0.1811198 0.13987125 -0.112093695 0.38332647 -0.036586396 0.07525926 0.15779582 -0.16880634 0.038667765 -0.14773002 0.056734763 0.06406179 -0.00025598687 0.12398233 -0.037949704 -0.05448915 0.033653893 -0.16519056 0.18315184 -0.074357264 0.12674251 -0.032158673 0.037775073 0.06098928 -0.0880295 -0.070083454 -0.10489878 -0.13833717 0.2276688
1318 -0.14101292 -0.16069455 -0.06588478 -0.08928389 -0.08599531 0.0998862 0.18683615 0.046322733 -0.035960767 -0.0559666 -0.089778185 -0.018045658 0.09901466 -0.05867812 0.138873 -0.07823813 0.14139792 -0.0861042 -0.050771188 0.20955245 -0.101066716 0.19391143 -0.0006981022 -0.096496426 -0.046358176 0.19962417 0.03856109 0.33469516 -0.04549889 0.07182296 0.20928709 0.09731623 -0.04436467 -0.112795144 -0.01533716 0.10355693 -0.15078022 0.015819788 0.11624466 -0.10512456 0.0075209 -0.027698549 -0.0050872294 0.057211433 0.019928038 -0.1861118 0.048399303 0.1199947 0.06684359 -0.054899357 0.017685376 -0.027430778 -0.13254908 0.20110501 0.063367225 0.18065697 -0.069618165 -0.12762672 0.06711399 -0.10006124 -0.02052516 0.09561307 0.043647986 -0.10996107
1282 0.1304958 -0.21137337 0.12517631 -0.13273922 0.11002681 0.21305959 0.10991374 -0.062082358 0.1256432 0.04481686 0.004340176 -0.09689369 0.22659576 -0.20018384 0.0845858 -0.18422557 0.011032826 -0.15300094 -0.02463828 -0.04682699 -0.060656447 0.29947507 0.049909685 -0.038446236 0.04174634 0.048158817 0.1177869 0.20723069 -0.13433748 0.12428799 0.10076043 0.06990353 -0.02994293 -0.15264554 0.2049332 0.048892356 -0.051640023 0.07503789 0.24434912 -0.25068185 -0.047675308 0.072624765 0.082666956 0.06758099 0.015431878 -0.13000211 0.042833988 -0.10739588 0.13530831 -0.10938471 0.079400636 0.14045945 -0.08765328 0.05760608 -0.10603496 -0.049755372 -0.022222044 0.106711775 -0.04530128 0.004518761 -0.034028877 0.14934072 -0.12560514 0.052356124
1622 -0.0836647 -0.1579957 0.03842505 -0.005020827 0.08733411 0.06496121 0.048413616 0.07477213 0.07194416 -0.107041135 -0.09353697 -0.1142097 0.21449539 -0.18333459 0.04819099 -0.11566166 -0.15582594 -0.07531292 -0.12776771 -0.024532454 -0.14851049 -0.053324383 -0.11721519 -0.10696132 -0.029492363 0.21007928 -0.04637833 0.2525977 -0.008869764 0.1595781 0.18067186 -0.082236685 0.11405722 -0.11030089 -0.11757227 0.019107858 0.08818604 -0.09969299 0.03350492 -0.10952692 0.0011071088 0.25307107 -0.018092673 0.010507154 0.09338821 -0.1099677 0.018095218 -0.014486845 0.051939126 -0.13797164 -0.054130804 0.09719214 0.00016183883 0.17396301 0.032748297 0.0045418404 -0.055818267 0.2176978 -0.13592775 -0.034211997 -0.10076591 0.010183057 -0.038597792 0.13477732
569 0.13063036 -0.05175232 -0.030856483 0.15234931 -0.002562934 0.10534572 0.016687252 0.10426785 -0.060624618 0.0627035 -0.042677112 0.12939455 0.10191417 -0.031518765 0.21325852 -0.031317953 0.101887524 -0.031151382 -0.012507744 0.16652839 -0.11652077 0.20964073 0.057800442 -0.01826208 0.14651808 0.2819796 -0.12709501 0.23606288 -0.022145497 -0.0044243387 0.17841841 0.02623075 0.08890682 -0.054763958 0.062059574 0.02282618 -0.012980329 0.010165358 0.15751101 0.0112696765 0.07024659 0.2633425 0.060162343 0.18478814 0.27098456 0.079230055 -0.069477476 -0.015237964 0.22897804 -0.16920036 -0.1311879 -0.027742036 -0.15304433 0.0008378879 -0.057293896 0.20946163 0.07476096 0.00491749 -0.16037573 -0.21570078 -0.020501629 0.13034609 0.1299728 -0.13512352
160 0.11322068 0.018874796 0.07853901 -0.02053452 0.20475121 0.16880156 0.006351562 0.14344154 0.02746811 -0.0535246 -0.13637662 0.11797118 0.13416652 -0.07417844 0.0765179 -0.044905424 -0.06337649 -0.051019583 -0.016768254 0.11362291 -0.20303167 0.17660287 0.10527106 -0.046838928 0.019758021 0.12375279 -0.054475684 0.13834395 -0.025868006 -0.057193592 0.11530478 -0.11525733 0.08423628 -0.21021059 0.053546555 0.22039928 0.022768201 -0.048985314 0.35600162 0.017821142 0.06778195 0.1295276 -0.05786716 -0.057997283 -0.086358204 -0.11571802 0.1528323 0.14069256 0.058532692 -0.14111666 -0.024881871 0.123942256 0.028436054 -0.00986132 -0.019848064 0.048421536 0.082664885 0.06907087 -0.0255092 -0.14020862 0.003992483 -0.06231807 -0.035191417 0.012081213
1404 -0.090667896 -0.10603292 0.14924113 -0.06873268 0.11564437 0.08157284 0.054866765 0.06623116 0.04529511 0.0046039643 -0.2419067 0.12527825 0.1985028 -0.2275352 0.03445654 -0.1493447 0.022860957 -0.1161687 0.011243116 -0.07193975 -0.17153494 0.07858559 -0.008573214 -0.005190867 -0.0055794744 0.13302392 0.15081559 0.08165584 -0.05909463 0.061981454 0.20285493 -0.016093863 0.16835533 -0.06578383 0.050458632 0.19435667 0.10578193 -0.03826715 0.032327034 0.041036956 -0.067588516 0.2546329 -0.015887002 0.07522141 0.056695614 -0.07738611 0.12750326 0.11004931 0.16500315 -0.05926894 0.10604831 -0.0673902 -0.07547997 0.028168386 -0.04405497 0.0928017 0.050658513 -0.03308837 0.13636461 -0.053715713 -0.103955574 0.1348042 -0.0574506 -0.14234896
28 0.18826124 -0.086865924 -0.166674 -0.027878217 0.10349863 -0.025063979 -0.03726453 0.12589312 0.21136537 -0.043390494 -0.092159584 0.15119264 0.26393908 -0.25908756 0.12866424 -0.07496037 0.14544566 -0.061297193 0.0685041 -0.0024821828 -0.1635861 -0.008641902 -0.019576136 -0.26010427 -0.07480495 0.104371704 0.054616522 0.10530714 -0.14497417 0.09534646 0.10510804 0.08668612 0.12242308 -0.032162048 -0.17677338 0.23129809 -0.03495231 -0.13775131 0.19324398 -0.118824854 0.096402705 0.22242539 -0.006633491 -0.03344866 0.112880476 0.07628118 -0.08282286 -0.10766097 -0.008015137 -0.022673754 -0.007905614 -0.055249393 0.025055416 0.12906744 -0.018605342 0.027950855 -0.0015359585 0.03633145 -0.00077232975 -0.17433035 -0.07945803 -0.04248868 -0.042592973 0.007848143
227 0.1345322 -0.0665444 -0.115852416 -0.010727281 -0.11063224 -0.018817676 -0.024044948 0.0011013206 0.014499958 -0.0016531881 -0.10400439 0.046252638 0.20735843 -0.14604884 0.09724967 -0.05291941 -0.0067786737 -0.059197508 0.09524975 0.13616095 0.07819684 0.060498506 -0.19221438 0.108535565 -0.055010393 0.23558578 0.0737739 0.2479912 -0.11543819 -0.06381469 -0.05283448 -0.005802771 0.12202279 -0.0873619 -0.054283697 0.05439293 0.18883283 0.03363361 0.23397747 0.010807862 0.038085926 0.25312334 -0.13522829 -0.16353521 0.08615175 -0.18705635 -0.06307524 -0.0012182014 0.06764042 -0.0067427517 -0.088114016 0.11262833 -0.10892266 0.085747935 -0.10060807 -0.054386154 -0.015044057 0.10026928 -0.0012740948 -0.007760826 -0.18232888 0.09592226 -0.19528142 0.10936903
653 -0.04263923 -0.24760199 0.14874336 -0.069159985 0.058507755 -0.052980904 -0.03876592 0.13529019 0.18342727 -0.093639135 -0.06616778 0.16510442 0.26134402 -0.06056836 0.07734682 0.005604493 0.08722023 -0.11287788 -0.09986387 0.04282816 -0.14281936 0.13969187 0.0046470487 0.12082172 0.06206032 -0.042200014 0.15475205 0.25557488 -0.049511656 0.010731958 0.061549395 0.014433355 -0.099615894 -0.15446466 0.08919282 -0.048118908 0.11139778 0.09702784 0.21412472 -0.045935564 -0.0038950695 0.22771294 0.0025223598 0.0635313 -0.026490398 0.022814747 0.14210671 0.13885814 0.012364499 0.047828197 -0.011696771 -0.033572406 -0.16743083 0.13115695 0.10575321 -0.053431943 0.021332087 0.13838874 0.10345952 -0.16872284 -0.23339565 0.07371486 -0.022463335 -0.030645944
651 0.013965499 -0.19915766 -0.0771181 -0.059482366 0.10265718 0.1523425 0.009530475 0.031659413 0.0013733316 -0.03034506 0.04997364 0.20204496 0.009046122 0.10464883 0.030290887 -0.04735819 0.08348831 -0.094378866 -0.12759063 -0.06222991 0.055977862 0.028464425 0.05371624 -0.011052007 -0.19378766 0.34480602 0.055869266 0.24976096 -0.19814374 0.13767566 0.10005308 -0.04655948 -0.08737897 -0.20807765 -0.16991693 0.05311382 0.11086617 -0.030768812 0.17799988 -0.08786486 -0.038641594 0.23922914 -0.0019969572 -0.008478002 0.08879524 0.090273544 0.025303436 0.0010010585 0.23276693 -0.055147905 -0.034478687 -0.25519684 -0.07083141 0.16551921 -0.10158477 0.13477531 -0.12724435 0.021408785 0.035962727 -0.30274782 0.023932073 -0.027661487 0.008157344 -0.063771814
1526 -0.011221455 -0.12314752 0.16264385 -0.057620887 0.02893489 0.120063215 0.07308557 0.16286632 -0.0757266 -0.12882979 0.053609777 0.16616316 0.08223589 -0.019680068 0.2574835 -0.026701372 0.096222594 -0.20959494 -0.1247109 -0.024935411 0.08050254 0.19649771 0.024750203 -0.015150595 -0.08748738 0.25772056 0.009698522 0.20392123 -0.26238325 0.14402652 0.037684746 0.0679913 0.081792384 -0.24053751 0.057811327 -0.052887693 0.18822558 0.078188196 0.16988684 -0.05850037 -0.0054612495 0.1359104 -0.12356069 0.06334736 0.00205881 0.029397164 0.018894143 0.103605166 -0.08867036 -0.05908764 -0.007701351 0.02588133 -0.029503848 0.20454054 0.12416374 0.065690294 0.01392544 0.006919843 -0.20865853 -0.034995537 -0.0049724304 -0.17009397 0.13352361 0.05973961
165 -0.12425812 -0.06695857 -0.02641749 -0.07014077 0.12724148 0.13811561 0.24892965 -0.09595342 -0.037978772 -0.09859109 0.045972213 0.15266314 0.12907042 -0.044352025 0.12619917 -0.062076 0.018596152 -0.16981813 0.15319076 0.14112517 -0.040741473 0.015677214 -0.06428922 -0.09302206 -0.016706064 0.31230474 0.018883359 0.264764 -0.1548549 0.020595187 0.09213965 -0.027983114 -0.20083705 0.04620275 -0.07071475 0.14483966 -0.005364288 0.025009206 0.12490414 -0.16895366 -0.24267915 0.24221428 -0.08805811 -0.0012965357 -0.10904678 -0.19933975 0.023268431 0.063736714 -0.030318974 -0.20720218 -0.082122244 -0.08360981 -0.07937129 0.04898066 -0.07890712 0.21761936 0.0010848425 -0.04687758 -0.089579694 0.011967435 -0.020451877 -0.020157559 -0.09771367 0.16034195
1022 0.03303826 -0.19087249 0.055800427 -0.048238676 0.07906396 0.03804091 0.07398167 0.060106616 0.083121195 0.14679734 -0.102497324 0.041711353 0.16940759 -0.12562688 0.17469658 0.079299 0.032093827 0.0068921386 0.21121888 -0.07256356 -0.05880636 0.37652478 -0.042693015 -0.06392918 -0.11481053 0.1632882 0.060843576 0.13233705 -0.15797244 0.036677904 0.06806275 -0.03345588 0.07864489 -0.088099815 -0.06538223 0.11843426 0.10587824 0.13890515 0.18715501 -0.08574472 -0.12110086 0.3029937 0.03455241 -0.04678372 -0.08709987 -0.02562438 -0.045438487 0.0006641098 -0.08360136 -0.12483273 -0.17780274 0.07944296 0.042936563 0.24578223 0.099979684 0.055520825 -0.005117125 -0.20593941 0.20401315 -0.07822484 0.069424935 0.040358163 -0.10642142 0.04693944
983 0.00077614596 0.23340829 0.103006124 0.061894055 -0.24926753 0.056032438 -8.904039e-05 -0.044078343 0.18252298 -0.05277402 -0.30624443 0.21877223 0.19168642 -0.14187738 0.23844074 -0.045965888 0.14046583 0.045102846 0.041668996 0.112523966 0.0062744603 0.15014212 -0.011442611 -0.022981474 -0.153736 0.16635448 0.07332224 0.19365864 -0.2174036 -0.08286911 0.0741186 -0.0074064056 -0.009896193 -0.07032649 -0.05347505 0.049672198 0.05278721 0.008890564 0.25818452 -0.05201032 0.070006914 0.115284726 -0.08219138 -0.0727394 -0.1039968 -0.025477653 0.3771005 -0.123523615 -0.0045350287 -0.023758747 -0.08168831 0.082348615 -0.1733682 0.19927955 -0.08284275 0.07472277 -0.03990788 0.07739514 0.17641662 0.116905406 -0.01730227 0.24785046 0.026312632 0.04652813
19 0.053927176 -0.11926081 0.08151442 0.049799692 0.13758527 0.24030837 -0.08584131 0.11938292 0.0022918384 -0.064951956 -0.21752395 -0.080329545 0.12055991 0.0038140507 0.08536353 0.034866184 0.1593149 -0.07607687 0.10403023 0.058386408 -0.30512357 -0.068842046 0.016781794 -0.086518005 0.117252536 0.20313495 0.15101933 0.26919034 -0.118537724 0.09905629 -0.067365676 0.12761046 0.19904666 -0.11552476 -0.02040888 0.16610824 0.027771998 0.07103004 0.2538419 0.03914828 -0.06552447 0.20486471 -0.030905338 -0.09585754 -0.006936892 -0.02867522 0.05153993 0.12290269 -0.017755538 -0.03810741 0.07139237 -0.0033654938 -0.05816125 0.023615036 0.04949015 0.07040462 0.0008189057 0.07536987 0.16647296 0.106462784 -0.09309625 0.17493437 0.10135289 -0.09587962
112 -0.037658744 -0.12813905 -0.09393979 0.06919356 0.05540605 0.09946008 0.09121156 -0.13393085 0.0044844663 -0.05380962 -0.040653136 0.15061982 0.27299088 -0.08201273 0.23635411 -0.06087888 -0.009548924 -0.11214477 0.16602212 0.07047391 -0.050829798 0.018269403 -0.04356513 -0.094789356 0.04002535 0.16459425 -0.05049347 0.2954053 -0.2790198 0.13632931 -0.030539475 0.07160644 0.15157336 0.031965774 0.049146477 0.08258432 0.012340404 0.10555142 0.26159713 -0.09309719 -0.025395995 0.11644623 -0.19756301 -0.16487688 0.10801289 0.056523833 0.05555897 0.085271135 0.023558768 -0.04389443 0.014031075 0.069150604 -0.01140392 0.030081104 -0.15810344 0.080667555 0.10145252 0.0614998 -0.021680823 -0.08276183 -0.028309146 0.16471256 -0.036580276 0.13657756
929 0.055536214 -0.10803705 -0.0079380125 -0.2685648 -0.045810856 -0.06650443 0.10789226 -0.041271262 0.11076293 0.110777736 0.13767765 0.10648828 0.09565887 -0.15260507 0.26383457 -0.25003335 0.13827887 -0.09573489 -0.102874614 0.10610699 -0.093591556 0.27285635 -0.030677624 0.12779583 0.056114763 0.16265474 -0.067151465 0.19022913 -0.12192415 0.026060559 0.10418249 -0.0470174 -0.073389016 -0.2667465 -0.20623189 0.1696228 0.18019512 0.016265215 0.14724368 -0.083514355 -0.02276725 0.12045233 -0.16937482 0.112302884 -0.09178196 -0.07787078 -0.10323355 -0.07876397 -0.014079885 -0.18389586 -0.16887042 0.061744142 -0.04181127 0.15680279 -0.059673935 0.10333141 0.0027349868 -0.018547073 0.03367687 -0.15047431 -0.08535955 -0.084790945 -0.035245456 0.009341818
863 -0.1344886 -0.109797515 -0.008198054 0.029620279 0.024257725 0.15503125 0.07244962 0.22639467 0.07900177 -0.03515645 -0.07494404 0.05970186 0.22485068 -0.10526872 0.2639028 -0.09690233 0.0044646855 -0.25270075 -0.21724902 -0.057384003 0.16558453 -0.022785319 0.1307633 -0.09710747 -0.035271868 0.17574853 -0.0521471 0.2259372 -0.16546227 -0.12569039 0.011742386 -0.027291307 0.07018175 -0.1321371 -0.024525072 0.035814844 0.09400769 -0.03305864 0.23702952 -0.13395244 -0.031618923 0.09661778 -0.2202782 0.12570146 -0.13040847 -0.0063443757 -0.08683519 0.024109447 -0.07396637 0.032699876 0.06810234 0.051494714 -0.10963037 -0.06559821 -0.15557674 0.17078984 0.05692937 0.03917874 -0.13297981 -0.03573 -0.036321715 0.118543506 0.19454888 0.056702416
1726 0.0790405 -0.13777746 0.03888554 0.014295264 0.21372256 -0.0034303865 0.008837461 0.16744909 0.065191254 -0.1377302 -0.0009250908 0.21928792 0.075581476 -0.14060083 0.174542 0.16172664 0.0026258966 0.04723141 0.025426066 -0.10682271 -0.1250203 0.16180064 -0.060889456 -0.15897506 -0.23381169 0.0029543922 0.074121036 0.27909824 -0.033100504 0.0321095 0.1707656 -0.16508538 0.20645949 0.021064905 -0.09988769 0.23351367 0.16619626 0.018080235 0.13509463 -0.020877719 0.07536932 0.15791574 -0.10476875 -0.07219226 0.067286596 -0.15209398 0.02382528 0.121281914 0.035123657 -0.06924216 -0.09976665 0.05061065 0.16164185 0.19733946 -0.12192107 0.12995304 -0.14294966 0.04575971 0.060147237 -0.04035439 0.026778061 -0.018927218 0.030874237 -0.030173238
1609 -0.055983555 -0.06914839 0.0040616873 -0.025766559 0.15639648 0.0472123 -0.09182448 0.1372773 0.0606581 -0.05971518 -0.09937755 0.1480718 0.14553037 0.060066003 0.035396747 0.0074204234 -0.021873208 0.049439367 -0.12877509 -0.022437202 -0.21003234 0.0080656335 -0.10451758 -0.041882336 -0.12803064 0.21421951 -0.010185432 0.162124 -0.15477933 0.10185491 0.08748989 -0.008636009 0.11104482 -0.038987234 -0.07937631 -0.015116744 -0.0054451213 -0.04944342 -0.0058703176 -0.015004046 -0.26437312 0.28137574 0.06099222 -0.068909496 0.0008094458 -0.15249088 0.091016755 0.013340865 0.22558284 -0.16308402 -0.017461123 -0.18636198 -0.06788 0.14541048 -0.2185441 0.07691452 0.054601636 0.11710968 -0.0038892657 -0.08726277 -0.08037144 0.044790916 -0.06485387 -0.029986726
437 -0.021925092 -0.06331028 -0.00942509 -0.14655347 0.14309712 0.12050106 0.031918965 0.1465773 -0.040395614 -0.11598272 0.00019165318 -0.096345894 0.07920149 -0.11742187 0.21841703 -0.0850825 -0.038168516 -0.08264262 -0.12353021 0.10215971 -0.0015377195 0.011096225 -0.0043790075 0.08253801 -0.09102685 0.29549676 -0.020727584 0.2261121 -0.04804932 0.011019191 0.11783921 -0.093634546 0.017112618 -0.09498082 -0.02107539 -0.046255637 0.071481705 0.24757257 0.26825973 -0.12037401 -0.0858667 0.30869737 -0.06006589 0.056215044 0.025387565 0.05534547 0.058160324 0.084512115 -0.082932055 -0.08426763 0.04688377 -0.08607994 -0.10692264 0.018024722 0.04232335 0.087229826 -0.08131815 0.008844836 -0.05439999 0.1458709 0.05169959 0.051555146 -0.167133 0.01216858
546 -0.25624704 -0.14773364 -0.04025275 0.083203204 -0.049505476 0.013368457 -0.14066951 0.16292138 0.08424817 0.19999476 -0.2197507 0.01045206 0.080853395 -0.09140983 0.4044659 -0.05333545 0.028687125 -0.04524498 0.006668772 0.10803091 -0.059582513 0.10149843 0.053997483 0.0048525697 -0.086922914 0.1328259 0.0028521693 0.1487131 -0.17070353 -0.022455813 -0.018879944 0.18222605 0.123109944 0.0077794427 -0.037850004 0.14935045 -0.11679723 -0.03705117 0.2604172 0.061817367 -0.044564933 0.10241647 -0.06355535 0.01639915 0.026534457 -0.0044974852 -0.0638826 0.20873608 0.12430777 0.21302116 -0.10875731 -0.12591873 -0.12740521 0.21194829 -0.118061 0.032340646 0.11766017 -0.05396669 -0.058426794 0.019821748 -0.07850336 -0.06704017 0.03908583 -0.033434395
683 0.063232295 -0.17578267 -0.06260803 0.098548785 -0.10933419 0.057918973 0.06521677 0.075601995 0.16565767 -0.023499582 -0.123837605 0.040501826 0.15902638 -0.0116272215 0.37166774 0.21162918 0.015240379 0.15598659 -0.025741214 0.114466056 -0.03152883 0.054027177 -0.0211506 0.0025072221 -0.18440393 0.36473024 0.07201286 -0.055024877 0.13335246 -0.074173525 0.041644342 0.07435544 0.011190987 -0.10014103 -0.05710366 -0.02152256 0.033911962 0.032076474 0.30534434 -0.063134 -0.06642628 0.15998468 -0.15321656 0.19737701 0.01424871 -0.06246186 0.21763277 0.012906666 0.12660654 -0.0799454 -0.15834785 0.037849285 0.031819507 0.17549518 -0.10475049 0.2510729 -0.15360169 0.0701951 0.036078062 -0.10403045 -0.034750342 0.03557585 -0.10600648 -0.028490476
1589 0.031375397 -0.107627094 0.0027694497 -0.1460655 -0.036388975 -9.47375e-05 0.0116625335 0.054297104 -0.12604687 0.014992392 -0.08565087 0.047923744 0.1793585 -0.09785217 0.10741632 -0.22429119 0.053744152 -0.03798594 0.018596178 -0.08335223 -0.32850936 0.13734373 0.06545757 0.065664865 0.06809103 0.22876222 0.015503395 0.2680553 -0.15396142 0.122956574 0.22589204 0.044449955 0.025396924 -0.079879925 0.10939139 0.03092734 -0.024409581 0.03993756 0.2625349 -0.035238586 -0.012710871 0.25153083 -0.10824559 0.00079439423 0.042369973 0.046640914 0.23142911 -0.0025717956 0.12548894 -0.051982995 0.085616045 0.038816094 0.076841004 0.18075068 0.070234075 0.036899205 -0.14749806 -0.24867015 0.08398906 -0.24864718 -0.062330715 -0.24762589 0.0029654056 -0.14393558
837 0.089386016 -0.031143364 -0.10043752 0.005747688 0.09231109 0.035718273 0.078434944 0.07121815 0.19963945 -0.0490844 -0.12961327 -0.17462571 0.2899511 -0.080607764 0.054064054 0.018661473 0.050413273 -0.090552054 -0.06738973 0.019765405 -0.0154535035 0.05047528 -0.07847613 -0.024579428 -0.06937873 0.1749248 0.13761184 0.12580533 -0.06309603 0.024205917 0.11461694 0.062361155 0.0632776 -0.033930205 -0.054139584 0.0043023527 0.03567723 0.009332951 0.25019875 -0.10396635 0.083734736 0.23374464 -0.046036784 0.018924057 0.045801543 0.042010546 -0.0313961 0.16521841 0.04785835 0.0104006855 -0.03625966 -0.041899845 -0.016195722 0.09127316 -0.15197082 -0.03291674 0.05707562 -0.05957367 -0.15859719 -0.13630483 -0.2211125 -0.019939048 0.10864784 -0.23452148
879 -0.16661009 -0.15671867 0.16164467 -0.09482217 0.01411272 0.091493815 0.0073586493 0.061593726 0.21814916 -0.07759241 -0.07397245 0.1463892 0.012011208 0.11903541 0.049707662 0.05668195 0.27438903 0.17218356 -0.11775264 0.13704881 -0.07594254 0.056271326 -0.019203337 0.026915133 0.026008496 0.17756473 0.16602594 0.32403925 -0.2499302 0.044507097 0.093738176 -0.10494996 0.18273216 -0.049182966 0.045757692 -0.034613214 0.16233182 0.07605171 0.15660843 -0.116257735 0.040926527 0.16278233 -0.09426541 -0.067485556 -0.061780993 -0.2315068 -0.12515302 0.12841311 0.027438702 -0.124416515 0.24184984 0.120272055 0.003721525 0.08223814 0.042643424 0.041980192 0.047122944 0.11458623 -0.05676605 -0.19786529 -0.047085945 0.26147535 -0.06425406 0.041996557
311 -0.054704256 -0.19497909 0.09458854 -0.14882015 0.011433268 0.1919358 0.025014626 0.058568165 -0.13009822 0.025073357 -0.15175425 0.072942 0.008346511 0.070061974 0.20654027 0.022135077 -0.16175468 0.025060803 0.09892487 -0.026528541 -0.05832092 0.04213523 -0.139147 0.057271592 -0.058703694 0.008547587 -0.11507921 0.3205594 -0.09162252 -0.029849151 0.18047841 0.05379688 -0.032869294 0.03728312 0.028625267 0.20229325 0.042420946 0.11621597 0.22312374 -0.3152966 0.08121957 0.3150571 -0.011015505 0.082563214 0.06427326 -0.14119485 0.2427124 0.065377496 0.017512742 -0.14111227 -0.022072868 -0.10485374 -0.08119374 0.21768862 0.06641905 0.11640289 0.020872233 0.06718209 -0.020347979 0.016589526 0.16211447 -0.006852008 -0.2636552 0.08607671
1456 0.027813042 -0.050405532 0.057223145 0.029991502 0.25851 -0.01629193 -0.054169353 0.035262592 -0.062800005 0.11442906 -0.14996815 0.11525174 0.007286293 -0.10090281 0.14446662 -0.0034824582 -0.063216105 -0.049331702 0.00587434 -0.051990867 0.047738884 0.053443626 0.035764534 -0.1344985 -0.17266431 0.1276432 0.105489485 0.31640077 -0.27110496 -0.07181766 0.18627861 0.24011168 0.11846462 -0.13845684 0.08294895 0.04228684 -0.122732304 -0.02387914 0.23831019 -0.09212167 -0.069034375 0.29952675 -0.035422992 0.007525422 -0.060682125 0.003077014 -0.02655582 -0.06920825 -0.004790226 -0.016401809 0.1448039 -0.08157063 -0.05506607 0.1570437 -0.07157738 0.017281126 -0.13729718 0.018994097 0.06444133 -0.049770996 -0.07946192 0.03892419 -0.1318447 -0.22694975
780 -0.04422325 -0.04936323 -0.12431804 -0.24151891 0.17482632 -0.026773326 0.12377879 0.15744996 0.15066306 -0.019609261 -0.20001872 0.13597746 0.22580208 0.039114006 0.075521715 -0.114834584 0.15422787 -0.120695956 -0.04622001 -0.073366836 -0.09082495 0.09346333 -0.14349851 -0.030902496 -0.07998409 0.17808044 -0.04331154 0.13487536 0.0575311 0.095199585 0.14641115 0.08046226 -0.057868775 -0.21115497 -0.105067424 -0.022906562 -0.016080579 0.10413623 0.09229184 -0.070855975 -0.105609305 0.33552617 0.06429354 -0.021898922 0.062907174 -0.20450671 -0.08466844 -0.1057684 0.06559777 -0.06646923 -0.13371934 -0.022893246 0.15128972 0.07586996 -0.11791256 0.15497051 -0.083473854 -0.004214004 0.036823932 -0.09502958 -0.062446952 0.0007971464 -0.05245369 0.23437753
1201 -0.0014892553 0.091841325 0.1347562 -0.075516306 0.039395828 0.019488886 0.024815993 0.03878329 0.037154213 -0.13877639 -0.12135464 0.109946825 0.22356696 -0.17206664 0.31834474 -0.01684299 0.04955527 -0.056590777 -0.12647708 0.026104556 -0.029731052 0.104381114 -0.19081107 0.054777402 0.083068185 0.0743509 0.006125448 0.17745997 -0.09651881 -0.069533736 0.14285533 -0.017130129 -0.09421821 0.06089607 0.12861182 -0.06809399 0.24320047 0.11844511 0.15170768 -0.0096456045 -0.11236867 0.22392073 -0.055381283 -0.09525996 0.017041396 -0.26188064 0.027277738 -0.0520886 0.19720928 -0.10216054 0.14618465 0.031576037 -0.21646543 0.07700947 -0.026145497 0.20930804 -0.33473858 0.12876754 -0.014842524 0.06652711 -0.069073 0.021246012 0.01985775 0.034671977
732 -0.12131231 -0.07540485 0.14544459 -0.045245178 -0.06535937 0.11579938 -0.05360138 0.025527857 0.078792796 -0.044076167 -0.064860456 0.019242318 0.17969461 -0.24762926 0.103928015 -0.0048965598 0.20313331 -0.13810614 -0.0018191203 0.076639436 0.12792067 0.15770629 -0.14412512 0.11231923 0.10431532 0.18600456 0.12878765 0.099297605 -0.15792444 -0.032437023 0.22503437 0.044604257 -0.001074103 -0.22003482 -0.09478658 0.08820675 0.022645606 -0.06702747 -0.009632691 -0.07423579 0.008846928 0.17441304 -0.11853278 -0.027183518 -0.025014438 -0.12852973 0.18764395 0.09515386 0.0992682 -0.086072765 -0.055033047 -0.048456226 -0.08696911 0.09913966 -0.09506 0.218465 0.054916233 0.027216468 -0.09273259 -0.08126336 -0.050738588 0.11971327 -0.021815032 -0.040202215
151 0.00963065 -0.065365635 -0.038969375 -0.1505152 0.16268165 0.06195546 -0.10750243 0.098101996 0.13127518 0.012677439 -0.10419933 0.004791577 0.005402004 -0.04201034 0.24696562 0.12222976 -0.05155397 0.0093889665 -0.02072084 0.025339881 0.074220546 0.27967358 -0.16768731 0.04629569 -0.119768515 0.15175521 -0.057577197 0.038527835 -0.07591993 0.21033293 0.27314785 0.09404039 -0.032123327 -0.061042793 -0.010263556 0.09334189 0.148049 0.10250421 0.26282874 -0.20393611 -0.014032879 0.17851475 -0.09295337 -0.04564089 -0.058651116 -0.043273415 0.026309788 0.10835048 -0.024028286 -0.11811237 -0.20324679 0.113464735 -0.16032387 0.14716785 0.04017821 0.10234502 -0.07831283 0.041151337 0.042614497 -0.095565185 -0.039933037 -0.074323215 0.07197896 -0.067555465
365 -0.0021410119 -0.006449543 -0.092831746 -0.16463242 0.15648174 -0.04019 0.017298996 0.0035972933 0.06687153 -0.007525114 -0.026689855 0.1546881 0.07988822 -0.06342702 0.1549548 -0.084270254 0.12152233 -0.033946782 -0.07723463 0.10253471 -0.15473907 0.078132585 -0.015268191 0.053821094 -0.13999285 0.15029989 0.017898383 0.11081495 -0.078846455 -0.06033253 0.16095828 0.02759809 0.075995564 -0.12423504 -0.19855744 0.064036965 -0.14047307 0.008139246 0.29811254 -0.14430623 0.015071492 0.2564951 0.053217225 0.10262149 0.018984104 -0.037761137 -0.06699414 -0.010271961 0.1419721 0.21779929 0.036651857 -0.13165824 -0.16666487 0.046207305 -0.03165748 0.0816158 -0.13193978 0.00492429 -0.114331774 0.021983074 -0.26122177 0.13352244 0.06529314 0.07045971
1072 -0.15403111 -0.34703776 -0.07811346 -0.098540775 -0.03343389 0.10547849 -0.029281951 0.25730094 0.06253883 -0.19524884 -0.26934716 0.04355489 0.14630923 -0.08407701 0.11824754 0.08760943 -0.07363408 0.056037914 -0.041784845 1.7542448e-05 -0.2424115 0.10558264 -0.11134687 -0.03829459 -0.04492188 0.22620073 -0.011412383 0.07452454 0.019499507 0.032259956 0.21209042 -0.16120094 -0.045468822 0.019913772 -0.13581245 0.16110814 -0.10002545 -0.036659367 0.18398711 -0.12474857 -0.045007657 0.14923874 0.00069073436 -0.004874799 0.06092122 -0.08456005 0.09191654 -0.022869082 0.2189474 0.030421479 -0.13817541 -0.005169428 -0.19902423 0.02130154 0.1476058 0.012770773 0.03560264 -0.1479919 0.023608962 -0.05726922 -0.14969759 -0.22275704 0.028913883 0.15478475
644 -0.044466227 -0.03654238 -0.089131236 -0.111340545 0.17513844 0.20931931 -0.03042337 0.21795112 0.0011842848 -0.013963305 -0.29537222 0.046996385 0.06663871 -0.031156221 0.025080433 -0.08466626 0.27330685 -0.065201595 -0.053522836 0.013923074 -0.10183235 0.153865 -0.081460625 0.020654343 -0.05553882 0.17301421 0.05910696 0.07791322 -0.236657 0.13759418 0.046940282 -0.011843538 -0.14031415 -0.027729927 -0.031204775 0.14464381 0.10054768 -0.047881626 0.07826281 0.02273896 0.011540031 0.18300007 0.033845987 -0.0018234923 0.1942967 -0.17726628 0.0592741 0.059565686 0.016414246 -0.06290087 -0.13162434 0.0016012066 0.09742674 0.22770825 -0.08426857 0.18169063 0.01371432 0.021546926 -0.021777771 -0.1199972 -0.057964616 0.066898935 0.0075193066 -0.069086924
451 -0.24440002 -0.22401117 -0.007061227 0.21288267 0.037858326 0.059125178 0.01483887 0.09365145 0.0311137 -0.17492941 -0.20577249 0.10381675 0.30131996 -0.20364678 0.3056443 -0.18659379 -0.0052327076 -0.019690456 -0.07650745 0.07712316 -0.097359866 0.12663381 0.10417867 -0.057032708 -0.14528264 0.023406291 0.1307168 0.17041011 0.12382855 -0.11741802 0.30185348 0.018086737 0.06273255 -0.14968997 0.07076734 0.16181295 0.108774625 0.09857515 0.028662147 -0.17245753 0.24803123 0.07100902 0.018709907 -0.050076745 0.15071058 -0.07905966 0.025852038 0.006698622 0.021511085 -0.02057066 -0.026655678 -0.033526048 -0.14444664 0.24969918 0.00060287333 -0.024736231 -0.23956478 0.072382346 0.032349706 -0.09993611 0.08912579 -0.001196702 0.12848203 -0.14866109
687 0.12377917 -0.021347605 -0.059186514 -0.079932675 0.12453258 0.13093229 -0.031038225 0.14146423 0.09502657 -0.20215514 -0.21832402 0.11201113 0.028731778 -0.0062914514 0.03448817 -0.13669723 0.04038082 -0.07521875 0.079358526 0.090913706 -0.023718012 0.026067767 -0.08673269 0.00016620145 -0.1358821 0.113378435 0.1485545 0.19827169 0.07528172 -0.02553729 0.20245337 0.03571035 0.1554184 -0.11227533 -0.050821804 0.11962051 -0.08560756 -0.0580222 0.20374152 -0.15807383 0.017664863 0.22722583 -0.2071033 0.067619786 -0.18189223 -0.13981314 -0.09081327 0.2596979 -0.070346504 -0.049861807 -0.04689608 -0.08229512 -0.10079772 0.014331166 -0.0029895287 -0.084615685 0.070955224 0.06117239 -0.1583006 -0.19705747 -0.10889364 -0.11513932 0.19507487 -0.0117629925
1001 0.0867272 0.1121246 -0.044535987 0.13452245 0.07069605 0.22039716 -0.0055490597 -0.008615244 0.06858741 -0.05513988 -0.110268176 -0.05891791 0.0729158 0.011840597 0.09299249 -0.122374214 0.022979714 -0.21026045 -0.054195564 0.10171659 0.08680358 0.024906276 -0.21906179 0.04636838 -0.08983328 0.1932782 0.17380342 0.10198893 -0.08874556 0.06750867 0.038955655 -0.004488365 0.18413267 -0.037715364 -0.10314267 0.16591953 0.016347619 -0.19890425 0.22283219 -0.05068756 -0.027904784 0.20361286 -0.052946903 0.13336603 0.11025908 -0.22585411 0.087943494 0.19918488 0.3283142 -0.1060866 0.031448517 0.08603302 -0.06758695 -0.0003377566 0.05843881 -0.005323625 -0.10976138 -0.0007547478 0.16100931 -0.1604703 0.030446576 0.10685917 -0.19825175 0.14629026
752 0.07579623 -0.017511727 -0.013400913 0.027364144 0.110855296 0.05832888 -0.008489397 -0.01920807 0.111007325 -0.078727685 -0.016524324 -0.023241438 0.30166703 -0.20454061 0.14687298 -0.06886296 0.000771781 -0.19778754 -0.080125816 -0.07692597 -0.14590651 0.11277308 -0.04783449 0.023625167 0.0017275622 0.2546791 0.06258328 0.13312212 -0.17098755 -0.023434125 0.15411584 0.0755992 0.117755376 0.020910539 -0.15995133 -0.098367766 -0.025686035 0.070458874 0.25296268 -0.11034067 0.07463774 0.11958802 -0.03170901 -0.117105745 -0.078674994 0.005686599 -0.019550137 -0.117236175 -0.118781805 -0.10153456 -0.08383186 -0.046765838 -0.2709562 0.12666517 -0.09714091 0.13829522 -0.0464635 0.032163415 0.023515776 0.06528083 -0.049324814 -0.05834403 0.08666678 0.041688204
982 -0.056569096 -0.06627568 -0.015845284 -0.038707927 0.05505794 0.10871015 0.05396567 0.009292167 0.034078408 0.009078198 0.01625093 0.036153577 0.18781106 0.11299969 0.09920732 -0.10848367 -0.05766129 -0.1319663 0.13153243 0.053373925 -0.063863166 0.120632686 -0.20787661 0.00034707648 0.009013554 0.13990195 0.062127497 0.2713861 -0.2687836 0.08920923 -0.034714427 -0.010566424 0.13780986 -0.21453907 -0.066460624 0.09234326 0.097632244 -0.14454587 0.14976618 -0.026646921 -0.055259425 0.24598266 -0.023430841 -0.15301584 -0.054882642 -0.011386282 -0.16602924 0.0018529461 0.18221319 -0.22104701 -0.13186044 0.04408912 -0.0064068567 -0.030996388 -0.09895193 0.08300255 0.08034536 0.27667296 -0.2541468 -0.062137462 -0.017989941 0.14770052 -0.04821564 -0.10219937
109 0.15604146 0.028313208 0.11583422 -0.12677708 0.11082631 -0.06805066 0.08534911 0.060978487 0.12406243 0.01970353 -0.23976788 0.24744345 0.14421636 -0.20895463 0.07762709 -0.0041928026 0.011987642 -0.040476706 -0.010567751 -0.063389726 -0.35138196 0.06606103 -0.05165272 -0.07500947 -0.26214296 0.02260187 0.07419553 0.14880036 -0.029243728 -0.012659093 0.117601946 0.13066992 0.08695971 -0.20155619 -0.081864335 0.08378908 -0.026798902 -0.07069056 0.2324218 -0.0034661784 -0.015396406 0.21986575 0.04333236 -0.023442484 0.044220176 -0.13958582 0.0029623522 0.08464052 0.13631073 -0.016916178 -0.14800778 0.20731463 -0.21783179 -0.07051451 0.07339866 -0.0007014674 0.010121273 0.15109521 0.035694435 0.035681095 -0.08298033 0.055750724 -0.08469984 -0.0702449
1028 0.11604021 -0.011645522 0.14588234 0.12311941 -0.044954423 0.16524181 0.013197573 0.19851479 0.2743394 -0.04565478 -0.105743654 0.096407734 0.08264097 -0.013837143 0.26597413 0.013295462 0.03711472 -0.06446654 -0.1804596 -0.11008216 0.034364235 0.05886246 -0.041705217 0.04603821 0.14807907 0.15388992 0.00665885 0.01271095 -0.20470281 0.09496563 0.13335007 0.04263443 0.08768097 -0.11784647 0.122517295 0.11333089 -0.07683873 -0.08359832 0.28534356 -0.030946398 -0.024960594 0.25935194 0.14935793 -0.1368321 0.135039 -0.08164841 0.1153303 -0.05479911 -0.044071145 -0.17799616 0.02845879 -0.08276488 0.0045112665 0.110207886 -0.1171067 0.04283431 -0.04511304 -0.090466365 0.03824305 -0.011699723 -0.048611764 0.11772903 -0.12014922 -0.053084947
543 -0.13643385 0.025084501 -0.036568068 -0.117411904 0.14413765 0.13118416 0.11805345 0.15920646 -0.13955687 -0.068852216 -0.07807947 0.09279322 0.11535334 -0.1272699 0.23762625 -0.01438786 0.045529295 -0.06946588 0.004759759 -0.011612131 -0.23775198 0.026621489 -0.10357161 0.044921942 0.045499366 0.2071473 0.2198173 0.087202325 -0.2940069 0.022712748 0.21465623 -0.04608787 0.11387982 -0.0677704 -0.07458185 0.012718777 0.3646111 -0.06229642 -0.08763092 -0.20756935 -0.33438197 0.13967025 -0.112459876 0.017822867 0.04588344 -0.017259797 0.17160074 0.120936945 0.07423014 0.07336076 -0.04764109 -0.1859934 -0.095218055 0.10216687 -0.110111184 0.086023934 0.0706234 -0.12176502 -0.066019826 0.042850997 0.045536686 0.18704568 0.07780301 -0.061529044
223 -0.09717318 -0.11318119 0.13100551 -0.0599887 0.062258065 -0.039337248 -0.052837282 0.13921148 0.067202955 0.047285225 -0.17424138 -0.020475471 0.118068054 -0.02056824 0.18075608 -0.003654647 -0.021141771 -0.044098284 -0.18313426 0.1269055 0.040097494 0.10196167 -0.19146246 0.106088124 0.009051123 0.15670441 -0.008709042 0.28749362 -0.11955866 0.08347774 0.1913751 0.05205894 0.04097007 -0.05255377 -0.01376648 0.09695247 0.096294984 0.09664819 0.22359203 0.074975155 0.0079902485 0.1121857 -0.17736799 0.10657738 -0.09260623 -0.0407954 0.27341098 -0.14534734 0.00662311 0.07564708 -0.077434495 0.019564668 -0.035419025 0.1372115 0.041714713 0.013344318 -0.15527283 0.05607286 -1.3483218e-05 -0.034335196 -0.077872835 -0.10894562 0.026312647 0.070296295
352 -0.012836032 -0.28462982 -0.013232809 0.11831644 0.094023794 0.18840675 -0.14785507 0.02600202 0.118389964 0.055383373 -0.095434785 0.27504054 0.19135973 0.052159756 0.26684728 0.020721156 -0.075025275 -0.014546465 0.11144326 -0.06570979 -0.0036870413 0.09697518 -0.036666762 -0.0445222 0.05844319 0.16322401 -0.013504972 0.22472985 -0.21823685 0.14157473 0.03876791 0.05908569 -0.066316694 0.007604022 -0.032199163 0.101860665 -0.012831207 0.058398377 0.081350446 -0.0981226 0.081802785 0.30408156 -0.07227557 -0.14918631 0.045190636 -0.1258857 0.24076024 0.120152704 0.04774605 -0.09640705 -0.113385364 -0.08830442 -0.13307565 -0.044880625 -0.031953998 0.047667738 -0.062101353 0.087709025 0.07844412 0.024868123 0.004787423 -0.09094944 -0.12212908 0.054539874
1080 0.07853538 -0.0037486209 -0.10449126 -0.031926066 0.09657186 0.18847093 0.013309886 -0.06717468 0.1620996 -0.11014862 -0.12066841 0.009599967 0.14147656 -0.047748987 0.16456845 -0.11109322 0.22174473 -0.11348224 -0.06871197 0.08684418 -0.011245223 0.103868194 -0.15508494 0.043556083 0.044930693 0.12684213 0.080885105 0.26485482 -0.14065892 -0.043002874 0.110177174 -0.037777595 0.008436773 -0.21963987 -0.2068026 0.09815679 0.15538067 0.03602978 0.16690841 0.019203693 -0.03739045 0.17332056 0.030438608 0.16765793 0.12230062 0.055470545 -0.10664669 -0.16998509 0.049680408 -0.067607515 0.016482975 -0.09232674 0.06630644 0.063149616 -0.09466514 0.082774684 -0.050003298 -0.091668665 -0.12040206 -0.046154432 0.08230999 0.09125987 -0.0047450154 -0.018680725
1289 -0.057249162 -0.020833025 -0.026484285 0.17661262 0.074609496 0.0042201225 -0.01971859 0.15620379 0.10265106 0.077720575 -0.23721987 -0.0383741 0.11976207 -0.21645343 0.13158765 0.07909471 0.05238688 -0.10962777 -0.15173337 0.08534922 -0.08347717 0.11700406 -0.043222558 -0.12903874 -0.15485124 0.09618032 0.12838264 0.2920061 -0.07987241 -0.017416375 -0.015585759 -0.057435445 -0.026041448 0.026851619 0.07142099 0.11800172 0.13615634 0.12921932 0.20411494 -0.09226629 -0.1253696 0.1755553 0.13986003 0.12708883 -0.17089193 -0.027012073 0.028708473 0.11580108 -0.08841167 -0.2307204 0.034108367 0.11416081 -0.02676795 0.048402816 -0.08551057 0.17413427 0.041256476 0.0010953636 0.02001322 0.039976813 -0.1251545 0.036606062 -0.044665445 -0.049766034
1145 -0.019973293 -0.14986277 -0.0076081986 0.14757785 0.20696504 0.09762908 0.0107824495 0.21458316 -0.0118951965 0.020185355 -0.01960853 0.26433644 0.054640077 -0.1007211 -0.0051279506 -0.061697464 0.1222512 -0.086703934 -0.07573036 -0.082620196 -0.13276568 0.15354216 -0.19761294 -0.053551637 -0.14683913 0.25972807 0.13644037 0.04843729 -0.0927203 0.1721739 -0.009528586 -0.021476863 -0.07621113 -0.12231679 0.0259837 -0.014783367 0.08363265 -0.06565446 0.19732769 0.01069815 -0.11689761 0.11414689 -0.25758475 -0.079415314 0.11211468 -0.14666386 0.16141613 0.05894383 0.03179082 -0.06773922 -0.104602024 -0.027361752 0.046819825 0.21481808 -0.20922185 0.131926 -0.14278235 0.14459561 0.032713417 -0.29032576 0.12261468 -0.029427072 0.03319084 0.04844139
1495 -0.23365176 -0.09886387 -0.16216378 0.0162413 0.18489757 -6.74398e-05 0.08510163 0.043134693 0.14337967 -0.10946725 -0.32094452 -0.050487373 0.0008481519 0.031087792 0.13125397 0.017733153 0.05157846 -0.13294376 -0.024089297 0.07889763 -0.050750837 0.113447815 -0.016801143 -0.18966915 -0.1017516 0.21938719 0.13046691 0.33578295 -0.005933716 -0.009945327 -0.006178217 0.10569493 -0.064222254 0.07500903 0.07495838 -0.14471804 0.03019204 -0.04013249 0.19367902 -0.040458992 0.027585842 0.28871894 0.21413833 0.12397476 -0.00201548 -0.060223233 0.118508734 0.19346613 0.18529148 -0.057933033 0.06607932 0.057893936 -0.047464043 0.08676663 0.069896676 0.036733694 -0.032238938 -0.06745445 -0.15563299 -0.0490281 -0.14080307 -0.21257493 -0.003258033 0.17951962
129 -0.049160518 -0.24006353 -0.19236697 0.119331636 0.042007897 0.1303461 0.08086971 0.099495985 0.10017299 -0.0187102 -0.09735082 0.36051267 0.13054256 -0.031376485 0.13921152 0.07586453 -0.041963663 -0.15614307 0.028220603 -0.0919449 -0.11097261 0.057022795 0.02452353 0.1395453 0.119044945 0.1405682 0.10612645 0.12501885 -0.18112428 0.019068388 0.21306439 -0.054187123 0.14194198 -0.21582115 0.04852857 -0.03594937 0.1945496 0.04348149 0.1008089 -0.0073830793 -0.0025811377 0.2947279 0.0544164 0.06850449 0.019615984 -0.05624289 0.13466768 -0.025998022 0.106834635 0.021659803 -0.07836532 0.06954864 0.003719587 0.06223029 -0.1268576 0.12732597 -0.049225792 -0.09209777 0.07577655 -0.029930037 -0.028579107 0.046888053 -0.07034178 0.19316974
959 -0.2379526 -0.21457608 0.03015238 0.06606913 0.01392554 0.0869113 0.150099 0.05569169 0.12846315 -0.21988687 -0.22121333 0.08359504 0.24229798 -0.009738569 -0.030209675 0.16262671 0.0011305969 -0.025171489 -0.0537067 0.08905576 -0.041989397 -0.013701921 -0.052101806 -0.06953028 -0.08807013 0.23636208 0.052074756 0.27700883 -0.15813787 0.16608863 0.12307439 0.04258108 0.107763596 0.114900924 0.017888105 0.065877706 -0.13900521 -0.031360283 0.084816664 -0.014964998 0.102152556 0.15161155 -0.21346234 0.10454773 -0.017802788 -0.17031187 0.15734366 0.14597785 0.08891712 -0.10316759 -0.15290517 -0.093849264 -0.037354212 -0.028187362 0.032475743 0.10304188 -0.11654472 0.15328065 0.20060198 -0.13188848 -0.05579903 0.09700027 -0.24740781 0.095750816
110 -0.022369623 -0.07075839 0.033499755 -0.06838096 0.124910586 0.030293662 0.057653435 0.13477597 0.14218655 0.056457505 0.013867083 0.0768125 0.04019758 -0.26599637 0.025161456 -0.15169226 0.087296404 -0.10737115 -0.14308505 -0.042470966 -0.08545006 0.26323414 0.08076091 -0.14725086 -0.11883631 0.16636108 0.0071119615 0.13194045 -0.18305138 -0.111427665 0.12407832 0.0033967565 0.046317175 -0.14490063 -0.29728442 0.086521566 0.1219497 -0.048029013 0.16790952 0.03883116 0.021288654 0.22807075 -0.088438235 0.062363114 0.06190652 -0.1449383 0.094237216 -0.09061697 0.017042425 -0.020795492 0.02557545 -0.13742134 0.025454752 0.11049439 0.029243806 0.120571785 -0.11401595 0.0026048417 0.05598465 -0.05902042 0.013793053 -0.017444277 -0.016644727 -0.07429485
204 -0.013809272 -0.082356386 -0.10735369 0.0017340616 0.018087007 0.0063188155 0.14482723 0.011928783 0.058141015 -0.29074374 -0.1458238 0.0045670546 0.10819856 -0.15262957 0.15563044 0.052869074 0.03611216 0.06468008 -0.099253185 0.045034464 0.006473534 0.16810533 0.18225548 -0.05257949 0.046431366 0.2776089 0.077240534 0.1187037 -0.06692685 0.10079227 0.12983704 0.015459155 0.032839663 -0.03945434 -0.023942487 -0.018242246 0.11926335 -0.12899001 0.07191455 -0.15060236 -0.024171008 0.29425725 -0.030888002 -0.027157983 0.07846815 -0.14776352 0.11469999 0.2166644 0.020369887 -0.008818957 -0.10584518 -0.12237383 -0.18060395 -0.020240901 -0.07527891 0.11277075 -0.031418506 0.20476522 -0.054798815 -0.09831378 -0.05926785 0.08826464 -0.106352866 0.020587
472 0.09002438 -0.09172443 0.1318318 -0.010768664 0.13473952 0.015225107 -0.0473394 0.09417119 -0.027865283 -0.028901977 -0.19809438 0.295 0.124136254 -0.12736712 0.19945039 -0.1833549 0.13202214 -0.047125142 -0.11934195 -0.11438289 0.04941515 0.19898783 -0.107834354 -0.15808177 0.030673167 0.24293604 0.061129343 0.051951565 -0.23895009 0.16856427 0.005082889 -0.00075457996 0.20738167 -0.22895229 0.0102290185 0.13899109 -0.12739746 0.113024674 0.18996258 -0.013052209 0.030267889 0.14446911 0.06133732 0.049442366 -0.044621985 -0.10444212 -0.06529554 -0.012062563 0.03268921 -0.13604024 -0.21767713 0.06797547 -0.019963708 0.03419708 0.24546374 -0.06469732 -0.06905107 -0.062909715 -0.044503246 0.18865387 -0.19675277 0.103714205 -0.14937827 0.054501787
1102 -0.005372077 -0.039517965 0.10653466 0.061608996 -0.0911856 0.092229865 0.041968863 0.0075543653 0.16384088 -0.07994486 -0.13002901 0.06085039 0.0694871 -0.12950845 0.23219998 -0.059979934 0.040018555 -0.09187933 -0.05052059 -0.01651598 0.051236056 0.10459127 -0.07101714 0.042572774 0.056510217 0.023202991 -0.007548928 0.11535805 -0.28032264 0.14356704 0.1001376 -0.11429863 0.023021653 0.031624377 -0.18390848 -0.005141427 0.17767258 -0.09275482 0.34335673 -0.09719309 -0.05969357 0.21775977 0.04035867 -0.03519354 -0.031962585 0.0038851772 0.078585446 0.22452664 0.1599242 -0.026732484 -0.07277079 -0.0059227254 -0.12428989 0.101866245 0.13296154 -0.044368003 -0.16793108 0.024273092 -0.15970866 -0.07877843 -0.05826829 -0.019506343 -0.06265161 0.02272628
1611 0.060662687 -0.016404124 0.101870626 -0.07614154 -0.06710785 0.09662606 -0.11354854 0.070835926 -0.105871275 -0.108948484 0.04745057 0.14571096 0.22178037 -0.043057386 0.19049577 -0.028633837 -0.011494852 -0.17769629 0.07506552 0.16412903 0.085700616 0.1620312 -0.06822211 -0.1742271 0.12696056 0.23300874 0.051085137 0.117158696 -0.07835148 -0.10697845 0.23322006 -0.098312765 0.1909237 0.03926887 -0.070161976 0.074459076 -0.02677506 0.063520335 0.17548022 -0.036589067 -0.03786025 0.32003742 -0.0985085 -0.14573473 -0.057610694 -0.06677599 0.29865503 0.14466918 0.038391184 -0.113994025 0.043385256 -0.28395888 -0.082791895 0.0097063035 -0.15658891 0.06873836 -0.012197758 -0.071100734 -0.08960224 -0.016644346 0.09347282 0.034468267 -0.023213003 -0.14274004
55 -0.18531118 -0.013913424 0.15568359 0.026787966 0.1408688 0.23235074 -0.13580392 0.024639394 0.18407944 0.2080512 -0.14223148 0.18092163 0.10129371 -0.028774377 0.28819537 -0.013589698 0.21534553 -0.028832871 -0.13218507 -0.07330421 -0.13660653 0.05263936 -0.19288996 -0.03317899 0.1008399 0.14262749 0.10789319 0.29660982 -0.2088587 -0.024694214 0.20744883 -0.071110606 0.22496612 -0.060830344 -0.13047636 0.123671606 0.18036078 0.010537997 0.018895546 -0.071350135 0.06665619 0.08449298 0.0495033 0.0893133 -0.040173583 -0.12632902 0.07247225 0.1065231 -0.074921034 -0.124176174 -0.0036810525 0.12828784 -0.08635342 0.06622279 0.013815339 0.16401634 0.077374734 -0.11829511 0.19994734 0.032420907 -0.09817954 -0.12938838 -0.043009873 0.042901527
1640 -0.070768185 -0.07801507 0.006276567 0.0013762895 -0.012408335 0.04471059 0.079888165 0.012482338 0.11730772 -0.11921721 -0.07187109 -0.0047889673 0.07739653 -0.09700267 0.0971884 0.11542349 0.016015237 -0.09551713 -0.15722044 0.04580467 -0.118591376 0.12368967 0.015340282 -0.042995308 -0.099633135 0.07253173 0.095010445 0.20696801 -0.13845295 -0.12068699 0.21173143 -0.084280446 -0.11899735 -0.16519049 0.03110239 0.09792633 0.10668511 -0.06265088 0.17301504 -0.07081344 0.06964733 0.3394841 0.07714584 -0.16493787 0.07361058 -0.1618322 0.1720378 0.009489831 0.06937298 0.09315631 -0.16030797 -0.021798803 0.0241429 0.18622759 -0.0032458878 0.11057727 0.012622927 0.14997795 -0.16504608 -0.16331972 0.039302677 0.009077592 0.05853547 0.12014222
506 0.0032306276 -0.018537067 0.21310832 -0.04636399 0.112522475 -0.050264977 -0.0056816894 0.04639985 0.217219 -0.13371684 -0.052015994 0.12705544 0.20158419 -0.05947508 0.11202459 -0.23345949 0.018709023 -0.13727975 -0.14296855 0.086395144 -0.017846618 0.012873155 0.028765306 -0.09272576 -0.08270733 0.10462838 0.036824774 0.08110367 -0.28361621 0.093576424 0.041750178 0.07537836 0.01702472 -0.112178504 -0.10642442 0.07114103 0.13658945 0.03894821 0.20171891 -0.044231508 -0.18978529 0.21401383 -0.06011506 -0.11764266 -0.0094649065 -0.12717903 0.23720607 0.05202175 0.012296454 0.19077021 -0.13636172 -0.043998532 -0.043109227 0.07034587 0.028817957 -0.022490826 0.13466394 -0.14328665 0.042292994 -0.11617744 -0.07937329 0.09480522 -0.04330861 0.15047462
640 0.05156214 -0.18323413 0.11063136 -0.24643168 0.08381835 -0.050305013 0.12076708 0.20926414 0.052900273 -0.032755222 -0.087776616 -0.017368069 0.2348864 0.043692667 0.07845363 -0.11093314 0.039780393 0.011456735 -0.25770736 0.122500606 -0.045563392 0.056916837 -0.07248922 -0.10621445 -0.041061107 0.04127894 0.027405925 0.24808988 0.030147893 0.12628593 0.09449027 0.096081726 -0.07428605 -0.097330846 0.08978086 0.11851611 0.17867951 0.10861761 0.20101793 -0.09335468 -0.06922354 0.190783 -0.24634236 0.06043052 0.14193718 0.023895385 0.073537804 -0.021964319 0.21836282 0.08666802 -0.17155194 -0.06578902 0.060503546 0.14350389 -0.09833996 0.038177367 0.06569744 0.12821706 0.06605668 0.07044826 -0.08194586 0.26458412 0.009650227 0.06754572
1264 -0.16776341 -0.1714882 -0.17257938 -0.015658753 0.18107453 0.07119631 -0.09679312 0.004594093 0.031949196 -0.10374933 -0.07391916 0.073049076 0.09634413 -0.14458516 0.08187937 -0.27499437 -0.17032763 -0.032105394 -0.06524683 0.003811666 -0.03794783 0.091740765 -0.09071333 -0.1176482 -0.074916296 0.019456442 0.19828415 0.1633501 -0.2061522 0.09948248 0.17093144 0.052886847 0.087484084 -0.17035398 -0.16804509 -0.09341656 0.028905492 0.09332891 0.36073795 -0.0354767 0.03680812 0.09742687 -0.011793302 0.060820892 0.16959475 -0.15147708 0.04623907 -0.077895194 0.016835563 -0.0647814 -0.10688029 0.13421091 -0.042177062 0.34634012 -0.041380428 0.06938427 0.105165616 0.031330686 -0.012203194 -0.09419793 0.0018601359 -0.16939892 0.046011027 -0.055524196
462 0.053731192 -0.0011675383 0.07993862 0.012331746 -0.095298275 -0.096014164 -0.012167819 0.18817881 -0.039751768 0.103246346 -0.19178413 0.18175876 0.12164433 -0.12848942 0.35461536 -0.09199181 0.16556853 -0.046160255 -0.15077618 0.009373344 -0.07140665 0.16505314 -0.049749628 -0.05602946 -0.06356304 0.16969289 0.11723227 0.2046987 -0.21367006 -0.04824998 -0.07061854 0.03124628 0.032377195 0.06007054 -0.06877924 0.056571867 -0.0019213712 0.035811827 0.12271611 -0.049646024 -0.0034836258 0.053386338 0.09318009 -0.042403277 0.08767894 -0.05345603 0.00073708704 -0.037020072 0.17833693 -0.24099028 -0.06686107 -0.09589153 0.06306434 0.21632019 -0.090146676 0.1318873 -0.01574176 0.073523276 -0.022046829 -0.18078788 0.07296338 0.05024605 -0.08614025 0.19072747
987 0.006004408 -0.17402433 0.111199774 -0.0072996286 -0.09672236 -0.068363756 0.01955592 0.07874438 0.09968574 -0.14394502 -0.22346115 0.052444894 0.043080337 -0.080612935 0.28677115 -0.11006876 0.08641847 0.035335954 0.0022750832 0.12600122 -0.13706574 0.0074130045 -0.0017084529 -0.13909975 -0.15262122 0.03908739 -0.009694025 0.14327098 -0.21496075 0.05307125 0.121973924 -0.010776512 -0.00048708412 -0.09350743 0.040299524 0.025270473 -0.05515513 -0.07661123 0.260897 0.07002462 -0.2230757 0.23636825 -0.0077841934 -0.017908042 -0.014879398 -0.1586177 0.18754184 0.029195463 -0.047944274 -0.0104459375 0.13658343 0.048639916 0.01881809 0.08048732 -0.038111813 0.17350554 -0.07639697 0.1529202 -0.0015519784 -0.10206115 -0.06653515 0.035064124 -0.08426859 0.23444578
1410 0.052703522 -0.021201897 0.06929365 0.065369 0.023561813 -0.061946183 0.18739893 -0.032216255 0.063508555 -0.1668449 -0.13997303 0.12340979 0.1783327 0.02044605 0.14533518 -0.06116701 0.18532817 -0.14537598 -0.042876396 0.11306659 -0.07883197 0.07712145 0.01721528 -0.10175276 0.06811545 0.07301579 0.055611793 0.016084809 -0.23638499 0.028060079 -0.041752636 0.038003333 0.24247473 -0.0074588167 -0.13228934 0.07347842 0.14033785 0.13430929 0.20572518 -0.11897708 -0.021060843 0.41291 -0.13854738 0.055955302 0.08266831 0.10597771 0.042780075 -0.10805646 -0.17108476 0.018122246 -0.07640259 0.10814179 0.09887761 0.284677 -0.0366651 0.15612045 -0.07144436 0.072970234 -0.022581652 -0.097284324 -0.16224113 0.14222725 0.015594235 -0.077601776
505 -0.12714896 0.051944178 -0.1141268 -0.04935171 0.104023375 0.08058462 0.05939922 0.12042709 0.21782388 -0.119093664 -0.15936603 0.06689156 0.24202488 -0.20981856 0.2541478 -0.1853632 0.19958581 0.0143538695 -0.03549973 0.09645106 -0.092487246 0.09972104 0.04713161 -0.17103013 0.070514075 0.19514102 0.07343554 0.16549411 -0.10419383 0.095742315 0.012785576 0.045600794 0.14734931 0.06848749 -0.066108175 0.067540325 0.003988485 0.074551545 0.40783262 0.023113688 -0.1126157 0.03651406 -0.11886462 -0.022803573 0.19710483 -0.1326963 0.055668026 0.111472465 0.050345458 0.048352554 0.029258395 -0.035672303 0.07779473 0.03746323 0.2538133 -0.04372087 0.0008516845 0.07582815 -0.035671867 0.07342303 0.08696764 0.041850794 0.14600737 -0.09285616
1019 0.018840361 -0.09703012 0.03729323 -0.047370978 -0.0143836755 0.0954727 0.12943484 0.0813195 0.15933365 -0.024560723 -0.07397387 0.054947846 0.025199767 -0.012477523 0.049421765 0.032264166 -0.017633818 0.041053303 -0.13088241 0.1133612 -0.16327634 0.19796929 0.07912262 -0.043725066 -0.05272203 0.14241906 -0.22989395 0.2795864 -0.24051929 0.0015986505 0.0994097 -0.03286465 0.005297888 -0.11982389 -0.07750322 0.22446783 0.11486347 -0.068440534 0.16479455 -0.06319868 -0.1221986 0.2016183 0.11860293 -0.0048812367 -0.04094652 -0.053931974 0.0778977 -0.06573844 0.05858529 -0.11777331 -0.12827948 -0.09350384 -0.0150644975 0.10991427 0.057236917 0.27941778 0.12750638 0.026359497 0.013488461 -0.047109354 -0.021930577 0.09768662 0.056653142 0.030524123
194 0.043758523 -0.13769612 -0.021435978 -0.03485743 0.010039816 0.063862756 0.08099409 0.20296411 -0.025262982 -0.089911036 -0.12436653 0.021126784 0.2685971 -0.058203354 0.20173967 0.07831388 -0.04432664 -0.05026364 0.00640112 0.13469234 -0.058910757 0.1767687 -0.14529124 -0.0026933793 -0.079399854 0.3537297 0.06977265 0.039179333 -0.27042702 0.056480963 -0.009949078 0.05538967 0.22280912 -0.05254458 -0.103075355 0.03313309 0.21584958 -0.17724384 0.17959638 -0.08405369 -0.0911817 0.052981105 0.07705919 -0.19976637 0.060706865 0.003877764 0.22419187 -0.11296512 0.06362359 0.025231771 0.17593868 0.066692606 -0.116177075 -0.08622741 0.01846677 0.072162665 0.035575904 0.11514021 -0.00437827 -0.11062201 -0.04905497 0.01847831 0.101307005 -0.088130295
40 -0.1466318 -0.16049947 -0.012348672 -0.07498021 0.037027396 0.11405201 0.1308226 0.15550126 -0.07398515 0.20316745 -0.0513372 0.11009137 0.30229986 -0.05488223 0.16977288 -0.08512327 0.007356832 -0.209192 -0.05229069 -0.043948065 -0.038830996 0.08295249 -0.109919876 -0.022751732 -0.1735764 0.18286555 0.023294518 0.12763679 -0.10570542 0.088940285 0.16516496 0.14414783 0.041927274 -0.08174215 0.02123849 0.12539184 0.24592356 -0.022336856 0.15454675 0.038041674 0.16960584 0.19704635 -0.1549634 0.07552209 -0.06378462 0.030320339 -0.08101895 0.087998234 -0.085105844 0.030042682 -0.050107922 0.07047318 -0.058673885 0.15309225 -0.19080237 0.17548594 -0.1382346 0.15112403 0.034577712 -0.06936768 0.11396423 0.1271471 -0.023833305 0.052781347
557 0.007628716 -0.15796325 0.13657096 0.025669156 0.010640499 0.12407652 0.03302048 0.21601 -0.015903553 -0.0787361 -0.046378937 -0.03884417 0.2003106 0.11188457 0.22769547 0.08630898 -0.035012905 0.08045004 0.08225862 0.15842383 -0.11228653 -0.081681915 -0.04123656 0.033220828 -0.038166765 0.25561035 0.0009640673 0.23672178 0.0005924155 0.007315521 0.1386719 0.055313252 0.11494775 -0.15808648 -0.08423731 0.08472424 0.1015474 -0.13725868 0.17164133 -0.13165967 -0.15825856 0.18860042 -0.18094455 -0.028877055 0.051401503 -0.045194022 0.053766806 -0.050304014 -0.0021380822 -0.13290049 -0.0512383 -0.052085187 -0.1059648 0.06498821 -0.038379006 0.1993202 -0.15481566 0.025270721 0.04206566 -0.05000957 0.11279415 0.06828224 -0.06223167 -0.011878597
