1727 64
876 0.11197069 0.048650008 -0.027700892 0.06737401 -0.008772186 0.085914634 -0.14633855 -0.042020347 -0.06470859 -0.13957578 0.06528759 0.033661883 -0.059410162 -0.006677892 0.05895592 -0.083245985 -0.2497595 -0.08961388 0.052630104 -0.10301887 -0.06692526 0.07916102 -0.018977182 0.067661524 0.003551419 -0.10415742 -0.09804809 -0.16032732 0.09409796 -0.17492937 0.15490997 -0.061200358 0.055742297 0.08135989 0.15254265 0.11660964 0.10421864 -0.13376692 0.19347005 0.10676333 -0.11689098 -0.06396974 -0.111239515 0.21185191 -0.18142337 0.038470063 0.051197797 -0.038221225 -0.068894476 0.06297636 -0.038048174 -0.06619967 -0.11463801 0.0830298 -0.1962084 -0.031235205 -0.14736885 0.10074013 -0.033012863 -0.14221536 0.09015945 -0.0204424 0.040601745 0.08852372
467 -0.030712336 0.031497546 -0.14076117 0.01769069 -0.04189542 0.09781932 -0.059910696 -0.0047932314 0.13842858 -0.10713855 0.0011884569 0.023969203 0.056830928 0.073124036 0.17105135 -0.1610717 -0.12705375 -0.003053859 0.17546916 0.021283196 -0.030697923 -0.00082521315 0.004093326 -0.03354097 -0.013493946 0.103136495 0.09891843 -0.016091976 0.13709824 -0.026939109 0.18398131 -0.001925077 0.054381296 0.027360098 -0.03191175 -0.110526666 -0.025578072 -0.24136023 0.17515324 -0.030537747 0.04882646 0.05057714 -0.1519403 0.045809574 -0.3199124 0.004119181 0.054075662 0.085497126 -0.0076172403 0.11582166 -0.16676986 0.13901116 -0.01617245 -0.030493572 -0.014631497 -0.083738886 0.11789026 -0.10222105 0.12556517 0.047385804 0.22511151 -0.08356617 -0.10358253 0.00013427858
950 0.008898972 -0.04562626 -0.048444245 -0.029105438 0.050659325 0.09706712 -0.146417 -0.10371566 -0.025327042 0.118916 0.064565115 0.071606986 -0.01240843 -0.048182108 0.12176323 0.051983897 -0.10191032 0.024133462 -0.03973067 -0.17144977 0.11213406 0.11567041 0.0560718 0.066093616 0.08610492 0.01655482 0.14808905 0.04845357 0.033242542 0.058902215 0.13838898 -0.027534276 0.0332643 0.15522125 0.032418307 0.14251478 0.0062745977 -0.049760528 0.0898059 0.043791 0.013265121 0.021235753 -0.06404906 0.10128228 -0.21791697 0.022124588 -0.11257908 -0.19015355 0.018067608 0.26605907 -0.0843784 0.13658182 -0.109518155 -0.19622317 0.03101735 -0.1832025 0.08478985 -0.02026804 0.049471352 -0.10916049 0.17172228 -0.00818491 0.10068078 -0.08449351
1065 0.013167438 -0.1396604 -0.06856343 -0.03302634 -0.08661205 0.07658075 -0.15797603 -0.06189992 -0.00747894 -0.0044455 0.08468406 0.17413034 -0.04602282 -0.022791624 0.050244603 -0.043512814 -0.21762817 0.08992988 0.05644613 -0.06048702 -0.0131777525 0.06573637 0.0527812 0.13707127 0.06660603 -0.09141336 0.07456303 0.044854637 0.14680065 -0.008825055 -0.052329425 -0.05032037 0.036362674 0.12954438 0.18484546 0.10352474 0.1359955 -0.001184155 0.07919374 0.12646137 -0.09509856 0.18665572 0.07292433 -0.1629947 -0.12114283 -0.079245254 0.06639049 -0.17227133 -0.16476561 0.04944241 -0.1324978 0.074449204 -0.057161186 -0.04787528 0.24943621 -0.10782777 -0.1328964 0.14066637 -0.05932912 -0.02909959 -0.02809835 -0.11405158 0.0748297 -0.07248384
259 0.0734077 -0.11063926 -0.15843932 -0.12247715 0.018650254 -0.0248353 -0.13837197 0.13668853 0.1376809 0.01921443 -0.09053339 0.010396755 -0.05193193 0.14511417 0.13542351 -0.03286377 -0.17531852 0.013067787 0.09930491 -0.059546582 -0.19397973 0.1144998 0.15531579 -0.010757254 -0.007344251 0.059448436 -0.04082046 0.04259473 0.13945857 0.032454498 0.113374904 0.07261413 0.027638601 0.009642685 0.18806253 0.05304187 -0.03353931 -0.08263796 0.17801215 0.055072095 -0.07265566 0.103966415 -0.21462022 -0.0045030555 -0.19368052 0.05233965 -0.006123297 -0.029465463 -0.031122854 -0.06169762 -0.11308259 0.1473262 -0.07717727 0.044103358 0.11792862 -0.08259163 0.0798392 -0.06753674 -0.032618653 -0.017840052 0.07330293 -0.1040566 0.012760801 0.020499118
147 0.008560456 0.05471486 -0.09111747 -0.07408134 0.016753279 -0.033760652 0.011228325 -0.20882055 0.21199517 -0.041832477 0.043273043 -0.016087621 -0.00551975 -0.001415614 -0.13122293 -0.023818368 -0.2925725 -0.06993254 0.15409905 -0.110666834 -0.06771114 0.16423683 0.112569235 0.06989357 0.05035286 0.009620382 -0.06601887 -0.13159783 0.1837311 -0.115189634 0.05984329 0.01936112 0.10017563 0.13810746 -0.010018877 0.17741694 0.03473979 -0.12211468 0.14727831 -0.020167382 0.015873164 0.049113847 -0.16582672 0.12679031 -0.083919734 0.10225638 0.072578184 -0.15641215 -0.05598503 -0.038013533 -0.021718321 0.024709309 0.006880807 -0.08433184 0.026178231 -0.051812544 0.15295236 0.088434786 0.11932247 0.058969192 -0.013394262 0.027442642 0.0865808 0.093293704
947 -0.031200936 -0.015235069 -0.18956284 -0.035549734 -0.089991465 -0.030253459 -0.03391607 -0.046202134 0.24358894 0.09813517 0.048048984 -0.09411339 0.031925157 -0.1369915 0.12053386 -0.03253559 -0.13145415 0.042580165 -0.11504011 -0.07892161 0.12228667 0.031592075 -0.16045043 0.067355 -0.01460117 0.0721795 0.1028416 -0.015403467 0.035248563 -0.09054844 0.07868657 -0.069785886 0.09583324 0.14022066 -0.017099308 0.123015665 0.023901515 -0.2102168 0.043969557 -0.08311588 0.09390295 0.08967104 0.037109982 -0.1024581 -0.17417014 -0.07500589 -0.1659965 -0.0291827 -0.10323722 0.127959 -0.23725855 0.17767602 0.06950594 -0.080417305 0.030112814 -0.099067055 -0.041307017 0.14020717 0.11761443 -0.007781488 0.044095512 0.1405993 0.17584667 -0.010679713
1500 0.0948532 0.13177037 -0.0073920493 -0.080836 -0.17397855 -0.055472303 -0.018879257 -0.039794255 0.19309013 0.071882896 0.059118476 -0.12473414 0.082036 0.09219045 -0.1493255 -0.11083917 -0.047620706 -0.11083487 0.09407896 -0.20811145 0.106713206 0.04545948 -0.07275966 0.04559965 -0.014284222 0.17638691 0.003637237 -0.14161836 0.16000073 -0.029591147 0.20858808 0.040703498 0.053922195 0.29539785 0.0036430694 0.14529441 -0.091145724 -0.034479864 0.1030507 -0.10500453 0.05917661 0.015435006 -0.07853622 -0.06807579 -0.23656227 -0.014240753 -0.011206965 -0.050368417 -0.2255701 -0.15306108 -0.13970992 0.016363107 0.04680908 -0.0612962 0.10945982 -0.20133917 0.02813949 -0.08640678 -0.057468902 0.14304423 0.2275998 0.037933655 0.019284312 -0.050443254
912 0.12692824 0.035906024 -0.030830087 0.012501509 -0.11513053 0.008447718 -0.0044469526 -0.058104344 0.1798134 -0.011763235 -0.05656083 0.018204618 -0.09513583 -0.12186697 0.019904254 -0.12745616 -0.15745912 0.0030751736 -0.0039056612 -0.19623983 -0.0682578 0.012968859 0.045590926 -0.058853846 0.14815839 0.01167 0.056256864 -0.16052502 0.041173853 -0.08641564 0.06258337 -0.18573506 -0.09155845 0.13428445 0.03941483 0.0025993346 0.02014007 0.08000323 0.21274756 -0.09706639 -0.10680338 -0.04371891 0.05736928 -0.013917766 -0.18087456 -0.08968269 0.004940053 0.1292037 -0.19985245 0.09442235 -0.18440352 0.07718663 -0.20155403 0.046984576 -0.09091144 -0.23310821 -0.06507524 0.07692045 0.013272538 0.007575934 -0.05038426 0.0051616314 0.06442058 0.028868003
1042 -0.24158831 -0.0075232284 0.00038845363 0.07829452 -0.042922236 0.016192678 -0.09475998 -0.1204921 0.1632353 0.14071003 -0.054419655 0.11394053 0.08841297 -0.014816247 0.11829281 -0.13368468 -0.12251426 -0.061137248 0.13680863 -0.0062652673 -0.044933453 0.039197735 0.07188297 -0.03348295 0.022007806 0.07788046 -0.1151941 -0.0019254084 0.14204086 -0.083087325 0.19906104 -0.025226034 -0.070748895 -0.00930146 -0.072772935 -0.11081053 0.22857326 -0.110801116 0.18738063 -0.0640901 -0.017364034 0.17816278 -0.15104313 0.011147041 -0.13705222 -0.0072269216 0.1378266 -0.16886401 -0.079643026 0.10236524 -0.012805673 0.09870122 0.05152994 0.05993557 -0.048300218 -0.2569561 0.076139934 -0.09438867 0.025064604 0.017808298 0.29008162 0.039708424 -0.024123298 -0.0005506815
644 -0.074062526 -0.233357 -0.057670306 -0.037274726 0.015939118 0.16179323 -0.25291502 -0.03727879 0.10958057 0.016196024 -0.038784 0.09268905 -0.12373677 -0.059379146 0.106278665 -0.17235366 -0.039630383 -0.07178479 0.040424228 -0.2459149 0.011084443 0.025963774 -0.016071955 -0.16082044 -0.027631138 0.1050025 0.041307304 -0.13141789 0.008196273 -0.04361924 0.1188279 -0.08575243 0.111831024 0.12909748 -0.09495998 0.037681147 0.031552438 -0.17655101 0.06426802 -0.07577125 0.09580639 0.071803406 0.010465995 -0.06029385 -0.20517686 0.07028402 0.047636066 -0.0047545824 -0.17871982 0.102008514 -0.060598873 0.09070644 0.04991264 -0.09599103 -0.038824305 -0.2049595 -0.10534664 0.10535358 -0.06991598 -0.14309798 -0.06063597 0.08240272 0.14937402 -0.07671626
209 0.110677406 -0.017860362 -0.0047783824 -0.12896524 -0.046681263 0.04682619 -0.17964831 0.07144617 0.18853475 -0.075165205 0.03610879 0.12299681 0.04523966 -0.10666735 0.15306842 -0.11861052 -0.12557295 -0.06075911 0.080365375 0.07251541 -8.4313695e-05 0.14522931 0.11076785 0.039052166 -0.115610704 0.099468425 0.109820575 -0.04881875 -0.08429264 -0.11646308 0.1522521 -0.024656465 -0.08541306 0.09232586 0.2241121 -0.011568208 0.017130984 -0.12128291 0.0929835 -0.038258586 -0.14628792 -0.022905229 -0.13909383 0.031638324 -0.22872594 -0.1731609 -0.19216414 0.09690086 0.01937411 0.14773324 -0.077140346 0.091579914 0.0147851715 0.012517527 -0.07364202 -0.086196 0.09357663 -0.00062428066 0.15706874 0.03354202 0.0976849 -0.055298 0.056793313 0.018191949
450 0.12213027 -0.14592224 -0.11890097 -0.1357124 0.0026778167 0.12900119 0.004165241 0.083694056 0.12952037 -0.03837887 0.10716759 -0.07097649 -0.062452804 0.039779108 0.14158385 -0.180702 -0.22006023 -0.06841797 0.029959794 -0.07132176 0.030776415 0.02820445 0.036537062 0.019458853 0.07300338 -0.005270846 -0.07869259 0.047258176 0.013768755 -0.05220253 -0.07721735 -0.042954504 -0.008404624 0.2626029 0.17288771 0.16137068 0.12765485 -0.2918749 0.13256244 0.06489948 -0.007828229 -0.04813445 0.017227283 -0.040812045 -0.1106294 0.028944412 -0.036362812 -0.026922356 -0.06085399 -0.06819848 -0.041652806 -0.112791955 0.06319318 -0.01598003 -0.04942445 0.018552104 -0.18128708 -0.040241495 -0.037655447 -0.016212048 0.1451918 -0.11309318 0.17402925 -0.007987785
19 -0.046761654 0.052927494 -0.07839291 -0.090891354 0.04961473 0.042321384 -0.07527095 -0.19723037 -0.012769799 -0.07845208 -0.026740052 0.116479695 -0.06288458 -0.19390681 -0.05683482 -0.1615252 -0.07486422 0.099852115 0.07360833 -0.12594101 -0.100320406 -0.1011827 0.12358557 -0.096495815 0.08038887 0.05996328 -0.07890967 -0.19308658 0.098263904 -0.030974878 0.047015816 -0.09857926 -0.09959487 0.26733628 -0.0047889054 0.018066555 0.10003422 -0.03447122 0.06380759 -0.056813397 -0.04719781 0.07569651 -0.069893256 -0.094509035 -0.21707623 -0.17986001 0.056436203 -0.027031848 0.013203204 0.104561284 -0.17590597 0.24618624 -0.11545481 0.089505024 -0.062141974 -0.03108992 0.045823235 0.12959838 0.07379648 -0.09187023 0.09710537 0.089699276 -0.04052867 0.016719775
750 0.06676805 0.04880505 -0.13607988 -0.14367923 -0.04363137 -0.065698676 -0.02776814 -0.083626606 0.22131518 0.09103503 0.037881557 0.013306366 -0.05621959 -0.06649879 0.078593604 -0.0675474 -0.07748141 0.025128022 -0.046990238 -0.066430934 0.013294483 0.07685589 -0.0347815 -0.019354112 -0.19066246 0.0767656 -0.11399555 0.042131342 0.06944656 -0.18628132 0.0058731996 -0.07661521 0.057341162 0.15813012 -0.036525823 0.17461067 0.012739542 -0.03429098 0.05954968 0.1034702 -0.0090158945 0.042573072 -0.09269771 -0.037886918 -0.25718275 -0.08826268 0.013579735 -0.1214093 -0.14475603 0.185492 0.060738564 0.016952934 0.07328714 0.07400341 -0.035191566 0.010635954 -0.05910878 0.016920323 -0.20195477 0.02626043 0.09498118 0.0127939 0.17166454 0.08239969
276 0.031417433 -0.17516774 0.046355084 -0.17882764 -0.034582816 0.025113843 -0.14034417 -0.10437042 0.22827312 -0.1338451 0.040173575 -0.013978012 -0.008463529 0.009024463 0.14132062 -0.071733914 -0.1665303 -0.0627506 0.10774301 0.060432047 0.066104375 -0.014642749 0.029840825 -0.019119347 -0.012855798 0.06936941 -0.033544764 -0.11363454 0.13056776 0.031150647 -0.03730804 -0.045867264 0.01793455 0.008426644 -0.005167446 0.15520556 0.100286946 -0.26629117 0.28312036 0.103042535 -0.023143025 -0.07115303 -0.15248658 -0.008465754 0.0031417082 0.016017077 0.059101257 0.12454828 -0.22501835 0.06478903 -0.03168866 0.07581468 0.011984398 -0.11614291 0.032106154 -0.1628616 -0.04670199 -0.18404861 0.075378515 -0.010172206 0.09692149 -0.09480193 0.033484865 -0.09334651
1664 0.100703515 0.017163748 0.00015664178 -0.16889954 0.02409028 0.12615594 0.04089355 -0.045914862 0.23224135 0.009363652 0.17155147 -0.10259076 -0.07587153 -0.08299526 0.10737096 0.043140486 -0.25828457 0.16176717 -0.0032239137 -0.053662807 0.035074886 -0.01236038 0.14165393 -0.076677606 0.02783142 0.00052353705 0.055388127 -0.1386987 0.12929407 0.047661252 0.051477533 0.0025381865 -0.01062166 0.16889769 0.06169981 0.06545332 0.15882373 -0.09389494 0.025891505 -0.032650273 0.07798599 0.0059724697 -0.04715602 -0.04719976 -0.12535836 -0.17643602 -0.021209918 -0.05049697 -0.049379453 0.0024038823 -0.044197213 0.013723078 -0.038771987 -0.09240511 -0.0060050664 -0.10615127 0.10603293 -0.05435187 -0.07915867 0.037012983 0.10040689 0.049267784 0.14231253 0.062977575
272 0.09085255 -0.12303717 -0.15896381 -0.11726781 0.051885806 0.03987837 -0.19823906 0.044942994 0.3063734 0.046736058 0.10509324 -0.031243043 0.015540318 0.015872326 0.10369069 0.0018292138 -0.12287777 -0.017467597 -0.10500384 -0.17026843 -0.072634 0.2486715 -0.023062907 0.05118515 0.0435799 0.011525259 -0.22036001 0.0418071 -0.031700443 -0.057282433 0.1075366 -0.042016216 0.18711765 0.1312794 0.22580817 0.07372129 0.16854675 -0.09637307 0.05879279 -0.026309408 -0.10236944 -0.0027070157 0.0771185 -0.104701675 -0.06216689 0.036663726 0.016384467 -0.06357915 -0.064502865 -0.037755962 0.0065950435 -0.016122488 -0.026772032 -0.017635345 -0.05919706 -0.07834788 0.059061576 -0.0035937245 0.13178517 -0.07245515 0.10331379 -0.16913712 0.028516108 0.1681123
343 -0.021076852 0.010906683 -0.031439316 -0.112566076 -0.08763208 0.053500317 -0.022472626 -0.08186407 0.23927605 -0.065905176 0.07422717 0.02732163 0.13382208 0.0849641 0.10169694 0.049403794 -0.22162999 -0.08333162 0.064143114 -0.1510568 -0.12548281 0.1385015 0.077652246 -0.08106414 -0.047420975 0.03206795 -0.019579351 -0.047537096 0.11250117 0.01966369 0.09042453 0.046700463 0.12457326 -0.021304188 -0.005362662 0.22056608 0.14782926 -0.09363941 0.14987196 0.13213183 0.14170879 -0.03358903 -0.018067047 -0.038591076 -0.046474554 0.0008306927 0.14043918 -0.036188953 -0.115395784 0.009612634 -0.13582279 0.011692694 -0.098832235 0.010588124 -0.13331379 -0.1829764 -0.022416607 0.048023444 -0.054264326 -0.07955982 0.081088 -0.11600394 0.09877428 0.0457444
1021 0.08178538 -0.07648224 -0.08819935 -0.07250408 0.0987041 -0.022436218 -0.195683 0.023997622 0.19825608 -0.017750863 0.07397331 -0.1055897 0.106650986 -0.07313432 -0.034904562 -0.19722994 -0.080394335 -0.06146037 0.04676297 -0.119472735 -0.06687057 0.06992156 0.005535689 0.091827966 0.09130303 0.035634603 0.03934663 0.0127021065 0.039925195 -0.021843499 0.04768645 -0.09461197 0.007830243 0.14655992 0.16273566 0.21133529 -0.061784245 -0.029169656 0.022696646 -0.15984893 0.07422281 0.038819414 -0.1074483 -0.11524721 -0.17070624 -0.14398402 0.057875592 -0.09516693 0.035136476 0.15469202 -0.11725368 0.011924424 -0.2165951 0.04383096 -0.050644744 -0.18621632 0.0107337395 -0.055820793 -0.009245376 0.07291359 0.091978885 -0.14726415 -0.08831585 0.10575953
906 0.04861169 0.07234044 0.00056434027 -0.07482806 -0.024528265 0.011762435 -0.14201662 0.09988044 0.036102567 0.027908346 0.013759909 -0.10343281 -0.14037232 0.079700224 0.09604921 -0.07591487 -0.071092 0.10110848 0.010469896 -0.1487017 -0.11904667 0.19548184 0.06313562 -0.021012079 -0.050599467 0.04791825 -0.10325604 -0.10957687 0.18840685 -0.06529602 0.14293973 0.020522695 -0.08095618 -0.03134169 0.13889062 0.17596939 0.15141538 0.036977693 0.08102285 0.24470434 -0.11417057 0.015626306 -0.025946533 -0.120053604 -0.24405062 -0.03529855 -0.027842242 -0.1487715 -0.09883629 0.27885336 -0.09653615 0.07962613 0.02234467 -0.017834857 0.009375213 -0.06332727 0.040758044 -0.0091775665 0.07393912 -0.030531226 -0.07237554 -0.10199621 0.072446756 0.023436166
991 -0.031837236 0.017752573 0.07775734 -0.06001783 0.036953896 -0.02510743 0.05687954 -0.042977862 -0.014261795 -0.052059907 0.0941549 0.03349389 -0.12368289 -0.09036022 0.077079736 -0.07100926 -0.10249742 0.07118582 -0.022822183 -0.12690626 0.00083279685 0.030899018 0.060786463 -0.12964758 -0.0919623 -0.0055973493 -0.016171977 -0.08057898 0.12894225 0.011554104 0.038702335 -0.22612104 0.0594489 0.010380426 0.09093796 0.0038848978 0.106732905 -0.18105705 0.19830117 0.0053796447 -0.05141603 0.10394488 -0.003352964 -0.07516478 -0.19618446 -0.12072175 0.07003472 -0.039565787 0.0085601695 0.081891105 -0.07720301 0.16493995 -0.11931664 -0.16377544 -0.029365996 -0.055881154 -0.057062257 0.02669449 -0.035371933 0.03832656 0.23474608 -0.27989393 0.014557138 -0.079827785
1072 -0.030512575 -0.019897386 -0.08232624 -0.083223775 -0.014908609 0.048273686 0.0052259318 0.14795685 0.17002352 -0.02219406 0.041785013 -0.021136861 0.028520698 -0.09540912 0.060413834 0.034559045 -0.16683221 -0.103633046 0.024543641 -0.09761605 -0.029438373 0.057413246 0.016874582 -0.03479347 -0.01607722 0.13773705 0.08705793 -0.1458073 0.17565347 0.09104867 0.01131416 -0.02001153 -0.030554209 0.15359148 0.00941403 0.23933077 0.017770028 -0.094719075 0.07510963 0.018003177 0.04788013 0.13404736 -0.009879984 0.06456325 -0.11560634 -0.11170736 -0.012348549 -0.16778575 -0.17060311 -0.015011172 -0.08358038 0.045371976 -0.12171008 0.008715762 0.018252477 -0.012331413 0.008983094 0.12056679 -0.10788757 0.09042949 0.2174624 0.032132626 0.09397714 0.056849368
1068 0.065257676 -0.087395266 -0.12513028 -0.06251857 0.09906357 -0.027396254 -0.1249738 -0.03732796 0.20604548 -0.058971193 0.118002556 -0.028708939 0.032229412 0.13512658 0.14464268 -0.07208951 -0.08809949 0.14881825 0.12966269 -0.08126477 -0.052452624 -0.08131613 -0.033584006 -0.04284674 0.117753394 0.08609264 0.06131933 -0.01384259 0.060856957 -0.04450036 0.061937038 -0.032649938 0.14857668 0.05728439 0.07246719 0.060462285 0.047209974 -0.05477507 0.122951545 -0.005728394 -0.05756128 0.11246593 -0.057614554 -0.14225198 -0.15270287 -0.17012022 0.033187006 -0.062073343 -0.12523036 -0.14373997 -0.06839677 0.13723563 -0.04901546 -0.044603374 -0.12101741 0.011939344 0.057226285 0.018325044 -0.055356164 -0.048457406 0.16363928 -0.090476535 -0.027206618 0.12794054
1484 0.025514495 -0.006275318 -0.092733175 -0.060633093 0.0424608 0.084797844 -0.16597575 -0.095861696 -0.05518926 0.077526905 0.074856155 -0.0397907 -0.058269102 -0.033565503 0.03056421 -0.114338 -0.096176036 -0.028449485 0.046025597 -0.16938968 0.0032106428 0.036516536 0.16101094 -0.16232121 0.011874752 -0.06268235 0.033958707 -0.19357009 0.13344109 -0.11788968 0.10531436 -0.10229997 0.079279624 0.18984634 -0.0030239155 0.02010838 0.112762764 0.0676507 0.17295074 0.050381456 -0.0604337 -0.010109842 -0.17402299 0.029707147 -0.12374802 0.0058766333 0.048410792 -0.075853884 -0.12612213 0.08881784 0.003930393 0.17380886 -0.022496015 -0.009182016 0.09920582 0.060233396 -0.0041446653 -0.08305975 -0.05320165 -0.07799489 0.12714526 -0.070930675 0.100132816 0.029540468
251 -0.10069249 -0.027101805 -0.03550073 0.06610846 0.28959516 0.09558562 0.039474677 -0.09809079 0.09040522 -0.12513271 -0.041367676 -0.07923623 0.007816368 -0.11639628 0.04884865 -0.07805192 -0.13920258 -0.20409349 0.06836574 -0.017401068 0.18458726 0.079741 -0.098721355 0.021506995 0.18325621 -0.0155996485 0.11243255 -0.056809854 0.15276037 -0.14373624 0.040035147 0.013632482 0.0682282 0.06094059 0.10112317 0.25662723 -0.09138934 -0.24030095 0.062900715 -0.037039362 -0.07498238 -0.008631229 -0.10726503 -0.19440855 -0.30339962 -0.11974646 0.10241151 -0.052623656 -0.15965354 0.11852051 -0.033986546 0.13100608 -0.058413357 -0.117255166 0.13839488 -0.038951203 0.088115275 -0.03759662 -0.026966985 -0.020725997 0.14977804 0.12635916 -0.021690333 0.13076241
474 -0.0018586137 0.08363246 -0.047032528 -0.008753633 -0.047758453 -0.018004173 0.026274685 0.12222134 0.12565719 0.000322568 0.011974166 -0.09615122 0.111740805 -0.081323 0.012821745 -0.021819787 -0.18581785 0.15283568 0.060017616 0.050575048 0.01454891 0.024837837 0.27297837 -0.058438227 0.1161482 0.051097516 0.010022781 -0.108465865 -0.02395147 -0.0838585 0.026538381 -0.07046046 0.19603719 0.110133246 0.07279966 0.086405 0.023069125 -0.10731521 0.08618265 -0.017672885 0.0900168 0.09276107 0.023833545 -0.23999996 -0.048288513 0.15037236 -0.046425592 -0.020945014 -0.19363709 0.2273234 -0.15847348 0.24057646 -0.059014674 0.15176004 -0.11089113 -0.23060828 0.1388469 0.018818313 0.0046478272 -0.16663793 0.07978091 -0.037257813 0.07178749 0.029522225
105 0.08963649 0.041553173 -0.16580078 0.11181743 0.060223356 0.069253676 0.03853983 -0.12002336 0.08092916 0.036928803 -0.022452641 0.10015302 0.013755871 -0.061815824 0.016668636 -0.24429207 -0.23684266 -0.011365054 0.05989841 -0.039641578 -0.09972426 0.09805528 0.0050823702 0.008114146 0.062613264 0.09399684 0.02140729 0.04081937 -0.01472739 -0.02635924 0.083274655 0.03320064 0.17579933 0.15858862 0.06618627 0.027167182 -0.012174547 0.010341931 0.16569495 0.028291224 -0.19446188 0.03382413 -0.103670575 -0.06121277 -0.19724464 -0.0005965913 -0.040002298 0.02894495 -0.057605803 0.11737306 -0.030123746 0.1608479 -0.07299887 0.15460029 -0.013843659 -0.003118981 -0.04455378 -0.004719974 -0.06269197 0.0747696 0.17109816 0.02561431 0.120904066 0.040933967
1360 -0.095180824 0.021782774 -0.0041306685 -0.054104727 0.0011816206 0.013772274 -0.28615114 0.07538809 0.053877097 0.06227037 0.107496314 0.017985614 0.038618963 -0.1139197 0.03915524 -0.1408141 -0.0046222047 -0.044164747 -0.07457151 -0.11041043 0.0010774953 0.06348256 0.060116313 0.0060471725 -0.0555268 0.023710003 -0.05591033 -0.049074005 0.1296993 0.03177803 0.09808128 -0.1428616 0.16870297 0.11701965 0.07806262 0.007748693 -0.066037044 -0.03252866 0.22477058 0.12938024 0.036449958 0.13112842 -0.06479749 0.087596975 -0.20286779 -0.0123367105 0.07975693 -0.08400887 -0.11460632 0.14366871 -0.07673081 0.08040456 -0.062897675 0.018641928 -0.049384 -0.13529529 -0.02595419 0.04985499 -0.20374036 0.01950636 0.15869305 0.048821818 0.082081154 -0.10801019
198 -0.0097127715 -0.04452687 -0.0798442 -0.03696053 0.079275705 0.12777717 -0.13007784 0.07407578 0.08455165 0.025223969 0.06958394 -0.025851356 -0.07488536 0.0072280806 0.12241096 -0.017505731 -0.16363296 -0.057414483 0.11646865 0.120270886 0.08340396 -0.0023765638 0.08470264 0.1483359 0.018374588 0.16011314 -0.05566334 -0.061282653 0.027081532 -0.06430103 -0.07771423 0.0072059133 -0.028475244 0.12991269 0.012590015 0.25102305 0.04458264 -0.049230922 0.13956453 0.10223873 0.16622376 0.16219616 -0.12927653 -0.020116642 -0.16485313 -0.032635707 -0.083839804 -0.10978861 -0.17823352 0.12074421 -0.094617024 0.14189135 0.010034188 -0.020815488 0.18005331 0.033012353 -0.17310493 -0.029543657 -0.04476928 0.030727524 0.108425155 -0.14277694 0.14768402 0.058234237
527 -0.14910728 0.005221899 -0.08959721 -0.07917389 0.06072095 -0.06492947 -0.10619929 0.006739117 0.1618278 -0.16224396 0.079423875 -0.023035763 -0.09568285 0.0054093343 0.022656435 -0.06045461 -0.17525196 0.038074348 -0.03886684 -0.10329366 0.019709656 0.12679097 -0.016467547 -0.058525864 0.14528017 -0.117507465 0.09254977 0.040101673 0.29048902 0.10475813 0.1463503 0.0036765041 0.07188715 0.095255814 -0.027093751 0.11108168 -0.012562327 -0.23723932 0.03413983 -0.10454791 0.013352638 0.055435564 -0.046588548 0.018386 -0.24651268 -0.21256755 -0.056337416 -0.13880685 -0.011783064 0.07054811 -0.06405029 0.185931 -0.12240095 -0.009324523 -0.017546427 0.018393666 0.101376206 0.06308005 -0.116737306 0.041642494 -0.0002465992 -0.17835201 0.031763017 0.1888289
664 0.0538451 -0.09034083 0.0051026093 -0.1175672 -0.11416034 -0.13565928 -0.070541136 -0.10595118 0.1464795 -0.05447613 -0.04529298 -0.06912796 0.005195734 -0.20112957 0.0971885 -0.1514497 -0.1253576 0.058601037 0.089854546 -0.09968306 0.03965178 0.064895384 0.085319646 0.0012367999 0.017592652 0.11905263 0.0107784355 -0.11529758 0.04651252 -0.09611722 0.035235588 -0.025531312 -0.05164883 0.06967511 0.01352787 0.186842 0.1554458 -0.14313792 0.039537814 0.053439964 0.0064040893 0.08099544 -0.17014232 0.005726575 -0.19112374 -0.039512333 -0.046247862 0.029447936 0.029815441 0.022920225 -0.06781471 0.008650332 0.1716552 0.19054547 -0.09323078 -0.055251606 0.08929218 0.12671489 -0.09891323 0.16361861 0.02238963 -0.28991655 0.07596648 0.0017078406
942 -0.006626395 -0.1881645 -0.08448179 -0.072026886 0.048310284 -0.064740874 -0.080731295 -0.099021494 0.02638927 -0.10356333 -0.021726605 0.060372446 -0.018970637 -0.067606136 0.020911131 -0.056993723 -0.21799736 -0.014353606 -0.0298447 0.020112887 0.07158417 -0.0072158985 0.022828875 0.0010360858 -0.0018072269 0.07150696 -0.02107117 -0.11567603 0.1588507 -0.025936088 0.012519742 0.037901558 0.036273178 0.057037096 0.0457265 0.0275926 0.00023855304 0.017792994 0.119674 0.05377058 -0.005509523 0.072665714 0.0642651 -0.1515722 -0.3349062 -0.005006164 -0.15239236 -0.15472399 -0.30187026 0.02732425 -0.032464027 0.04962385 0.009798124 0.030824773 0.17578039 -0.028211337 -0.10626145 0.16907713 0.116968475 0.13031457 0.14400858 -0.07693645 0.1195238 0.056913264
638 0.13667448 -0.039310385 -0.06334424 -0.108491555 -0.027821597 -0.11935935 -0.17303957 0.0083504515 0.12604332 0.053161126 -0.01274327 -0.058595434 -0.038108837 0.10851714 -0.09386224 -0.09741103 -0.08370571 -0.0130149 -0.101219915 -0.16615453 0.012440453 -0.10512348 0.122216485 0.005415112 0.04315455 0.27738777 -0.051105496 -0.09861657 0.11552397 0.027725693 -0.10877271 0.047102876 0.06471874 0.2553706 0.10090729 0.083311796 -0.024465587 -0.047773764 0.15516078 0.08633149 0.099358104 0.09056155 -0.25677314 -0.08235821 -0.23620406 -0.16093427 0.032925848 0.013177951 -0.19970115 0.022411766 0.06871318 -0.031603277 -0.13836609 0.047401745 0.010851237 -0.15543604 -0.03834144 0.08117154 0.08127504 -0.07685398 0.04421954 -0.025915243 -0.018959587 0.014300738
1158 -0.040651046 -0.017412549 -0.017210472 0.05734257 0.082200795 0.14613889 0.057355013 -0.15165576 0.23783214 0.05439675 0.043005288 0.08228403 0.08664772 -0.006718618 0.13120851 -0.15682505 -0.050141893 -0.08081542 0.0038408139 -0.08057361 0.018253215 -0.02668475 0.08539351 0.024380753 0.089304656 0.120482035 0.016040457 0.01563329 0.1003557 -0.057131298 -0.119742304 -0.12649834 0.12008852 0.06555692 0.17752862 -0.10076263 0.0501844 -0.043294802 0.103933 0.012710057 -0.05942062 0.1255232 -0.042111635 0.08377464 -0.26142105 -0.11043156 -0.016205024 -0.17166087 -0.22509126 -0.0017916913 -0.038992845 -0.075684205 -0.18999144 -0.004182369 0.12981498 -0.043894347 -0.045244116 0.10802844 0.13578776 0.02925464 0.15785873 -0.09089303 0.07844935 0.14141338
1246 0.06882338 0.06734127 -0.0038077487 -0.055316616 0.0707213 -0.015761742 -0.18628266 0.008748529 0.12975152 -0.09736181 0.09530895 0.021017287 -0.070998885 -0.18722007 0.09465472 -0.028336348 -0.07842043 -0.0061443155 0.009635205 -0.11317834 -0.07666068 -0.020211596 0.27125302 0.029125134 -0.04473007 -0.041543767 -0.103041545 -0.017918395 -0.03293396 -0.0052408604 0.14689703 0.014233079 -0.045801636 0.13484417 0.17545533 0.15151574 -0.0015740236 -0.16692589 0.08615396 0.024354802 -0.032077443 0.06692671 -0.17094669 0.0074503873 -0.14813498 -0.05033743 0.08975002 -0.019328162 -0.04448002 0.0526163 -0.05426783 0.12181875 0.08453346 -0.06880382 -0.054190934 -0.15747839 0.05184604 -0.0011432926 -0.0793905 0.010905293 0.10390296 -0.12436677 0.12850614 -0.061209146
1601 -0.012595116 -0.066664234 -0.17723851 -0.13211568 0.016515223 0.01835944 0.08383707 -0.0816046 0.16821268 -0.16115661 0.014485213 0.05016293 -0.019977802 -0.16495313 0.030506568 -0.1564693 -0.11042294 -0.021684421 0.040785626 -0.08123703 -0.23354864 0.06405963 0.06951167 0.040658798 -0.0959139 0.18004069 0.06603783 0.010042434 0.12060034 -0.067422986 -0.060257185 0.04770698 -0.06212104 0.03918421 0.10873581 0.10509278 0.20154215 0.017450405 0.10296126 0.14943826 -0.010366368 -0.019975707 -0.015514362 -0.121486016 -0.24129708 0.15000753 -0.11208038 -0.10381889 -0.117243566 -0.032145802 0.039740123 0.124304235 -0.1952829 -0.04891239 0.025174545 -0.01100546 -0.062872335 0.09408335 0.11840496 0.029425217 0.14850579 -0.019626236 0.12409268 0.014352363
476 0.13120691 -0.14426911 -0.03415358 -0.032850295 -0.09751496 -0.066697545 0.1268021 -1.6971417e-05 0.16527241 -0.041390516 0.030766424 0.020492684 0.042618606 -0.03363448 0.16421875 0.17765231 -0.14393404 0.14403674 0.12210065 -0.19213124 -0.019270696 0.16323777 0.04788776 0.09371477 0.037340134 0.014983323 0.05507496 -0.14719321 0.18544413 0.05303539 0.07100149 -0.071308486 0.07067864 0.19369431 0.13069586 0.05406168 0.005637819 -0.113521345 -0.0084527675 0.0736849 -0.024322756 0.10548771 -0.07773506 -0.083396405 -0.07014169 0.10539896 -0.03937394 -0.2240771 -0.16460371 -0.0022200455 -0.059894893 0.14729317 -0.07089947 0.015140089 0.19273193 0.013544087 -0.011786952 0.06639169 0.15740278 0.16189802 0.10456279 -0.12861691 0.14983316 -0.028956728
1514 0.13025947 -0.018688258 -0.14506952 -0.052364554 -0.066156894 0.03276482 -0.14062081 0.0466557 -0.034193367 -0.023060681 -0.13127925 0.023354104 0.039716788 -0.06711378 0.06483205 -0.08854182 -0.19765452 0.049693864 0.18912643 -0.107765734 0.01775317 0.12683907 0.041090276 0.02790243 -0.011677558 0.037307758 0.07502185 -0.046401702 0.07111112 -0.087768465 0.1053119 0.003657619 0.12582272 0.05397604 0.027754791 0.043577347 0.07165176 -0.07074772 0.08935467 0.034911714 -0.037348643 -0.1369795 -0.10521011 -0.0844364 -0.12981413 0.051031455 -0.0243662 -0.15127616 -0.17561384 0.15871842 -0.0069420636 0.042124055 -0.07198136 0.12072092 0.052442264 -0.23749526 0.060081065 -0.04229092 -0.076299466 -0.04453434 0.08113843 0.013123775 -0.027554873 -0.05608388
780 0.06689246 -0.04651481 -0.20611715 -0.050098117 -0.03190097 0.05416766 0.014148993 -0.013273242 0.10298607 -0.008387261 0.021931848 -0.10811771 -0.07227728 -0.08479535 0.14775798 0.049737763 -0.12216375 -0.029278664 0.023548523 -0.04939652 0.18051939 0.0116548585 0.08814535 -0.034214813 0.07726586 -0.08195903 0.08269275 -0.041667845 0.06711182 -0.15965773 0.2225783 -0.1457682 0.093315415 0.15182874 0.012420888 0.15478806 0.08703022 -0.034221236 0.14945768 0.051755525 -0.05392971 -0.11100785 -0.02194857 -0.16859254 -0.19442092 -0.096794054 0.05376734 -0.12938099 -0.04432336 0.028897738 0.04025592 0.040814262 0.009105658 0.0652715 -0.0016513332 0.0027214554 0.074805655 0.07952921 0.22488736 0.0010504256 0.15146239 0.025750827 0.018375676 0.05748821
1230 0.07158828 -0.09566867 -0.14420402 0.0731804 -0.12913667 -0.036747865 0.017266326 -0.1790192 0.09208441 -0.07078151 -0.057616036 0.13105945 0.22328633 -0.0076280716 0.19593245 -0.11333998 -0.28585082 -0.16210172 -0.019931193 -0.010602866 -0.0069148075 0.10382215 0.12352568 -0.0077014826 -0.115728535 0.052588586 -0.09682448 0.059713315 0.17253596 0.010247226 0.05145621 -0.0028275878 -0.040733125 0.024618791 -0.035438824 0.14408587 -0.054130886 -0.017232835 0.15076858 -0.034481164 0.011782462 0.057012614 -0.1367516 -0.0041649886 -0.33073145 -0.116196826 0.04148966 0.07615597 -0.07551514 0.11216575 -0.03539454 0.11779958 -0.0120779285 -0.109135404 0.03992767 -0.15894243 0.167128 -0.037869297 0.04390573 -0.15641941 0.015006082 -0.08804126 0.10948183 -0.002444137
617 0.032366265 0.04238624 -0.075445645 -0.014957102 0.06702739 0.10893002 -0.033515655 -0.2802189 0.19984035 0.13310914 -0.13559635 -0.00756416 -0.046058528 -0.025400482 -0.043539394 -0.12760355 -0.095610276 0.005135254 0.053083487 -0.009411495 0.001704926 0.040651355 0.13683738 0.078025766 0.02135109 0.031571794 -0.06473408 0.006026522 0.09581353 0.077435605 0.080836326 -0.07594835 0.07542047 0.17657144 0.010510267 0.26977018 -0.041418932 -0.18169627 -0.024709586 -0.14914702 0.035294104 0.11028385 -0.181009 -0.18833175 -0.0957267 0.052805882 0.080878355 -0.0784884 -0.03933728 -0.012890307 -0.110909685 0.091505475 -0.004466421 0.057378337 -0.11331546 -0.07360434 -0.1528517 0.23633973 0.00815638 0.078601845 0.25931314 -0.011593944 0.06522977 -0.025446737
1449 -0.055328183 -0.06189952 -0.34130758 -0.033755817 -0.098163575 0.13233632 -0.1299055 -0.011581524 0.2745013 0.03229948 -0.047212742 -0.029236143 -0.053437818 -0.021102484 0.06407472 -0.024707573 -0.14443435 0.056753956 -0.04721411 -0.13017224 -0.085275024 0.035149425 0.057817847 -0.15324475 0.12356988 0.12688619 -0.0631203 0.046291325 -0.04871415 -0.1706169 -0.03245506 -0.042352755 -0.037645254 0.034626115 0.15222415 0.025386047 -0.017597284 -0.16199084 0.06103242 -0.094910406 0.006386303 -0.07484524 0.06707837 -0.037097864 -0.27032048 0.078880936 -0.05917625 -0.099988915 -0.12714736 0.014097448 -0.02415633 0.085737474 -0.1745675 -0.095989 -0.0018861108 -0.104912795 0.0271158 -0.14934467 -0.17735347 -0.03123437 -0.10424452 -0.20273446 0.14857519 0.097618155
1692 -0.012502201 -0.019325968 -0.039598096 0.022464816 0.13008176 -0.038047392 0.08435488 0.05742263 0.16661257 -0.052731507 0.010441757 0.18250848 0.056896888 -0.14988206 0.11490811 0.08493258 -0.18570688 0.035909884 0.14953478 -0.18473567 -0.0023638308 -0.038884133 -0.05909562 -0.16808103 -0.1995938 -0.025594177 0.004431664 -0.028388707 0.17313889 -0.04263667 -0.026331158 -0.029947916 0.1478991 0.118694805 0.100026354 0.108544685 0.018678617 -0.24844843 0.11714954 0.08869076 0.008597491 0.031198693 -0.18061519 -0.14960994 -0.09742619 -0.08264933 0.06449658 -0.07146605 -0.016953751 0.08893687 -0.02856927 -0.06286741 0.09690056 0.1449803 -0.0061561363 -0.22716779 0.004994165 0.14185259 0.1349084 0.11307306 0.085559435 -0.1287338 -0.0009050941 0.06414133
999 -0.07833842 0.012180619 -0.2794865 0.14176685 -0.09094972 0.14670616 -0.0041324412 0.05282258 0.10672097 0.073792554 0.024041042 -0.0603502 0.039724525 -0.1478484 0.011658716 -0.037917275 -0.18725549 0.025404021 0.071207576 -0.071599536 0.022941906 0.06413664 -0.05847742 -0.009949682 0.09690585 0.06296901 -0.007065277 -0.045252517 0.044490274 0.008767088 -0.038783047 -0.051951643 0.14834246 0.15121338 -0.016508767 -0.07837611 0.014443102 -0.031480245 0.17888701 0.16063634 -0.11873482 -0.020402158 -0.022174887 0.021110792 -0.120163135 0.05631538 -0.18222755 -0.0011100019 -0.14456505 0.022657141 -0.10574361 0.054988276 -0.044891346 -0.14874037 0.08954862 -0.16052108 -0.05129743 0.020545613 0.1402234 0.09123803 0.27753857 -0.037713297 0.15038098 0.08887977
775 -0.04545046 0.06457211 0.0044372687 -0.06102134 0.03851399 0.046104368 -0.19274768 -0.17548993 0.24770157 0.06557317 0.008654944 -0.0033259792 0.027089208 0.0050120046 0.1895527 -0.061810654 -0.096821696 -0.10039176 0.15784349 -0.18030757 -0.08075884 0.020005193 0.015463456 0.024432795 -0.036291253 0.12040455 -0.0744353 -0.12743004 -0.03482649 0.033168778 0.0047988365 -0.119357005 0.13399908 0.102681115 0.028511176 0.17844619 0.07554475 0.024119945 0.14777604 0.058587637 0.009923872 0.0025634414 -0.03189859 -0.017586688 -0.12725472 0.058349565 0.12756065 -0.1115559 0.06153141 0.12179928 0.05817566 0.15302269 -0.052327726 -0.10982342 0.03737382 -0.12021966 -0.18033393 0.069271 0.09878048 0.007053389 0.052913718 0.06419049 0.022841604 -0.018920636
919 0.11754974 0.10045693 0.02467446 -0.13947526 0.043595474 0.022979768 -0.21256615 -0.11876335 -0.030557018 -0.06845619 -0.021283621 -0.15634112 0.04826658 -0.019858256 0.13742921 -0.19062713 -0.026119905 0.062466167 -0.011493253 -0.10916883 0.12373047 0.07059386 0.104906395 -0.054844685 0.018491047 -0.06473686 -0.0034324254 -0.22821575 0.012947275 0.16191243 -0.07498098 0.17100851 0.111893915 0.23115936 0.0720865 0.042112745 0.101867236 -0.06844806 -0.01776999 0.06350695 0.09009871 0.0181141 -0.17529568 0.04540179 -0.36446732 -0.026887933 0.06888908 -0.03338288 -0.10219429 -0.015562747 -0.037161715 0.028542085 -0.058240328 -0.04322146 0.12548 -0.12415168 -0.024374023 -0.027725058 0.010055951 -0.13672113 0.22247556 0.0013048305 0.14674997 -0.031336095
1476 0.010571253 0.124861434 -0.10357293 0.007039248 0.006617941 -0.014509066 -0.07444722 -0.03235917 0.0020248403 -0.11806874 0.021046396 -0.071652 -0.007086054 -0.12507567 -0.09461493 0.109936945 -0.2174809 0.08152921 0.080561005 -0.042504333 -0.058437776 -0.019446332 0.15850407 -0.078854814 0.048937112 -0.023217527 -0.022626959 -0.103497975 0.12880373 -0.032580692 -0.039991938 -0.08552742 0.07401172 0.20657702 0.09212922 -0.010183667 0.072632864 -0.042697117 0.1300337 0.12786376 0.06268522 -0.081071585 -0.033429578 -0.060748883 -0.065723374 -0.09517381 -0.14919673 -0.13650863 0.017211448 0.138405 0.009468104 0.07794082 -0.051990524 0.029073684 -0.09031065 -0.28631768 -0.07152497 -0.02847061 0.13316846 -0.0040592714 0.26565468 -0.20299798 -0.02125052 0.04232068
1642 -0.008467486 -0.03991195 -0.17029227 -0.022083394 -0.08028517 0.0551922 -0.021156495 -0.023442307 0.075408734 0.07001274 0.1251164 -0.06962807 0.1223131 -0.049751945 0.08704792 -0.062023547 -0.046073515 0.0055285404 0.12222558 -0.020567209 0.073785886 0.17675544 0.14211325 0.036152016 0.035624776 0.21073239 -0.18015939 -0.035778895 0.062278733 0.043153446 0.11472465 -0.016137669 -0.1256486 0.013984118 0.10858148 0.12111793 0.020837843 -0.07602918 0.19609727 0.088628754 -0.15050484 0.0083741415 0.008738687 -0.084322535 -0.22031002 0.025027035 0.1135926 -0.016027085 -0.16447471 -0.040364794 -0.16888864 0.023281923 0.032731485 -0.08413174 -0.034718245 -0.113238946 -0.05059943 0.13101411 -0.075682096 0.020937022 0.058376204 -0.08280349 0.16306116 -0.00917197
982 -0.051328354 -0.110371485 -0.24430715 -0.06372453 -0.042631842 0.060013946 -0.23260862 0.11513163 0.113732085 0.14655487 -0.01417132 0.036142573 -0.04257614 0.09394571 0.13440743 0.006978949 -0.086360894 0.034884058 0.20714778 -0.33875808 -0.012930022 -0.0955249 0.085013755 0.10934629 0.07530056 0.090190746 0.13107939 -0.11251377 0.0388202 0.020047948 0.013856219 0.13145706 0.072639756 0.12840448 0.17133217 0.20533186 -0.039692745 -0.017908273 0.029461645 -0.08705214 -0.09206136 -0.01659976 -0.08585513 -0.0010558885 -0.16352782 -0.13356008 -0.13951717 -0.024947446 -0.056033272 -0.021048376 -0.09545709 0.09234079 -0.08655793 0.014724412 -0.005549388 -0.047701344 0.056938875 0.02899093 -0.012411239 0.08384756 0.031686384 0.03560655 0.15038739 0.07590487
410 -0.11484554 0.07049692 0.048953045 -0.045621857 0.055558417 0.0888729 -0.01879437 -0.1102466 0.0872859 0.058588598 -0.13788435 -0.035174664 -0.06135024 0.103460394 0.07294924 -0.110135406 -0.14142118 0.06909687 0.09525067 -0.08416533 0.11716703 0.028859463 -0.13870594 -0.06472802 -0.09797315 0.037146036 -0.11583751 -0.097430445 0.07291204 0.041540455 0.124545075 -0.1779311 0.108028285 -0.022901518 0.090728976 0.16214941 0.051889624 -0.119665064 0.18939897 0.045685176 -0.16032203 0.104877815 -0.12280972 0.05144984 -0.20012797 -0.1325081 0.009792415 -0.08496798 -0.1926086 0.030402176 0.08965786 -0.0114152515 -0.10796936 -0.13591237 0.09069396 -0.13067383 0.20521149 0.05610855 -0.08073789 0.12061229 0.004992983 -0.05709278 0.043998793 0.14387995
1493 0.07370089 0.14471394 -0.08182224 -0.05310963 0.03870669 0.056179613 -0.13474934 0.07850514 0.16957441 0.042306636 0.04801209 -0.0033832425 0.054639637 0.09127673 0.105144046 0.016840305 -0.08001224 -0.02320893 -0.023039129 0.0981549 0.11701473 0.19147988 0.08114555 -0.19903724 -0.13302183 0.11361408 0.08895153 -0.100604445 -0.036773637 -0.0362461 -0.009509323 -0.097810924 -0.073461406 0.0018856181 0.10934319 0.064055674 0.108674064 -0.05427579 0.16242337 0.0068510273 -0.112233505 0.053884026 -0.18275538 -0.011000566 -0.27964097 -0.020484155 -0.096460015 -0.06700478 0.00095835375 -0.06996546 -0.0954224 0.04183337 -0.12801716 0.035207346 0.0028908749 -0.20953377 0.10551402 -0.22988904 0.050811063 0.14225654 0.034475736 -0.12417371 0.23410302 0.1853787
439 -0.04251913 0.0042423066 -0.044762567 0.017699542 0.1082295 -0.04825449 -0.07886177 -0.05148665 0.0675061 -0.044899713 0.019177172 0.010538844 -0.113407895 0.020108223 0.17948282 0.0056846817 -0.09840245 0.011916332 0.047419924 -0.06608802 -0.13885427 0.13849209 0.0316535 -0.06601223 0.038274493 0.06735079 0.21995422 -0.05626557 0.03402453 -0.17853597 0.07129073 0.009736912 -0.014001261 0.080161154 0.109386854 0.15796238 0.036774274 -0.07270405 0.27646828 -0.056916166 -0.09131258 0.10622194 -0.24876842 0.11911373 -0.18107378 -0.04251648 -0.1305388 -0.025746135 -0.08994591 0.012348017 -0.07494798 0.053897608 0.03457687 -0.1119904 0.03543359 -0.025385942 -0.03126264 0.1006587 0.0025847554 -0.15507047 0.11669179 -0.21290536 -0.07505627 0.017396076
905 0.08474717 -0.006777157 -0.08168143 0.034382787 -0.09409882 0.044162568 0.12471142 -0.24300107 0.1319681 -0.08966214 0.08270332 0.04491311 0.11947929 0.04955329 0.042270575 -0.037319705 -0.1535261 0.095347464 0.19908965 0.06481908 -0.009629322 -0.013947954 0.025011504 -0.036848094 -0.02976385 0.10130623 -0.052564427 -0.012249074 0.06217745 -0.043529287 0.090760596 -0.08437393 0.09663994 0.042175505 0.06566992 0.1335509 0.09471848 -0.21295714 0.2219015 -0.033589188 -0.006475507 0.06726291 0.019432606 0.059881095 -0.13645248 -0.066277824 -0.14309669 -0.10784463 0.028607063 0.16293551 -0.18485117 0.09573577 -0.07172875 -0.050211772 -0.052077428 0.073210984 0.2033846 0.01216414 0.04353392 -0.18558337 0.18409209 -0.018631417 0.18154052 0.046086013
1392 -0.11656221 0.003236726 -0.11197706 -0.14228597 0.063265584 -0.06936931 -0.19525436 -0.017270943 0.17515545 -0.039425936 0.21691222 0.052277878 0.04911188 -0.10337793 0.10581353 0.019887043 -0.20733966 0.047287844 -0.018259738 -0.17213665 0.116727255 -0.04010437 -0.058436558 -0.01861895 0.0038849968 0.2010204 0.11190366 -0.11809137 0.038507164 0.081005 -0.06073651 0.011197643 -0.102381885 0.17096765 0.00072604796 0.06457218 0.040493876 0.03682699 0.22745435 -0.11865374 0.09976813 0.10160733 -0.123289965 0.16130672 -0.26275578 0.017276904 -0.05841507 0.010200006 -0.24465513 0.10058097 -0.03725647 0.20607515 0.077119775 0.039717868 -0.0071737776 0.019921225 0.08064159 0.06998552 0.053341936 0.026818173 0.01759938 -0.12179478 -0.039219998 -0.0497262
1637 0.060224637 -0.00948413 0.026334876 -0.026774414 -0.13746412 0.015333179 -0.08890746 0.14334838 0.07734582 0.06301121 0.043204192 -0.071407974 0.06999118 0.05067901 0.04474965 -0.09319823 -0.057956792 0.12637347 0.098109014 -0.087245286 0.07604264 0.09057738 0.2514758 -0.008873557 -0.038582217 0.18455878 0.10367966 -0.19400433 0.1089594 0.063239805 -0.008613128 0.12531987 -0.006636708 0.14005855 0.2407312 0.08654156 0.049051378 -0.029993333 0.15748201 0.2507492 -0.05571629 0.14467993 0.06995858 -0.042738754 -0.1835929 -0.058512535 -0.024509467 0.014436929 -0.13634191 0.04652443 0.053863466 -0.027435811 0.09357153 0.018874861 -0.08052596 -0.11699597 -0.0021608595 0.20344685 0.033391874 -0.0069126645 0.078862734 -0.043835707 0.12967934 0.047212865
1569 0.061860073 -0.06320944 -0.22063644 -0.08078008 -0.020446932 -0.09594786 -0.02859282 -0.058710586 0.17316014 0.12628397 0.025558038 0.095782526 -0.06942317 0.01370249 -0.021729006 -0.15761095 -0.113900535 0.006873258 -6.9627e-05 -0.07523337 0.0960577 0.12649 -0.051434543 0.025236184 0.0917731 0.0028426072 0.030706588 -0.09424004 0.11766543 0.028209053 0.07572953 -0.0627548 0.19786578 0.13177967 0.08954144 0.058740426 0.01842379 -0.010397664 0.17046307 0.006264135 -0.07783455 -0.04208072 -0.0051963204 -0.15169698 -0.13756955 0.05178557 -0.02750754 -0.10228501 -0.1986926 0.103332795 -0.057246435 0.07543417 -0.08768055 -0.018443936 -0.12024097 0.05333233 0.02802545 0.049500667 0.033197057 -0.12537839 0.11445639 -0.049323224 -0.06172842 0.104671
1299 -0.020871378 -0.057926502 -0.07727711 -0.041779667 -0.0052504363 0.18147983 -0.056369103 -0.0075893165 -0.04842192 0.02416443 -0.02155239 0.07224148 0.028462552 0.01225584 0.09462901 -0.12194123 -0.25865763 0.045796722 -0.036536492 0.007506865 -0.08768394 0.026105573 0.10769581 0.013797921 0.065957606 0.12073865 0.017087078 -0.110437065 0.037020627 0.1261262 -0.056744598 -0.26351324 0.24661605 0.17446607 0.054711726 0.07284406 0.024440866 -0.0605298 0.23623595 -0.124859735 -0.0794534 0.10637724 -0.14630826 0.041788753 -0.07140641 0.009061625 -0.04607627 0.05368826 -0.1644527 0.042381834 -0.021634767 0.124943584 -0.15562706 -0.09621704 0.081301816 -0.12120537 0.10376795 0.10310772 -0.08861589 0.14843205 -0.015020489 0.0024779786 0.08738517 -0.0054170545
752 0.12428738 -0.1406316 -0.013973288 -0.020787964 0.04771225 0.030485218 0.043280523 0.1036816 0.14360814 0.033525493 0.024319494 0.06761584 -0.12432305 0.048072144 0.040390212 0.10133792 -0.24124461 -0.03493086 -0.031910148 0.0085084345 -0.15260774 0.036230847 0.06282343 -0.0050270776 -0.0011621842 0.13113481 0.119712785 -0.18083146 0.035544097 0.19754988 0.005460927 -0.24931422 0.07131397 0.15936427 0.11049425 0.15064764 -0.053245086 -0.018397113 0.18585396 0.058230344 -0.09533594 0.017685082 0.07199147 -0.06041048 -0.20488818 -0.061921153 -0.02115584 -0.07638803 0.0004678085 -0.006964618 -0.02918517 0.13283846 -0.015037855 -0.009339164 0.07935911 -0.09097596 -0.02233655 0.008003853 0.08381082 -0.08927368 0.21211842 -0.06274999 0.103888094 0.10707608
967 0.03212343 0.046967298 -0.16659252 0.02254708 -0.03528584 -0.13717732 -0.09055007 -0.13182198 -0.028529273 0.14132209 0.014263508 -0.093491055 0.10615852 -0.22026956 0.14612497 -0.04667335 -0.18514487 0.16992453 0.08405692 0.094866246 -0.078285374 0.07741437 0.09673987 0.025270272 -0.07940065 0.12581052 0.04093997 -0.1149436 0.20035386 0.029897217 -0.09767024 -0.1234043 0.10371117 0.06505491 -0.10428998 0.11072662 0.079439715 -0.14450894 0.29815954 -0.04091337 0.047485273 0.1316039 -0.13354847 0.07582362 -0.095160924 -0.056234337 -0.08019215 0.028677016 -0.12665543 -0.0695557 -0.17853387 -0.0031482314 0.03726123 -0.008142459 0.049559355 -0.11085303 -0.12896858 0.07843594 0.19710284 0.0217014 0.04497883 -0.12649798 0.07882076 -0.02876693
1303 0.033134703 -0.04412194 0.03400532 -0.106374025 0.097646445 0.12575158 -0.06706953 -0.102003075 0.19622244 -0.01050026 0.0092835575 0.07739777 -0.09884531 -0.0066919373 0.13570102 0.056459356 -0.14243363 0.066214755 -0.017350184 0.023372479 -0.040382463 -0.01529441 0.013560843 -0.04757213 0.10619098 0.19384679 0.20372559 -0.07358755 0.1947022 -0.110159986 -0.032768138 -0.029727157 0.029524641 0.18289682 0.0074810996 0.153427 0.09243334 -0.017739972 0.13559945 0.23970942 0.10916463 0.07561019 -0.16895244 -0.0016880002 -0.058690026 -0.13110939 -0.1301882 0.031093564 -0.13004024 0.10089106 -0.14066388 -0.08345379 0.04247331 -0.02985769 0.0137273725 -0.12819375 -0.01860649 0.021273492 -0.10700795 -0.137715 0.0921686 -0.050238963 0.16067551 0.016915468
655 0.1464413 -0.016401075 0.115070544 0.06570239 0.01942884 0.009868423 -0.16796733 -0.06930541 0.11948626 -0.10570191 0.058609564 0.01118445 -0.023337709 -0.056626204 0.16369751 -0.13318624 -0.2624479 0.012451244 0.056350153 -0.0055566905 -0.04577474 0.043762043 0.11200326 -0.116678394 0.10659667 0.2104178 -0.18760899 -0.045806676 0.17338526 -0.09140241 -0.08320845 0.07439799 -0.0094035575 0.095741555 0.12048653 0.01712267 0.054737225 -0.17528306 0.055453725 0.04821844 -0.06712265 -0.15708147 -0.07358629 -0.11528287 -0.15818627 -0.18757209 -0.0838044 -0.13203281 0.021565612 0.17200132 -0.017650457 0.0012080751 0.02100178 0.05423527 -0.16174935 -0.091093145 0.07771233 -0.16039443 0.0010720821 -0.03468946 0.007309024 0.015023091 0.18452936 0.007098399
1144 0.14040953 0.05070018 -0.058292057 0.08301506 -0.1112048 -0.019377744 -0.13200106 0.0010853993 0.29934812 0.17466928 -0.22287102 0.13994272 0.10561646 0.047081124 0.11079457 -0.050896615 -0.2595243 0.12105703 0.07120714 -0.016477546 -0.098892175 -0.04604183 0.10660903 -0.20462191 0.03316242 -0.017605375 0.06268488 -0.14649683 0.011794305 0.08230047 -0.04052454 0.116881624 0.03436075 0.073917456 0.16390139 -0.002034119 -0.05339436 -0.06166148 0.16372551 -0.02315582 -0.05180587 -0.04235722 -0.11283114 -0.09961976 -0.19753014 -0.070377596 -0.032888256 -0.123467065 0.0059902356 0.044595785 -0.06660173 -0.0023907737 0.16184126 0.13073401 0.0002201186 -0.2150256 0.0698966 0.083637394 0.15142907 0.07602141 0.1009658 0.10058425 0.019271258 0.14595318
100 0.122141525 0.06270549 -0.015251583 0.0012061411 -0.04127322 0.05167817 -0.19093464 -0.07940341 0.18316585 -0.056951083 0.057940807 0.06477235 -0.053993814 -0.1503666 0.118631266 -0.013958987 -0.11397433 0.052726977 0.059565343 -0.010314421 0.13491021 0.21062477 0.10802189 0.086078934 -0.0028712994 0.06467947 -0.08808387 -0.08425128 0.022668919 0.0033629157 0.22869447 -0.21232297 0.013415374 0.07615122 -0.0020035326 0.196033 0.09753653 -0.015721383 0.052525494 0.018067107 -0.005402607 -0.024054198 -0.0032612632 -0.106142506 -0.043778423 -0.12031275 -0.07721429 -0.050259914 -0.04917279 0.036787204 -0.11120511 0.17191559 0.027287586 -0.086072505 -0.03604734 -0.05942016 -0.026807347 -0.0005690538 -0.005237289 0.07560524 0.14880472 -0.18780124 -0.063133396 0.05143939
1512 -0.03162223 -0.12957627 -0.07483964 -0.076522425 -0.0996803 -0.0079428125 -0.13918686 -0.08830985 0.1375619 -0.013858337 0.09807241 -0.0122787105 -0.012339279 -0.08401498 0.08805205 -0.05725821 -0.16650462 -0.013465371 0.09144956 -0.17496748 -0.053431977 0.06329644 0.10104124 0.0019680408 0.043864865 0.15923181 -0.106829315 0.06146556 0.16449095 0.04065743 0.043273862 0.08690369 0.009019988 0.01976795 0.229739 0.21172449 0.0917543 -0.1093245 0.1325668 0.042513203 0.06324094 0.04761263 -0.16869684 -0.022237003 -0.05639072 0.17362536 0.1391855 -0.11558747 0.009578034 0.12276697 -0.01393854 0.024751423 -0.046928097 0.038963906 -0.17113629 -0.098561406 -0.051380828 -0.015265377 -0.061823096 -0.14449291 0.12028177 -0.015375134 0.058045246 -0.15488745
1024 0.026683075 -0.05075148 0.009054562 0.035994582 0.12256465 0.0040707537 -0.09020365 0.049907684 0.07138123 -0.037173767 -0.10172445 0.032564078 -0.023645349 0.046242505 0.11817985 -0.0710009 -0.07589102 0.1266805 0.05285071 0.06729739 0.112678975 0.06262007 0.15199703 -0.041135844 0.026701976 0.10594124 -0.051485725 -0.11209397 0.04437946 -0.19451329 0.013020824 -0.27546605 0.19588394 0.0891627 0.02097711 -0.12485749 0.07587486 -0.0600542 0.029171554 0.069826394 -0.054164883 0.029015092 -0.1010239 -0.027341994 -0.23799247 0.042100582 -0.12578078 -0.107636176 -0.18020782 0.042174645 -0.030643422 0.14706343 -0.040222436 0.09830625 -0.022731971 -0.23233233 0.052488375 0.059785597 -0.083303675 -0.020324232 -0.058188967 -0.09101523 0.20886916 0.010877925
1680 0.06920523 0.0068405303 -0.2837962 -0.0780443 -0.124947965 0.13587451 0.07683334 -0.13954227 0.16568343 -0.0039761667 0.069888934 0.0219634 0.21819417 0.015148858 -0.027571306 -0.16342635 -0.020160362 -0.024506927 0.07035516 -0.05580426 -0.025923321 0.05019847 -0.012659432 -0.04276661 0.17642821 0.028494863 -0.05874566 0.026610417 0.1709465 0.027982946 -0.13156034 -0.011439811 0.012379794 0.21921952 0.19066703 -0.024551205 0.021905951 -0.08051189 0.18968518 0.030973196 -0.12720622 0.04932967 -0.011829096 -0.12494121 -0.19441845 0.062329445 0.21918714 -0.14924246 0.002591953 0.07682428 0.017933203 0.10743104 0.11466473 0.07205251 -0.08212364 -0.1243204 0.008707778 -0.0065585347 0.034147613 -0.046194658 0.09785893 -0.1157083 -0.0130655635 0.041361388
1242 -0.04197921 0.03159121 -0.10486894 -0.19523346 0.061214175 0.05791373 0.07773173 0.023915697 0.056363255 -0.09760036 -0.12882665 0.020413253 0.011467079 -0.13056672 -0.0040951893 -0.10674487 -0.06629144 -0.022632457 0.13326444 -0.010007892 -0.09374324 0.10015044 0.13064583 -0.0630819 0.024312379 -0.105541006 -0.18619066 -0.003156132 0.19227688 0.16688079 0.058428887 -0.012511971 0.06390695 0.19311339 0.05765108 0.08492715 0.10234485 -0.1677948 0.24653783 0.07364651 0.04816582 -0.009203822 0.10897487 0.0033421258 -0.10603581 -0.0078515755 0.012720531 -0.16267608 -0.101093516 0.17893343 0.0026253513 0.041891128 -0.14420116 0.019723257 0.011407546 -0.18389298 -0.14520237 0.07518259 -0.02820347 -0.07521544 0.14624652 -0.037908554 0.08260278 -0.11851331
837 0.069540456 -0.08807647 -0.16821003 -0.09685346 -0.021720532 0.26153407 -0.10525312 -0.078212954 0.1270902 0.053587735 0.050985396 0.09122684 -0.0809378 -0.18984286 -0.14190812 -0.100367315 -0.027564736 0.10459323 -0.021559013 0.050921477 0.066438116 -0.078918755 -0.11241235 -0.09785831 -0.0013829583 -0.015613711 -0.009810794 -0.17067169 0.06632843 0.039356943 0.10844356 -0.06429501 0.055974413 0.08776714 0.07918912 0.21991038 0.024715578 -0.14347216 -0.011611961 -0.02138808 -0.04152251 0.04258688 -0.055203337 -0.045595884 -0.2618159 -0.06240111 0.017412407 -0.019800615 -0.17585672 -0.06715533 -0.05220412 0.017023193 -0.02647381 -0.061861314 0.04509088 -0.15220499 0.09107627 0.18334444 0.0007979376 -0.1280635 0.10131096 -0.16376278 0.09742892 -0.050945286
383 -0.14434089 0.01729923 -0.0056736805 -0.1392691 -0.04196525 0.07864262 -0.1612352 -0.0093392255 0.115887016 0.04337238 0.11850378 0.07773368 -0.16437997 -0.11525112 0.12600225 0.05739574 -0.18115772 0.1264102 0.17467187 -0.19647647 -0.04771623 0.15705489 0.049367666 0.0041018343 0.06752276 0.13085967 0.016501755 -0.058621377 -0.021270014 -0.03442187 0.07922611 -0.0017508684 0.08921493 0.16579457 0.044722624 -0.033453416 -0.09168039 -0.053249255 0.066611916 0.056784987 0.076536305 -0.1633352 -0.14092973 0.053049352 -0.25189817 0.1402576 -0.08865069 -0.042662095 0.05647572 0.14136228 -0.059758045 0.1744483 0.018284595 -0.059929043 -0.04753448 -0.29983535 -0.12756003 0.043866724 -0.068258554 0.032050453 0.014953268 -0.043938752 -0.1060912 -0.0057695103
1208 -0.1332689 -0.010100433 -0.07557452 -0.16284573 0.07409643 0.04542271 0.020952573 -0.1139386 0.16551043 0.050514355 0.005086632 -0.036316458 0.14600417 -0.13723883 0.07899393 -0.119394876 -0.20190595 -0.0113312295 0.18747796 -0.022982674 0.11968519 0.048618384 0.025478883 0.009730968 0.07971103 0.0027282692 -0.027019901 0.052887294 0.12285256 -0.18426873 0.066712126 -0.07182299 0.102420226 0.09370098 0.084402524 0.09689811 0.07144188 -0.18877211 0.057050116 0.1888994 0.05856464 0.13786764 -0.11497564 0.1831552 -0.1562345 0.035328984 -0.06370827 -0.1457382 -0.13021842 0.11151608 0.060429826 0.03430234 -0.06840456 -0.010397769 0.07152298 0.0016698833 0.07424427 -0.11942983 -0.09019055 -0.025179286 0.0039011505 -0.107753605 0.10224994 -0.050970085
1225 0.09577637 0.0637837 0.031376384 -0.041477155 0.08550717 0.03328496 0.029755922 -0.059746027 0.16351913 -0.039541386 0.2757037 0.026318539 -0.14167719 -0.03482909 0.14327364 0.035913177 -0.18200685 0.11154014 0.16012385 0.02479464 0.03341213 0.06857393 0.12002288 0.13024156 -0.058023088 0.050195187 0.012321534 0.024297087 0.015004537 -0.12713839 0.03594327 0.003882316 0.15046485 0.035547804 -0.026131045 0.3011994 0.19259746 -0.1844274 0.16891001 -0.14342134 -0.22321008 0.15518436 -0.0055537834 -0.07503191 -0.055529606 0.013842604 0.06602934 0.0035346115 -0.06919442 0.02261922 0.023512913 0.058595277 -0.24080819 -0.18097878 0.043538317 -0.059429217 0.15621589 0.012357818 -0.03215696 0.02483638 0.12063711 -0.093367204 0.12711951 0.068233676
480 -0.014337957 -0.1280448 -0.16812176 0.082398616 -0.04768624 -0.11331341 -0.09986689 -0.14473414 0.2772721 0.0974924 0.08361915 0.027321871 -0.0868309 0.037314527 0.043558106 0.030832566 0.013777435 0.008316558 0.04953893 -0.17550048 -0.0027374933 0.12216958 -0.024736445 0.005309014 -0.06370472 0.011331323 0.076402366 -0.068312325 0.112104446 0.047900632 0.13044941 -0.02790604 0.091673896 0.038318675 0.122215435 0.21172792 0.16017497 0.036718115 0.085898824 0.10830088 -0.008967407 0.0676909 -0.086008325 0.0018919599 -0.2543248 -0.06745798 -0.08053512 -0.16384917 -0.14325158 -0.103598446 -0.013385885 -0.05074528 -0.11680945 -0.051201906 0.1625098 -0.018950539 -0.02097837 0.057691444 0.025841245 -0.10533925 -0.011435743 -0.14332174 0.09155194 0.08075682
538 0.048670076 -0.1699324 -0.06757446 0.05309528 0.014843675 0.00551853 -0.11824403 0.06844342 0.19608718 -0.044795144 0.09161324 0.047009677 -0.052857216 0.01894418 0.07699993 -0.062516846 -0.19106351 0.06082102 -0.05495295 -0.07681069 -0.077915445 0.027560467 0.023109918 -0.015196991 -0.015456394 0.04484725 0.2090299 -0.05363 0.026657999 0.0724073 0.023411304 -0.13336532 0.025408091 0.21914345 0.29811862 0.15564139 0.0927628 -0.12509242 0.14042631 0.033675224 0.039784353 0.00872865 -0.07764007 0.048109416 -0.044793002 -0.030065382 0.015121773 -0.14806744 -0.083323814 -0.05707611 -0.11641194 -0.04459812 0.02797303 -0.14186747 -0.099417135 -0.09733749 0.017262846 0.0817911 -0.19750932 -0.29717836 -0.002215343 -0.07056312 -0.045132205 0.08040572
957 0.021337258 0.08144492 -0.06374073 -0.035729494 0.015692836 0.028822051 -0.056232233 -0.071537584 0.0742571 0.055741105 -0.05337296 -0.10414697 0.047360174 -0.10504 -0.07752543 0.067433864 -0.12922165 0.020082664 0.18671447 -0.111194044 0.12620457 0.0021344216 0.0014600273 -0.023620525 -0.04183926 0.12347378 -0.1461785 -0.14852302 0.07794337 -0.09509611 -0.013694365 -0.153847 0.08129038 0.07732614 0.09882723 0.1392663 0.109650366 -0.13291559 0.28232145 0.076211184 0.03596993 0.08854222 0.16390815 -0.11086362 -0.021221481 -0.014203001 0.118571006 -0.08354184 0.016945258 -0.1356266 -0.099061795 0.22555475 0.15117444 0.056539413 -0.0659773 -0.24619767 0.004660496 -0.050074924 -0.114732645 0.06723871 0.13910939 -0.15641937 0.05802478 -0.16670246
1055 -0.038985156 0.072230734 0.12189415 -0.14848514 -0.07096445 -0.0544695 -0.07306959 0.06387336 0.23572902 0.011944555 0.047657534 0.110391475 0.057998344 0.008208563 0.045767725 -0.0061326167 -0.2081818 -0.035242293 0.14384462 -0.07420227 0.038275104 0.033060264 -0.08762932 0.05297564 -0.11470324 0.16469474 -0.107405104 -0.1093959 -0.029277729 -0.09690679 -0.00035569357 -0.049975112 0.030272145 0.102740094 0.101656444 0.059226047 0.25673983 -0.029646192 0.22544295 0.05101862 -0.05284793 0.004658414 -0.14955692 -0.27531657 -0.08446374 -0.07019008 0.11923358 -0.12783292 -0.14353518 0.10709711 0.044081464 0.038688224 -0.045283213 -0.024565788 -0.00585165 0.0033197596 -0.045690756 -0.045772173 0.059424687 0.04423283 0.11976711 -0.05776877 0.04070379 -0.020371472
290 -0.04955055 0.082671866 -0.23875064 -0.09021114 -0.091432825 -0.02861969 -0.0273737 -0.095831335 0.034059 0.021611026 -0.16746385 -0.009780953 -0.15267228 -0.12206924 0.1922969 -0.015886705 -0.16442415 0.052973397 -0.08690818 -0.14579946 -0.07211885 0.09058631 -0.063111305 -0.09399541 0.083856195 0.0537304 -0.14164922 -0.041749574 0.15485352 -0.13214527 0.11970048 -0.22713366 -0.0938811 0.25020665 -0.014764863 0.17268176 0.005225627 -0.083722115 0.087028444 -0.13449568 -0.14777826 0.03295948 -0.120464094 -0.14109315 -0.25621974 -0.013473484 -0.016536945 -0.0010033107 -0.06098811 0.05879854 -0.0013966707 0.09715187 0.0047147507 0.05022857 0.0102231335 0.050336167 -0.15525773 -0.04197819 0.06705314 -0.17782833 0.018496066 -0.01876181 0.00069076335 -0.15980138
653 0.12970662 -0.11452494 -0.048770614 -0.15472318 0.008594551 0.19895628 -0.16543297 0.038205557 0.22492808 0.0018786357 -0.030774947 0.029441742 -0.023880074 0.075274475 0.08657175 -0.014347851 -0.036822833 0.09340389 0.15823339 -0.051684987 -0.026044618 -0.022993661 -0.060984183 -0.0027690672 0.09118343 0.11086007 0.005061783 0.032945875 -0.0013928139 -0.078503594 0.046081673 0.07385904 -0.050978385 0.1196963 0.09127111 0.052173257 0.029236859 -0.20367557 0.08876945 -0.00012353594 0.023798661 0.01993005 -0.15001081 0.03234765 -0.1820713 0.012394513 0.21575476 -0.033777118 -0.13586657 0.04172027 0.027885001 0.05040445 -0.07537606 0.056202967 -0.015326518 -0.09931327 -0.13866463 0.1319158 0.09340587 0.055394795 0.281729 -0.119207464 0.022882685 0.08741531
687 -0.0066919397 -0.030775264 -0.052048087 0.030625405 0.0010291156 0.010757242 -0.14826998 -0.019735195 0.14465028 0.1414733 -0.03026383 -0.10020511 0.20130694 -0.07844398 0.09057958 -0.012649322 -0.07342112 0.043386362 0.0077983662 0.008907989 0.10470834 0.12067806 -0.012853433 -0.073576145 -0.06345111 -0.019344069 0.046803933 -0.14346355 0.071466774 0.09025623 -0.16876817 -0.12405955 0.04645395 0.12928432 0.09704537 0.06558753 0.12414015 0.03875722 0.24474604 -0.16026048 -0.02210289 0.12350406 -0.2524514 0.0015977755 -0.1983545 -0.05064028 -0.09294835 0.028375225 -0.055924572 0.14363195 -0.1492825 -0.11639987 -0.042990398 -0.03963467 -0.0048081568 -0.13595591 -0.027560059 0.059897117 -0.06202097 0.058366116 0.14228968 -0.009500988 0.07900417 0.14697286
629 0.029914953 0.01028647 0.036908332 -0.022642443 -0.034638617 -0.052234154 -0.17626292 -0.121370696 -0.10490305 -0.007432823 -0.021626722 0.108042575 -0.12293901 -0.1585434 0.082662456 -0.15948693 -0.20272292 0.062532544 0.111664854 -0.13870071 -0.05033667 0.0017398881 -0.067795746 -0.030991882 0.27382544 0.09029553 -0.02877576 -0.051820993 0.12951055 -0.08588985 -0.053290725 -0.27557987 0.0028378274 0.11621895 0.072707176 0.25570434 0.07269279 0.0027090285 -0.0281232 0.10098877 -0.026871279 -0.058499187 0.03290854 0.03960761 -0.14751096 -0.13511075 -0.0005221927 -0.15918465 -0.101435535 0.06105873 -0.08347846 0.070091 -0.28491628 -0.0002046752 -0.027299963 -0.07762977 0.0290269 0.028951216 -0.07688246 0.029900566 0.05855977 -0.04472824 5.0779414e-05 -0.014677864
1231 0.0629843 -0.19515656 -0.22110929 -0.12180706 -0.050405975 -0.0469821 -0.16476776 -0.16010952 0.1295169 -0.081109695 0.029195027 -0.007456002 0.015963254 -0.064945094 0.14423802 -0.016580803 -0.058767844 -0.020337999 0.019618552 -0.15565228 0.00216825 0.08184842 -0.09141587 0.10210153 0.040087555 0.08925116 0.027198829 0.027931105 0.15354718 -0.12632288 -0.053630248 -0.16156894 0.1673067 0.08408956 0.0069200373 0.016454726 0.13217697 0.007325131 0.11345471 0.040494557 0.047280833 0.06219084 -0.19307798 -0.09565604 0.09913603 -0.080642365 -0.10443546 0.036202278 -0.17573655 0.006386732 0.07418246 0.28742453 0.048092823 -0.0056573316 0.0018712182 -0.24037871 0.06291568 -0.1559379 -0.16097648 -0.0003021949 0.12714493 -0.05876049 0.18020427 0.08076719
529 0.09563609 0.098906785 -0.045154143 0.07020101 -0.045631953 0.14409263 0.075601585 0.07846948 0.110804036 -0.08093459 -0.12204237 -0.049059905 -0.025882859 0.0008171149 0.15129992 -0.018398827 -0.16352592 -0.027074926 -0.13026395 0.04819028 0.14820828 0.17999867 0.043070387 -0.060709603 0.06320533 -0.0050518606 0.008347343 0.0075791385 0.2016695 -0.17462358 -0.013531876 -0.06882791 0.06030584 0.36991474 0.0035770016 0.16967656 0.19297086 -0.034003466 0.08671867 0.07639691 -0.13136528 0.12649 -0.04859344 -0.2520565 -0.22469501 0.076628804 -0.022292472 -0.0023179804 -0.05231027 0.033779398 -0.009866092 -0.045458674 0.027025677 0.09485037 0.02341175 -0.1399213 0.033535026 -0.096605316 0.008252391 -0.043578923 -0.0768442 -0.108900234 0.06363835 0.10525751
1237 -0.21099283 0.0563851 -0.106316335 -0.08248147 -0.0067654834 0.1261745 -0.18897387 -0.181548 0.091330394 0.13035217 -0.06527613 -0.11146384 0.099677466 -0.101030566 0.13102092 -0.1284333 -0.11140107 0.10489271 0.034633745 -0.0971736 0.2655547 0.0056132623 -0.01692323 -0.07489941 0.06632646 0.20411336 -0.0086980155 -0.0027871758 0.09803805 0.11471335 0.09133211 -0.11358078 0.15943804 0.105052166 0.12499981 0.2672691 -0.051126603 -0.022089057 0.034042258 0.016664669 -0.11746909 0.101333655 0.06580482 -0.037205823 -0.16676545 0.13337868 -0.037259072 -0.26404566 -0.083551146 -0.139622 0.028238544 -0.05420837 -0.020646326 -0.10045634 -0.010128415 -0.011396204 -0.021859182 0.013688047 0.0105177155 -0.08083784 0.119327456 0.029370744 0.12064908 0.032691926
1673 -0.04157403 -0.19655767 -0.18804485 -0.06727342 -0.11432611 0.015923243 -0.008265699 -0.14693902 0.07990721 0.11231664 -0.03882275 -0.093298584 0.12267141 -0.0043124575 -0.018517308 -0.035516005 -0.16101018 -0.04586861 -0.023522923 -0.0040507596 0.09131216 0.16345677 0.13055807 0.023646718 0.14442071 0.027490074 -0.156809 -0.056815032 0.1580576 -0.14073855 -0.01756437 -0.12795988 -0.026602468 0.11435064 0.23735853 0.16977686 0.05571167 0.039606992 0.12775035 -0.062282253 -0.053913597 -0.010164878 -0.023602964 -0.057593912 -0.13325354 -0.14433724 -0.04034495 -0.057630096 -0.18720622 0.011005494 0.08853934 0.22276424 -0.038631435 0.1387162 -0.0019055284 -0.19442542 -0.001182663 0.013904349 -0.11539716 0.03381943 0.014774966 0.15304047 0.055329263 -0.044589035
748 0.09897029 0.118161365 -0.08896767 0.06551207 0.040212296 -0.04485213 -0.16125007 0.058688503 -0.020658482 0.028641334 -0.008855353 -0.11098406 -0.06525064 -0.07395849 0.2104106 -0.19682233 -0.16272368 -0.03570737 0.07175392 -0.019860623 -0.052761428 0.053588428 -0.13939135 0.12710424 -0.043751307 0.012140459 -0.023845082 -0.022143297 0.22757956 -0.018158106 0.066394396 -0.01399668 0.066752315 0.1608594 0.007425751 0.09625384 -0.14971827 -0.107335895 0.093257405 0.10561618 0.15963171 0.13881516 -0.17665322 0.0555936 -0.17959003 -0.13973068 -0.035848945 -0.056043398 -0.012202617 0.13127458 -0.09354555 -0.009953727 -0.08583854 -0.016790574 -0.082783915 -0.23925132 0.0390984 -0.0008423662 -0.05785076 0.056987103 0.04598879 -0.0050498215 0.14212386 0.033908717
724 -0.072392315 0.10909535 -0.18674482 -0.03317597 0.06510131 -0.013386261 -0.09535347 0.08114981 0.1135165 0.0861199 -0.07178284 -0.030231819 -0.050494194 -0.06667722 0.06595846 -0.012529227 -0.10975876 0.01407596 0.1289107 -0.092444964 -0.036530223 -0.013065045 0.053946707 0.016543094 0.2845252 -0.025047563 -0.019206371 -0.003111321 -0.0051214895 -0.060590316 0.08045703 0.026265811 -0.07520249 0.0620146 0.20652172 0.049103167 0.0964144 0.002128706 0.10163822 -0.114111 -0.18694976 0.0722493 -0.04207548 0.01645361 -0.12909861 0.12931734 -0.11055862 -0.18526402 -0.21373332 0.13290535 -0.0645947 0.23020482 -0.09098284 0.07658364 0.113932975 -0.09696514 0.04692566 0.018175855 -0.10302912 0.101628415 0.12184254 -0.035820503 0.17229041 0.03173042
613 0.021650175 -0.0006356123 0.022360649 -0.045145493 -0.05856393 0.08696941 -0.16521615 0.024097078 0.13207532 -0.08348396 -0.14801997 0.061413128 -0.020470638 -0.07755574 0.026471958 -0.13814783 -0.21065044 -0.11307895 0.028713593 -0.12830132 0.075492986 0.09069182 0.02391987 -0.1355384 0.009576918 0.05123515 -0.0419216 0.18485843 0.03479858 -0.02150011 0.061079726 -0.26619196 0.014253702 0.07431553 -0.01530556 0.17655592 0.15380421 -0.082601495 0.2667161 0.010032558 -0.004402087 0.09639711 -0.030263422 -0.066161945 -0.12846933 -0.041908577 -0.015492025 0.02133848 0.0059076454 0.029897466 -0.19388478 0.031433295 -0.061059613 0.0016306036 -0.12846804 -0.14539762 -0.015658049 0.16043669 0.0035507448 -0.07501282 -0.07383096 -0.17628054 0.065813944 -0.28621745
1491 0.17493378 0.00722894 -0.14523205 -0.18348375 -0.056387287 -0.014492413 -0.07924757 -0.09894685 0.19957344 -0.07119523 -0.009935076 -0.17729966 -0.009891851 -0.00028280675 0.019936481 0.09515584 -0.06576952 0.047787536 0.108884215 0.11604103 -0.021344317 0.049227662 -0.028127102 0.013453495 0.08507028 0.08181025 -0.02656597 -0.12877078 0.047825396 -0.082645394 0.087954454 -0.019965114 0.016977789 0.26355252 -0.10612562 0.0471193 0.105829865 -0.0029196362 0.060792316 0.031209543 -0.059386015 0.145349 -0.13193287 -0.09824442 -0.15723722 -0.013057317 0.026134156 -0.112810716 -0.2293815 0.13552047 -0.04411921 -0.04978452 0.028003907 0.024242403 -0.10564388 -0.13180643 0.028581068 -0.06279879 0.08697663 0.06908285 0.16312566 -0.14435191 -0.036371678 0.13874543
398 -0.09966368 -0.11391548 0.026052335 -0.17418726 0.08883473 -0.095041916 -0.09233453 -0.08998999 0.12785591 0.005307309 -0.039966065 0.00813355 -0.08762114 -0.004155005 -0.01026339 -0.07045534 -0.18760458 0.0347337 0.15165566 -0.1270712 0.12938361 -0.10040659 0.19688548 0.1276252 -0.046125308 -0.02126608 -0.027429778 -0.034286283 0.21596232 -0.13402916 0.055648547 0.008965788 0.09465345 0.111651994 -0.043699276 0.22141068 0.057990458 0.04121842 0.11756954 0.09594307 -0.032884065 0.13522536 0.11506921 -0.07624955 -0.34849274 -0.14484984 0.057026543 0.15730672 -0.05148909 0.023548523 -0.115971185 0.21353811 -0.032747097 0.02235563 0.03730111 0.033290323 -0.12649156 -0.12761064 0.016674252 0.035352204 0.087280855 -0.13949281 0.05050269 -0.024479894
1285 0.14818221 0.14969449 -0.09005447 -0.033805043 -0.112095304 -0.08229703 -0.20495093 -0.060572542 0.080818065 -0.08001056 0.012801749 -0.08388514 -0.17724365 -0.089374505 0.13173328 -0.023946911 -0.09952883 0.11854081 0.0359853 0.0060578166 0.024522357 0.035751686 0.012190744 -0.050552726 0.051244315 0.047873072 0.0746775 -0.13833909 0.010418773 0.039386995 -0.04058197 -0.23929584 0.14041369 -0.10678161 0.016773764 0.09733693 0.12440644 0.017471971 0.20973496 -0.022454415 -0.008487602 0.009242713 -0.0016134505 -0.071136974 -0.29530704 0.07085461 -0.065045185 -0.11703549 -0.11712301 0.20683314 0.121720396 -0.077151015 -0.039458755 0.01848494 0.022378089 -0.09391711 -0.08068246 -0.035651606 -0.0773438 -0.23790558 0.2070648 -0.040316705 -0.007881073 0.07479462
1288 0.10110233 -0.11839364 -0.049125344 -0.086634256 -0.04458776 0.2062294 -0.19926608 0.10708466 0.12020998 0.14140147 -0.03409441 -0.16364534 -0.041676514 -0.108479016 0.030633252 -0.1785799 -0.1962079 0.040265705 0.093359746 -0.16175595 0.006891879 0.020017253 -0.03807009 0.06729818 0.11323016 0.03900504 0.016988324 -0.0460129 -0.04476306 -0.0884985 -0.092061624 -0.027382858 -0.04097854 0.034391783 0.09952919 -0.03825273 0.1799479 -0.11703391 0.16118902 0.07248923 0.088882215 0.11507403 -0.14083514 0.03990814 -0.10161224 0.06420231 -0.05332918 -0.1450553 -0.04337516 0.08588571 0.020530507 0.08538788 -0.08792432 -0.013476584 -0.10091388 -0.09956033 -0.02677891 -0.0691363 0.01744099 0.04668185 0.08780687 -0.052486714 0.09588542 0.012688607
697 0.054588024 0.012234148 0.05287798 -0.0077200998 -0.09317785 0.100497186 -0.13092113 -0.10034615 0.23378241 0.07119161 -0.17993964 -0.06380406 -0.056571424 0.0026679023 0.09046933 -0.066765845 -0.1512082 0.06695074 0.0004408242 -0.015139343 -0.09764846 0.041380104 -0.055211235 0.06337977 -0.010272072 0.037586696 -0.005618085 -0.09883038 0.17363985 -0.0020789688 0.036216386 -0.04447968 0.13844533 0.16461271 -0.05480797 0.12343759 0.037314784 -0.097191244 0.07672026 -0.087255314 0.09945452 0.05261044 -0.17148012 0.0826157 -0.08139804 -0.13014768 -0.049316663 -0.13953038 -0.10544806 0.11028707 -0.03375134 0.1390929 0.06602416 -0.04938586 0.026245976 -0.16486375 -0.060244083 0.09487038 0.020520607 0.051556364 0.09710369 0.007193155 0.06257382 -0.07150922
1387 0.2291269 -0.12568022 -0.11866168 -0.04368826 0.066599876 0.048523016 -0.0016715224 -0.027075768 0.21470954 0.08969067 -0.023686374 -0.052728347 0.13468532 -0.081747755 0.14744952 -0.08178861 -0.20492487 0.07113889 0.26217636 0.02544192 -0.11770565 -0.05046853 -0.010840709 -0.17080455 -0.13417518 -0.15832081 -0.055370916 -0.103262424 0.12504673 -0.031202493 -0.027448613 -0.03843931 -0.016533412 0.10017947 0.09480718 0.27288282 0.041616846 0.02008428 0.17773476 -0.056006767 0.122316025 0.05321994 -0.12959145 -0.0995552 0.032607384 -0.03544635 -0.05704869 -0.0077390797 -0.0762795 0.18493746 -0.01849172 0.11272083 -0.060060292 -0.049803484 -0.00043268187 -0.12354577 -0.03230445 0.030714886 0.089081846 0.07111613 0.009035104 -0.02961142 0.066835515 0.14882493
1273 -0.019725127 0.026450438 -0.14387968 -0.013667412 -0.16781831 -0.053252164 -0.009395137 0.0030825892 0.1791071 0.00050189416 -0.098947905 0.028558627 0.122984506 -0.026657477 0.05982304 -0.15017545 -0.097523086 -0.05042388 -0.17201197 -0.07965502 -0.10780196 -0.11365267 0.17880458 -0.052031577 0.030698648 0.015426573 0.09917229 0.046833318 0.20873287 -0.07615897 0.06303687 0.09220135 0.027589953 0.24404591 0.052033775 -0.064658515 0.1870742 -0.16503961 0.12462967 0.026631376 -0.099683195 0.028265784 0.017858416 -0.071095586 -0.3264546 -0.22426112 0.062404823 -0.026873922 -0.17737702 0.2052286 -0.0026752478 0.0930054 0.13891254 -0.20761757 0.08882413 -0.007814192 0.07460091 -0.08523544 -0.043706223 0.015922954 0.059381485 0.0651674 0.09231333 0.012064669
87 -0.024786502 -0.094216414 -0.04528031 0.0048288302 -0.026757749 0.11374599 -0.009895095 -0.051400002 0.16321719 -0.086180754 0.13519649 -0.1759751 -0.036040403 -0.11098101 0.09263879 -0.0037831613 -0.11596478 0.06117556 0.016467325 -0.017308492 0.051127773 -0.009619672 0.025536409 -0.03025634 0.14041275 0.20184119 -0.03856671 -0.051858477 0.10152971 -0.026266705 0.072551854 0.10531858 0.09039504 0.1711114 0.009929655 0.14755024 -0.017841604 -0.110404626 0.08453038 0.13921677 -0.088935584 0.13072121 -0.13956457 0.008148878 -0.30864608 -0.13413449 -0.005193249 0.047544647 0.08118953 0.09688691 0.032501437 0.15070675 0.040042277 -0.09808725 -0.037416417 -0.15579368 0.09983519 0.076751 0.061424017 0.044085223 -0.02636906 0.07786849 0.05183466 0.06597609
1199 0.0018792221 0.036035754 -0.15468995 0.08909689 -0.13207607 -0.007674632 -0.11805535 -0.11327838 0.17083059 -0.21554285 0.10337889 0.062198248 -0.06729037 -0.12043555 -0.018291274 -0.003246572 -0.049487196 0.046830192 0.09534932 0.13577718 -0.08302279 -0.0454254 0.20183587 -0.08591002 -0.06346141 0.14347132 0.07245278 -0.074560836 0.13481091 0.13466813 0.054951698 0.0036141372 0.06783129 0.21857582 0.24224934 0.17554711 0.22123395 -0.05699578 0.07636283 -0.021969415 -0.025306534 0.020317104 -0.1272424 -0.09117132 -0.09338203 -0.11689562 0.047600076 -0.17106755 -0.11525144 0.12104859 -0.022344507 0.06900955 0.017295832 -0.12630065 -0.07008498 -0.016537104 0.09298605 0.0020793858 0.15761454 0.2937638 -0.041802604 -0.014950938 -0.07470611 0.093405984
1653 -0.046091598 -0.11325148 -0.09110652 -0.050630957 -0.14726636 -0.04447997 -0.08584426 -0.064124435 0.14564511 0.057957593 0.10786643 -0.0010883275 -0.11897362 -0.14399484 -0.15842 0.016378103 -0.1354167 -0.081937134 0.055338636 0.00018941794 -0.10372299 0.2134702 0.22101973 0.0655134 0.070763275 0.21191269 0.02418911 -0.10687137 0.01742734 0.061916936 0.019916762 -0.15560229 0.28281334 -0.055030774 0.2273088 -0.010311723 -0.15829453 -0.0056292764 -0.030671492 -0.1104112 0.010151756 0.16162898 -0.13557519 0.06509109 -0.35444608 0.014727692 -0.01885937 -0.17832625 -0.14262643 0.10018322 -0.10351928 0.01710463 0.037286416 0.025520148 -0.16531558 -0.21683332 0.039533984 0.0003921869 -0.02450187 -0.09384586 0.0828291 -0.1341184 -0.07361271 0.0020263018
1059 0.14309473 -0.054341692 0.04140644 0.029570062 -0.1071908 -0.060137756 -0.1694251 -0.0019606615 0.32339853 0.06746894 0.06771856 0.010843986 0.04769017 -0.07480911 0.014756634 -0.21238686 -0.14282027 0.12890267 0.09258642 -0.26498568 0.05317438 0.13855885 -0.073170684 -0.0017623049 -0.054835696 0.022817673 -0.032202154 -0.10296529 0.13212545 0.1762227 -0.068999305 -0.086520694 0.038816508 -0.07063052 0.027473979 0.17635615 0.07244882 -0.068427 0.019170297 0.037764244 0.0028829162 0.0057775984 -0.12325006 -0.13034205 -0.20781738 0.123760685 0.07440755 -0.058873016 -0.00020283351 0.0769236 0.089152895 -0.0596024 -0.064069845 0.08908422 -0.035784606 -0.08175399 0.0037601723 0.187942 0.035999864 -0.085730895 0.10813713 -0.010961694 0.13058212 0.053634893
773 0.017336365 0.06406456 -0.070920214 -0.00033116332 -0.0077720745 0.080646254 -0.030478302 -0.14294958 0.20934087 -0.01717717 -0.12744984 0.008873189 -0.07271458 -0.008946505 0.06489233 -0.19885783 -0.17203505 0.049594387 0.045890287 -0.15148048 -0.0417982 0.0008376826 0.08032856 -0.08737164 -0.010541473 0.045044363 -0.15189008 -0.059631713 0.07699461 0.091041535 0.052440424 -0.018983375 -0.11759266 0.19757445 -0.003635784 0.084590465 -0.07697147 -0.07094313 0.2726549 -0.043887258 -0.1476063 -0.02747899 0.044224557 -0.052783787 -0.08072784 0.08277332 0.014569316 -0.060147684 -0.20160557 -0.05597494 -0.024918994 -0.018565722 -0.010123253 -0.026343592 0.03382386 -0.14632702 -0.06903956 0.04334567 -0.079097494 0.17006959 0.041257687 -0.049955122 0.19043179 0.09388039
803 -0.05332899 0.08203241 -0.11207851 0.11399738 -0.019884795 0.109204724 -0.02026018 0.12577952 0.03461157 0.053020366 0.043246754 0.013366717 -0.1919628 0.07326518 0.10757398 -0.06692422 -0.17479387 0.042384725 0.18140733 -0.04166027 0.07227221 0.17527197 0.014221906 -0.03395968 0.054419257 0.0020869572 -0.04518781 -0.09350636 0.07599294 -0.010515945 0.05255323 0.026026918 0.19653529 0.12307127 0.08031852 0.1696948 0.08151583 -0.11749283 0.20755763 0.14370427 0.01628432 0.058472607 0.17335147 -0.087639675 -0.10380694 -0.00046065488 -0.058673237 -0.2851907 -0.07468104 0.028637832 -0.017444793 0.0245442 -0.17371479 0.06827624 0.09418638 -0.07185944 0.026386106 0.10179 -0.04210505 0.07390404 -0.08913882 -0.07594896 0.10772766 0.032092348
1194 -0.026902003 -0.11531512 -0.35548964 -0.021886855 -0.051942427 0.04806106 -0.0077111386 0.02476767 0.06194541 -0.019291887 0.116889 0.06497039 -0.00055223965 -0.0063429116 0.09354675 -0.2940805 -0.1743237 0.053497117 0.029040447 0.00018518754 0.059913825 -0.030982587 -0.07077845 -0.049487747 -0.06597659 0.16397892 -0.14915413 -0.08831913 0.19450484 0.0140178995 0.14296152 -0.20472687 0.033305433 -0.04863015 -0.07046524 -0.039463785 0.053037517 -0.0766555 0.13516274 -0.057054292 -0.060003553 0.15108243 -0.1081701 -0.119570374 -0.18557167 -0.03744949 0.080241494 -0.018034564 -0.09479743 0.029616186 -0.11250522 0.102017805 -0.0027867027 0.0021685066 -0.064483754 -7.2015144e-05 0.031856634 -0.043805454 -0.018354863 0.008674668 0.18226734 -0.01609672 0.11004927 -0.02097934
1506 0.025730371 -0.02801898 -0.037056305 -0.036345217 -0.08615945 0.07632187 -0.12987833 -0.023280572 0.19124767 0.06554538 -0.054238014 0.08837708 -0.026661795 0.0689501 0.16144319 -0.10894669 -0.1887482 -0.011252135 0.089708276 -0.1101872 -0.059249975 -0.020877413 0.052827884 -0.118270606 0.17206411 0.02543489 0.025982818 -0.122949526 0.06540281 -0.01603981 -0.12323961 -0.038504943 -0.14075226 0.084490724 0.27691892 0.07106128 0.07044451 -0.16073269 -0.041932736 -0.0557671 -0.047536798 0.03696905 -0.11386014 0.12781705 -0.19830109 -0.03325819 -0.020708542 -0.034445718 -0.20937873 0.0663689 -0.13101347 0.14822109 0.04652261 -0.06300762 -0.01836078 -0.02983647 -0.18903698 -0.024960028 0.12546605 -0.04497667 0.09270264 -0.02453993 -0.06600772 -0.06476025
733 -0.045871854 0.037765797 -0.17189266 -0.0053764265 -0.049926866 -0.045886725 -0.101523824 -0.07603956 0.0704924 -0.0043788822 0.0463459 0.03758024 0.056304865 0.011153236 -0.1047862 -0.116231665 -0.29287058 0.056961 0.024018569 -0.12543368 -0.013513761 0.038329393 -0.08477686 0.13523184 -0.048284523 0.09372847 0.07098616 -0.066191345 0.14125495 -0.122759335 -0.000654435 -0.00053269265 0.08216071 0.10253211 0.021789681 0.1427083 0.18398634 -0.090739496 0.11933601 -0.12458479 -0.035642076 0.03957575 0.020273129 0.13397238 -0.205407 0.039469283 0.0010664155 -0.1055083 -0.018492762 -0.018644478 -0.05212859 0.25775257 -0.053939994 -0.00017941487 0.0580621 0.008309497 0.16892794 5.4548073e-05 -0.03507584 -0.067373976 0.035094343 -0.116477005 0.091710165 0.11315581
619 0.018203571 -0.056415472 -0.031644307 -0.071253374 0.0022241897 -0.068915464 -0.066811964 -0.06594493 0.09805048 -0.0565869 0.042480845 0.09986344 -0.08334361 -0.0462194 0.04016659 -0.11797884 -0.0096076345 0.01620123 0.088211566 0.0690547 -0.006693775 0.11185468 0.17102574 -0.052685425 -0.08484243 0.018024947 0.02027065 0.03434289 -0.032250423 -0.018385394 0.02366266 -0.18710354 0.031090192 0.070698835 0.27475408 0.11025978 0.043980587 -0.0957529 0.19697776 0.11833286 -0.054962065 0.014889891 -0.11093775 -0.06703543 -0.23063946 -0.13141991 -0.23904034 0.048260804 -0.13735686 0.0031493134 0.13502896 0.1263232 -0.077186 -0.04317064 0.03466541 -0.16642132 0.026767984 -0.054394085 0.023843374 0.080760606 0.09652807 -0.079710074 0.008559373 -0.07974204
811 -0.11904519 0.16588704 -0.034904487 -0.050146263 -0.11422388 0.029289212 -0.024400204 -0.08316581 0.16986574 -0.08050446 0.11615024 -0.04352647 0.06314611 -0.12364846 0.029581739 -0.16375372 -0.05863595 0.104783446 0.14518256 -0.03446838 -0.0654875 -0.04664611 0.0024638574 -0.077772744 0.12389017 -0.092694655 0.034250494 -0.17360051 0.10799839 0.07254961 -0.07094074 -0.04468453 0.008041005 0.14432882 0.16776505 0.057513345 0.116718166 -0.27082503 0.13882461 -0.039811846 -0.19822067 0.10090684 -0.033102404 -0.09486678 -0.08561186 0.06675264 0.16163091 -0.04188685 0.008349139 -0.06853115 0.05416425 0.100412846 -0.019477038 -0.17267628 0.040084716 -0.21148854 -0.028067911 0.0301528 -0.010594963 -0.023976257 0.13183558 -0.050627176 -0.011872374 0.12797672
676 0.05467033 -0.07047529 0.01107347 -0.17910023 -0.081040844 0.13628475 -0.07947818 -0.025307247 0.17840521 0.07020243 -0.019487757 0.11918316 -0.14208353 0.04237008 0.16002162 -0.1225385 -0.023350481 0.07240331 -0.02962387 -0.06811687 -0.04913692 0.03172331 0.031544246 0.1277625 -0.04467578 0.037686512 0.15069371 -0.12630473 0.14150043 -0.081651405 0.20499486 -0.020109907 0.24992092 0.019566603 0.06248035 0.2850864 0.03277515 -0.023937466 0.29852885 -0.032560237 -0.07971431 -0.05115221 -0.06690322 -0.12684834 -0.050236393 0.0847037 -0.0068944003 -0.06264831 -0.04408378 0.09750088 0.026480265 0.017447082 -0.09102312 0.06512331 0.0067911134 -0.11364507 0.039188415 -0.01840379 0.00346952 0.1342527 0.05249544 -0.07365545 -0.012179521 0.055259485
756 0.10235923 0.062612005 -0.12821133 -0.017093496 -0.10197554 -0.020269718 -0.08071328 -0.13533826 0.31511718 0.07829158 -0.008474739 0.080638446 0.035517845 -0.060833987 -0.050586686 -0.17351109 -0.1895639 0.05462792 0.08959137 -0.076309286 -0.04250978 -0.03700768 -0.2656798 0.082381204 -0.03520356 -0.026480082 0.12855148 -0.07374868 0.040102337 -0.03156703 0.0044519957 -0.025204336 -0.037243463 0.08151676 0.23514761 -0.10186939 0.047128372 -0.0933595 0.22370815 -0.047583226 -0.26705554 0.033467535 0.064482376 -0.09750475 -0.07431117 -0.095899105 -0.030716613 -0.08118988 -0.21240465 0.15191019 -0.052022334 0.0985061 -0.022428088 0.10825697 0.088243395 -0.043891046 -0.013010643 -0.045040302 0.09189279 -0.0063025383 0.01581678 -0.05766277 0.15620032 -0.03301786
857 0.117694154 0.06984799 -0.09457036 -0.1793704 -0.049101062 0.024988895 -0.22091265 -0.04051004 -0.0037123174 -0.06455393 0.19830856 0.11677149 -0.20643088 -0.07314292 0.17565556 -0.121524215 -0.0960945 0.032303423 0.108196646 0.048685733 0.0032121895 -0.013631485 0.015931712 0.02667332 -0.0072785406 0.1260311 0.07741125 -0.022904968 0.049657155 0.0054466007 -0.068737514 -0.11215105 0.080463156 0.035770234 0.04982456 0.15032573 -0.004114451 -0.059090365 0.12076308 0.01131041 -0.08509657 0.12430185 -0.0713707 -0.14237349 -0.017753992 -0.09485707 0.24347901 0.06981599 -0.21228226 0.05678727 -0.10231376 0.085877545 -0.15711744 -0.04742077 -0.110916995 -0.20440474 -0.08958071 0.014449636 0.104016095 0.037303083 0.07716168 -0.116123155 0.110336065 0.043743636
411 0.03796103 -0.06399797 0.037693143 0.006491763 -0.0012861507 0.115704946 -0.11139569 -0.08888637 0.12908097 -0.02103672 0.042647045 0.16010457 0.02384687 -0.11341997 0.058975093 -0.049230877 -0.17087275 0.10294494 0.0026772737 -0.11077109 -0.06556619 0.20627916 -0.08811057 0.11208714 0.06955445 -0.05495517 0.03702072 -0.007077197 0.096041754 -0.048407935 0.011123377 -0.16591395 -0.13860497 0.07962028 0.24753949 0.047811598 0.015617715 -0.17883892 0.11996239 -0.029976605 -0.072313905 0.17302579 0.044187803 0.039403316 -0.25297955 -0.12175336 -0.12542301 -0.03624119 0.005990436 0.07935972 -0.0713491 -0.012766124 -0.064879924 -0.007625245 -0.006698999 -0.031808805 -0.023507591 0.028666366 -0.10179466 -0.01323111 0.03824242 -0.13865863 0.14416972 -0.00804708
236 0.025480073 0.03992646 -0.11202415 0.09585747 0.024948595 0.104232706 -0.22014241 0.15762118 0.08804509 0.029438114 -0.012678167 0.056927904 -0.051026594 0.065930575 0.101735115 0.20161067 -0.11296548 -0.030862952 0.020661397 0.019113753 0.14272459 0.12106062 0.06388369 -0.038442463 -0.008924976 0.20437698 -0.0003929645 -0.15912902 0.26067144 -0.06886274 0.100695565 -0.013776199 0.054241594 0.13151364 0.03167523 0.10247692 0.10874543 -0.3002643 0.11131054 -0.0026958724 0.025515867 0.089220226 -0.1898949 0.151409 -0.12503678 -0.066543676 -0.041228484 -0.15328357 0.033730336 0.037852064 -0.006228619 0.08126321 -0.1873089 -0.0091418335 0.07376939 -0.064046726 -0.09220647 -0.04500643 0.17279463 -0.030038921 0.0492056 0.036510855 0.11147165 0.014302668
1684 0.17128082 0.017423464 -0.09440934 0.0101465555 -0.062351797 0.036682293 -0.020199418 0.019889232 0.040527806 0.15931225 -0.07171176 0.15357982 -0.07656152 -0.0426901 0.084435575 -0.006701259 -0.118545175 0.07007956 0.14918767 0.06608695 0.044454467 0.12753102 0.026942717 0.12968452 0.055174205 0.0033419018 0.1813632 -0.14507586 0.060713906 -0.049321502 0.010345885 -0.024964875 0.13088238 0.2758313 0.14544956 0.06734917 -0.1890684 -0.080377765 0.045341272 0.09335315 -0.05950502 0.20101313 -0.0403303 0.021663025 -0.13522881 -0.15109825 0.014567281 0.0016705972 0.06467522 0.23267967 -0.037494067 0.28415638 -0.036059726 0.10915858 -0.14926536 -0.122466154 -0.0093329195 0.058074575 0.13403457 0.105832115 0.083907925 -0.027173445 0.14576729 0.032111604
1590 0.19100523 -0.1553984 0.057985585 -0.04496829 -0.002678911 0.0016825558 0.021890325 -0.33369476 0.13359897 0.06267443 0.07220163 0.026722765 -0.08024373 -0.11802916 0.18759298 -0.019439159 -0.17755657 -0.069467776 0.07844675 0.05335164 -0.045026027 0.05261233 0.016455168 -0.22884652 -0.30853954 0.01525169 -0.10637542 0.016418725 0.05411091 -0.067243956 0.05509231 0.061730813 0.05217468 0.10890651 0.18357944 0.11562411 -0.05319403 -0.04726567 0.29630235 0.006549835 -0.05799926 0.15169261 -0.11858416 0.054337513 -0.12996498 0.075373165 0.08917174 -0.080870114 -0.19346578 0.058552325 -0.11348117 0.13711075 0.106587715 -0.037488468 0.09897388 -0.109167986 0.1152225 -0.07619876 0.010021919 0.07801289 0.08058444 0.09126368 0.022517003 -0.0741872
4 0.08679807 0.16713853 -0.015858011 0.15427005 -0.023714311 -0.0639547 0.10278228 -0.050513905 0.12962337 -0.0828625 0.011884502 0.057214126 -0.022781067 -0.07143768 0.069654934 -0.12771775 -0.10661413 -0.012513146 0.22647339 -0.21538393 -0.05486496 0.1568286 0.04521422 -0.039171226 -0.07207627 0.09720556 -0.0130640585 0.049951248 0.12735318 0.18500713 -0.065390006 0.019300038 -0.124050975 0.07665949 0.06438055 -0.04751245 0.23690274 -0.1107447 -0.0024501577 -0.011732227 -0.024214407 0.18693748 -0.044178996 -0.21223171 -0.3361543 0.0071072965 0.017960498 -0.24554539 -0.12184944 -0.039917532 -0.25275743 0.09739252 -0.1029935 -0.06597801 0.006579306 -0.09238394 0.043581486 0.16917899 -0.072963946 -0.01306911 -0.050930735 -0.022017542 0.033617627 -0.043162204
568 0.06109239 0.06264407 -0.028663423 -0.16076548 -0.079337604 0.07524536 -0.102543235 -0.07806392 0.11666809 -0.08956093 -0.14401607 -0.065094285 0.026092995 0.15057315 -0.075521976 -0.102033466 0.022751788 0.07342228 -0.09266241 -0.09791119 -0.074027695 0.029882334 0.0968987 -0.07528248 -0.05050674 0.12758848 -0.036980797 -0.060153875 0.026690591 -0.21112539 -0.120044954 -0.27289063 0.057328116 0.12963374 0.05106726 0.26849225 0.18824331 -0.17423199 0.16978893 0.20755728 -0.05778701 0.11778364 -0.116577215 0.23417702 -0.25404173 -0.03224881 -0.072077736 0.018524103 -0.13253176 0.059639532 -0.04742651 0.052081257 0.0047561033 -0.0796699 0.07081949 0.04513896 0.019398905 -0.04589795 0.08189095 -0.048908573 0.16390195 -0.012579439 0.0052556195 -0.008228586
1000 -0.041715782 -0.10794481 -0.17475118 -0.12660034 -0.0862523 -0.06790827 -0.2589736 -0.12854917 0.09560153 -0.034879576 0.13453072 -0.060365573 0.14173049 0.029000545 0.07097738 -0.19746928 -0.063463874 0.025070759 -0.017875284 -0.09557212 -0.044445258 0.17658664 0.08771826 0.15315963 -0.1322833 -0.09384337 0.030182227 0.018802915 0.14563406 -0.18900979 0.003949 0.056669526 0.14011098 0.1303291 0.056018937 0.29435593 0.018807104 -0.08568274 0.1955089 -0.1610131 0.11325846 0.11882835 -0.032512955 0.00046246327 -0.0025689113 -0.009545793 0.031499147 -0.16844296 0.04569462 0.05288289 -0.028030278 0.06108209 -0.0027116062 -0.13523357 -0.11439807 -0.07964422 -0.0443348 0.060987335 -0.08472295 -0.0029618226 0.1401334 -0.225744 0.008403964 -0.029256934
1263 -0.027149916 -0.08817656 -0.21858756 -0.117592685 0.107878245 0.018434653 -0.08615799 0.02032994 0.038701825 -0.09209973 -0.06719691 -0.03815495 -0.21980654 0.0030639821 -0.007429984 -0.008572657 -0.07925451 0.06729183 0.04405385 -0.08555237 -0.037179112 0.039223958 -0.0050540864 -0.020287279 0.049326576 0.13326706 0.1247065 -0.075307496 0.14878573 -0.1352266 0.07421715 -0.067953385 0.114624664 0.08107851 0.12513636 0.106370136 -0.0044952556 -0.018090516 0.06897158 -0.07420177 -0.024718149 0.14302115 -0.111518204 -0.100438744 -0.099819265 -0.05519475 0.030822547 -0.15157782 -0.081514634 0.09986445 -0.07893018 0.09937131 -0.01052218 -0.009646605 -0.0712507 -0.047279757 0.005867162 0.080570176 0.0057591866 -0.007048211 0.19936928 -0.12712198 0.0274965 0.08767477
1700 0.13154499 -0.028727492 -0.02860924 -0.07855299 -0.01702526 0.092283696 -0.11630977 -0.06709176 0.19329947 0.1475126 -0.11300099 -0.021611603 -0.09073901 0.07597301 0.008888169 -0.08853708 -0.122619666 -0.0193562 -0.009993659 -0.12445668 0.06950135 0.11534222 0.07047293 -0.084904976 -0.027356915 0.20405242 -0.010723117 -0.14238587 0.08622589 -0.001828594 -0.057718124 -0.05439979 0.071339875 0.08246029 0.071550906 0.14809306 0.009238467 -0.03864271 0.08973062 -0.058193002 -0.04102354 0.0063121608 0.032349773 -0.03713176 -0.22176567 -0.070712954 -0.012470162 -0.029977433 -0.12939602 0.16028036 -0.017675834 -0.009574301 -0.045475077 -0.033085722 0.09915717 -0.122256115 0.040299594 -0.00079080084 -0.04185126 -0.11654256 0.0675639 0.0035019824 0.04461893 0.033981595
821 -0.094224446 0.052392635 -0.05771322 -0.015308111 -0.06706015 0.16388771 -0.111572035 0.007799875 0.22633347 0.042074595 -0.027189143 -0.0148320785 -0.0048460816 -0.008963373 0.09892183 -0.08277745 -0.20389791 0.008437974 0.049785294 0.022113958 0.059741408 0.16637732 -0.078170046 -0.123601206 -0.16481344 -0.0010435426 -0.05277655 -0.12804349 0.08185071 -0.006441046 -0.054865085 -0.103322566 0.112131655 0.20976564 0.038217433 0.16282766 0.024905566 -0.03141653 0.14370196 -0.11900794 -0.064450964 0.022252768 -0.078843184 -0.017039647 -0.08061183 -0.08540593 -0.15847795 -0.01826056 -0.07831106 -0.031169593 -0.022916554 0.102581255 0.022797227 0.007872417 0.0714868 -0.12115871 -0.138417 0.15659523 -0.0694888 0.041978233 0.08883474 0.017345931 0.007347132 -0.14518504
1618 -0.108765006 -0.007499786 -0.29465038 -0.083391905 -0.041811075 -0.06458796 0.011886766 -0.06696282 0.16236976 0.011508866 -0.021617062 -0.16755347 -0.063081525 0.088590644 0.12495558 -0.17750253 -0.17983396 -0.01601725 0.021067338 0.04777974 0.16037787 0.119265296 -0.013931783 -0.015827036 -0.024089135 -0.031281088 0.03610463 0.08528623 0.06375789 -0.008763258 -0.13941677 0.027246106 0.14367276 0.059343006 0.061026603 0.12867145 -0.08310833 -0.035467185 0.15277636 0.11633741 -0.15223037 0.041710407 -0.06471468 -0.050663833 -0.12575227 -0.036867667 0.12291884 -0.023808487 -0.14336136 -0.033580408 -0.13913836 0.0452952 -0.11017327 -0.010836385 0.029223723 -0.25882748 0.018623874 0.08158693 0.013262168 -0.025763137 0.12414144 -0.14123495 0.09200074 -0.09074101
1508 0.07187746 -0.113750346 -0.02305168 -0.13759623 -0.032601494 0.06785133 0.07897756 -0.017115133 0.21938257 0.02823106 -0.12753738 0.092145674 0.15138711 0.10834019 0.1570511 0.005485423 -0.15251847 0.083686404 -0.031236768 -0.104054764 0.027501822 0.09300314 0.048564773 -0.022973392 -0.1128912 -0.11889108 -0.044189006 0.08352023 0.14504711 -0.06331309 0.061992664 -0.26243025 -0.08241466 0.13402662 0.11244536 0.062082548 0.0017753211 -0.0931674 0.07533886 -0.028900499 -0.01258269 0.080618106 -0.20576893 -0.055690236 -0.18797861 -0.08012771 -0.113034 0.15618616 -0.23288263 -0.04165516 -0.027129939 -0.01602209 -0.093767844 -0.10808763 -0.080440834 -0.12084828 -0.0102655105 -0.05689986 -0.14706932 -0.04193696 0.124471255 -0.09018313 0.24457313 0.21348213
901 0.046480723 0.032229874 -0.061791785 0.06267593 -0.17244683 -0.05328997 -0.03701672 0.12517488 0.03403861 0.0748409 0.03644213 -0.03273174 0.03718577 -0.011965631 0.078808464 -0.2884001 -0.18902256 0.067821935 -0.042368498 -0.15201779 -0.09041243 -0.0980275 0.088863514 -0.095343105 -0.017345844 0.03701486 -0.053019576 -0.20562522 0.018299775 -0.08450428 0.17480938 -0.019415306 0.066961035 0.043976694 0.1000777 0.114193186 0.059786785 -0.07796248 0.120324016 0.09425004 -0.05185869 0.17431912 -0.02801769 -0.1546418 -0.18182671 -0.18647859 -0.07661153 -0.025096951 -0.0357364 0.18961728 0.061440174 0.09803662 -0.07109469 -0.07875402 -0.10741424 -0.1819797 0.042427298 -0.11118062 -0.03725977 0.15608618 -0.0115103815 -0.025405353 0.008991298 -0.05856436
1052 0.10702037 -0.10532498 -0.103271514 -0.037321523 0.08882737 0.0071496363 -0.0013384501 0.014464241 0.23533367 -0.085036054 0.084418304 0.015681192 0.049090143 -0.04957926 0.03542124 -0.10295781 -0.23896684 0.01317773 0.033153195 -0.009540398 0.03207272 -0.048151694 -0.029193293 -0.116698906 0.12835464 0.012070168 0.0627664 0.015175355 0.13727184 -0.044626314 0.00387271 -0.10301098 0.021026468 0.1802867 0.14143744 0.15701818 -0.0463904 -0.09657944 0.1781457 -0.031229319 -0.15105312 0.047053415 -0.28629097 -0.013340861 -0.051080517 -0.09058626 0.031975023 -0.015861059 -0.021692585 -0.06461419 -0.14596231 0.066174574 -0.17512727 0.11416183 -0.059017904 -0.00303293 0.093568906 -0.03099803 -0.04272807 -0.030112905 0.082127295 -0.017271867 -0.044575825 0.15233703
444 0.026712153 -0.042770408 -0.009951932 -0.00644777 0.038311396 0.022404974 -0.19561088 -0.004975247 -0.03153978 0.11418725 0.031751677 0.08847943 -0.16192444 0.07485982 0.12611791 -0.022032293 -0.11687885 0.03490437 0.16404141 -0.27231464 0.06786133 -0.021791877 0.13882245 -0.031626962 -0.06276927 0.021250412 0.06493994 0.09834766 0.06262278 -0.011510255 0.09770297 -0.090589695 0.108131416 0.14196043 -0.018843248 0.26892027 0.11902233 -0.047882166 0.20426598 0.00079208874 0.006971975 0.16631594 -0.016949704 0.052403547 -0.060427256 -0.16104369 0.09715301 -0.12723084 -0.18030947 0.08030215 0.05918066 -0.00066295813 -0.12798382 0.044093996 0.07957619 -0.07611584 0.047745023 0.16284147 0.026055224 0.0807263 0.026909128 -0.052650627 0.061131768 0.038182624
1257 0.015929071 -0.027749246 -0.010025178 0.13428025 -0.009554067 -0.013963169 -0.124435164 -0.11718595 0.17472075 -0.11231333 0.113174215 0.01005881 0.09880869 -0.020715445 0.09058082 -0.10821818 -0.16236833 -0.048491552 0.08212877 -0.05820883 0.122085765 0.019499704 0.1603955 -0.111919224 -0.0057015163 0.0821021 -0.07308288 -0.09801388 0.052855562 0.0012241418 0.06370546 0.08619035 -0.022607988 0.11181572 0.12387078 -0.071531884 0.11218612 0.04192428 0.117818706 -0.050318237 0.046404406 -0.0032362058 -0.09341096 -0.007331303 -0.15942056 -0.050748393 0.07656164 -0.028263703 -0.16385448 0.18060754 -0.0020114887 0.0092339115 0.05495137 -0.08257537 -0.10616876 -0.2275253 0.008280154 0.13912192 -0.06065034 -0.0701497 0.13823555 -0.014950802 0.1577572 -0.03308391
1283 -0.0065675783 0.036177207 -0.079792336 -0.09426014 -0.09518278 -0.03897054 -0.106133975 -0.03320564 0.18094565 0.06196369 0.085660934 0.008790761 -0.028575366 -0.081014246 0.10367097 -0.058163375 -0.021302039 -0.07279996 0.004948461 -0.13931483 0.023824746 0.09065318 0.060493473 0.14274782 0.07222167 0.075506404 0.034901522 -0.14005896 0.11669845 -0.13260303 0.063416004 -0.10346746 -0.04615166 0.08162957 0.14791697 0.054564398 0.011663185 0.032934956 0.06660172 0.07183702 0.039559104 0.070379935 0.015264249 0.019862955 -0.15573706 -0.070313744 -0.029955488 -0.16876003 0.034907 0.037778918 0.0011231762 0.10761018 -0.029901976 0.07951881 -0.1868147 -0.13937725 -0.101924844 0.08271194 -0.034390137 0.0032292681 0.20019378 0.08939912 0.20181213 0.08553989
448 0.017504968 0.00821604 -0.058253456 -0.037055247 0.0008993385 0.16784559 -0.09872505 -0.070459284 -0.014856654 0.056358665 -0.04890544 -0.031540964 -0.051003743 -0.20240861 0.16523956 -0.04652346 -0.15363456 -0.104502 0.17020307 -0.1979588 -0.18074827 -0.045036796 0.09383306 -0.124522075 -0.057418514 0.040545717 -0.0860787 -0.051478293 0.03849786 -0.12006983 -0.06692113 0.047302384 0.05740832 0.22234805 0.07167199 0.2370094 0.08134761 -0.059744 -0.0778712 0.008483662 0.10790547 -0.0011326723 -0.18032394 0.0027112626 -0.2401972 0.06190558 0.057423357 -0.056879364 0.0060069733 0.10275106 -0.050985567 0.0509151 0.02695245 -0.09879649 -0.07357715 -0.032599438 0.08669037 -0.055081323 -0.09437268 0.052015897 0.12765746 -0.027492851 0.18789572 -0.04958449
1531 0.0774799 0.09446713 -0.18872525 0.050325137 -0.0063619716 0.12934966 -0.14152162 -0.054624803 0.05468336 0.064846724 0.14736831 -0.037640974 0.04516101 0.050519977 0.16543178 -0.009916494 -0.18715192 0.12793757 0.107803576 -0.25150076 0.006306345 0.08986637 -0.13020307 0.034596946 -0.0845989 0.022321923 0.08005724 -0.09411567 -0.08848328 -0.0029803216 0.053106792 -0.14366099 -0.01185431 0.17837927 -0.0805254 -0.011566195 -0.028936604 -0.0913808 0.13832667 -0.035948902 -0.13883153 0.0282253 -0.07405734 -0.079504944 -0.1846408 0.08005078 -0.13266408 -0.23635352 -0.047732282 0.22265525 -0.04294727 0.13427617 0.038578004 0.081078075 -0.040418256 -0.058955047 -0.11017327 0.02705865 0.05346048 -0.079861194 0.050292104 0.08286467 0.025962215 0.016561659
187 0.08478727 -0.1648842 0.02900069 -0.0045413785 -0.018484872 -0.0078661125 -0.00024921793 0.022833478 -0.04171828 0.010262501 -0.037255157 -0.06629838 -0.2376676 -0.018839536 0.17977215 0.13700621 -0.21180955 -0.11853585 0.024080923 -0.1286777 0.07791546 -0.004580684 -0.0861034 -0.10963532 0.11677886 -0.12139489 -0.07082902 -0.011458732 0.16604412 -0.10210391 -0.04047537 -0.057415932 0.11214821 0.061137073 -0.060600482 0.13993736 0.24995975 -0.11301877 0.3055147 0.06980526 -0.09908361 0.14731339 -0.12504569 -0.07094562 -0.22003378 0.058683068 -0.11257048 -0.10304991 0.053544074 -0.020771997 -0.08434519 -0.094035506 -0.16856223 -0.0037360312 -0.099143915 -0.19474247 0.010049752 -0.02917787 0.108087346 -0.06149415 0.09532783 -0.04388604 0.08575277 0.07116093
840 -0.0822437 -0.04443052 -0.113360725 0.040906582 0.06446978 0.08157622 -0.14523475 0.0740366 0.12500955 0.005645216 0.027306244 -0.0135721285 -0.018999115 -0.08866714 0.009957615 -0.027654128 -0.17795974 0.05059083 0.24287188 0.10860307 0.11144237 0.21434739 -0.07639718 -0.047893994 0.0027890604 0.038058788 -0.006207294 -0.107736744 0.02851241 -0.0004909947 0.10469136 0.0010300719 0.08358315 0.07864481 -0.020547213 -0.059962466 0.10021921 -0.26782992 0.11700056 0.0117737055 -0.09372874 0.029017482 -0.097473785 0.130905 -0.16077411 0.098399885 0.050824493 -0.2171546 -0.025517456 -0.011249331 -0.13358629 0.07343185 -0.07327873 0.0950523 -0.022674287 -0.039181642 0.1628482 -0.01371386 0.0021194394 0.076829724 0.15117182 -0.077104256 0.15494278 0.017802753
417 0.025943214 -0.07697218 -0.10318966 0.01027507 0.07655076 0.068349764 -0.07655597 -0.014931232 0.2030905 0.07707469 0.012991937 0.091029175 -0.063819975 0.12471063 0.08146713 0.04475451 -0.050324075 0.09419427 -0.081185244 -0.04169255 -0.051889114 0.09039088 0.19729716 -0.096158355 -0.04767486 0.08844929 0.010063694 -0.075097665 0.17419766 -0.0554142 -0.08600457 -0.023677673 0.12341436 0.16772784 0.02953142 0.2159404 0.07085889 -0.12614855 0.06503581 0.00080972834 -0.16748662 0.060841594 -0.11293109 0.050843216 -0.15679725 0.016059658 -0.02514396 0.051639374 -0.051628415 -0.020178352 -0.12202919 -0.04831597 0.009043801 -0.19019023 -0.058647465 -0.1497317 0.011619756 0.039416622 0.0064541753 -0.024393937 0.060849614 -0.039382637 0.28995237 0.03820651
